Key: /conv2d/conv2d/bias:0, Shape: (4,)
0.14079107, -0.003600424, 0.1267169, -0.0039401236

Key: /conv2d/conv2d/kernel:0, Shape: (4, 3, 3, 3)
0.18723509, -0.23458171, -0.07491545
-0.056789447, 0.37183145, -0.26035032
-0.102594204, -0.17075777, -0.02977057
-0.16883823, 0.2648165, 0.29054084
-0.04523434, 0.37799975, -0.24601057
0.28885633, -0.268201, 0.15262835
-0.04681487, -0.2916714, 0.2733626
-0.07047872, 0.20879398, 0.11359145
0.14032307, -0.19432975, 0.21852998
0.064587414, -0.029139204, -0.17529842
-0.27456197, -0.10193654, 0.009927852
0.26718777, -0.27753535, 0.009936664
-0.15736693, 0.2433287, 0.17088377
0.15433332, -0.1391665, 0.18448411
0.24220623, -0.2030276, -0.115197055
0.0021261796, 0.32156765, 0.3011316
-0.12782425, 0.18604742, -0.26631096
-0.06612601, -0.15402222, -0.07268106
-0.27765414, -0.10416651, 0.09097275
0.18172456, 0.35173446, 0.053162552
0.17183842, 0.01020612, 0.24866907
-0.20124136, 0.14705986, -0.09810883
0.30721942, -0.14080963, -0.20696782
0.15520988, 0.08613283, -0.0742867
-0.023758003, -0.22667065, -0.12535793
0.37433195, 0.152527, 0.20250846
-0.2698242, 0.13215336, 0.07395461
-0.061087072, -0.044684503, -0.050249718
-0.030183472, 0.15475963, -0.11397659
0.027378418, 0.22087531, -0.04572743
0.024570674, 0.16340642, -0.25015688
0.14162356, -0.12633367, -0.14400212
0.07803085, 0.014293144, 0.014096529
-0.2709627, 0.08536225, 0.33593395
-0.17029178, -0.3383183, -0.29655272
0.25471076, 0.2800694, 0.204543

Key: /conv2d_1/conv2d_1/bias:0, Shape: (2,)
-0.014923576, 0.009500682

Key: /conv2d_1/conv2d_1/kernel:0, Shape: (2, 4, 3, 3)
-0.022870064, 0.18129522, 0.3562406
-0.17852598, 0.030947652, -0.08121291
-0.11536511, -0.044940375, -0.029593019
0.20643452, -0.2349237, 0.017488254
0.386576, 0.41850197, -0.21185738
0.34353206, 0.139343, 0.2984889
-0.29873365, 0.09108713, 0.087244794
-0.19760269, -0.18688233, -0.061368264
0.18635087, 0.29489067, -0.32407498
-0.26981476, 0.060111452, 0.31965655
0.3284736, -0.09067831, -0.034829274
0.10691167, 0.27700597, 0.19282092
-0.37731558, 0.45196417, 0.126678
0.36337048, -0.29315174, 0.32476923
-0.31678268, -0.123473994, -0.32214233
0.28609464, -0.21189125, -0.2840393
0.12973021, 0.3386775, 0.13190797
-0.076150335, -0.086124495, 0.31663424
-0.21699236, 0.36287248, 0.30506635
-0.12147746, 0.024727691, -0.29301167
-0.09687102, -0.09252478, 0.044983387
-0.14074378, -0.20810674, -0.08314116
-0.009907671, 0.22349711, -0.13958971
-0.025167044, 0.16561355, -0.060624506

Key: /dense/dense/bias:0, Shape: (4,)
-0.008957074, -0.0083004255, -0.00600384, -0.10314687

Key: /dense/dense/kernel:0, Shape: (3200, 4)
0.030740106, 0.027569598, -7.626589e-05, -0.017378537
0.007621684, 0.011722576, -0.021646181, -0.024442242
0.00795697, 0.025416443, 0.024427434, -0.0077884775
-0.00886197, 0.000990031, 0.00068304315, -0.06265619
0.0048130043, -0.037933737, -0.010199445, 0.023293708
-0.009035118, -0.016228506, 0.006861016, -0.06303639
0.023351237, 0.002308377, -0.024253119, -0.061430342
0.011853108, -0.01626556, -0.03500567, -0.063464135
0.030008031, 0.02706291, -0.038646076, -0.053507138
-0.004419704, -0.0115231555, -0.017530441, -0.040987458
0.02985038, 0.030355388, -0.040177703, -0.074516006
-0.032356787, 0.050704222, -0.016874086, -0.09609438
-0.020239767, 0.018120727, -0.040996127, 0.017326111
-0.047042746, -0.032215178, -0.006030647, -0.06653511
0.013235001, -0.026468692, -0.028275473, -0.04762869
0.0038491702, 0.013756535, -0.018204397, -0.049492683
-0.03303757, -0.04840349, 0.012597709, 0.0025460576
0.013299085, -0.028143177, -0.0407576, -0.10871298
-0.022571737, -0.03950825, -0.0063883048, -0.008832174
-0.011442764, 0.03991117, -0.045540806, -0.065446556
0.014738645, 0.002113241, -0.035694394, -0.028111659
-0.013199298, -0.004905715, -0.014158621, -0.113227196
0.04463818, -0.024105083, -0.033447266, -0.045488372
0.039140817, 0.04245058, -0.004529588, -0.117507294
-0.03417726, -0.025435967, -0.008730148, -0.065402865
0.01748141, -0.021207957, 0.02836973, -0.059190653
-0.035542104, -0.013623744, 0.03496473, -0.032935146
-0.026727928, 0.047688846, -0.022754109, -0.018565185
0.014455008, 0.0025784695, -0.0007222053, -0.060632415
0.03036979, -0.038481552, 0.0077410676, -0.040611763
0.028041335, -0.036139015, -0.024847882, -0.01578313
0.041270997, 0.041211598, 0.0055341097, -0.077315025
-2.7142301e-05, -0.03749373, -0.026666714, -0.07398018
0.031079598, 0.006299794, -0.03274242, -0.094432116
-0.033422403, -0.009499245, -0.038300775, -0.056058925
0.008508824, -0.031431034, -0.038063765, -0.10082003
0.021339227, -0.03617256, 0.026408497, -0.036319904
0.0066184066, 0.012838494, 0.002803657, -0.016174648
-0.010907115, -0.03383535, 0.038087767, -0.06459851
-0.031426653, 0.030377707, 0.013901695, -0.053390972
-0.04738391, -0.005876229, -0.03252656, -0.11306105
-0.0116230175, 0.027991364, 0.029426906, -0.091503285
-0.011411585, -0.039419156, -0.030020706, -0.013443485
0.0088720815, -0.002020917, 0.014422809, -0.1124611
0.02189249, 0.00679162, 0.0075938874, -0.0561776
-0.020224893, -0.020014454, 0.011419424, -0.019582888
-0.010156993, 0.024353549, -0.032113347, -0.025084216
0.012603264, 0.0293296, 0.025921714, -0.10408766
0.0085214265, 0.010970386, -0.004391208, -0.031239957
-0.014335565, 0.023442, 0.023984166, -0.06514993
0.026646562, -0.010203852, -0.0040952666, -0.015559408
0.037822135, -0.036268707, -0.03648487, -0.086973056
-0.03957738, 0.02229007, 0.0038695266, -0.009425051
-0.018170174, 0.022453407, 0.012406562, -0.047235403
-0.043382358, -0.025396788, -0.015588446, -0.06311649
-0.0017577114, 0.011849103, 0.02911647, -0.066333964
0.014742357, 0.0030746735, 0.033084076, -0.052410495
-0.02323382, -0.02943108, 0.007326007, -0.041045982
-0.042993613, 0.015995502, 0.033326928, -0.042114984
0.013269185, 0.0062539307, -0.029253487, -0.07988601
-0.008528625, 0.02665934, 0.015746042, 0.016661158
0.012489754, -0.0013757049, 0.040193386, -0.100645564
0.018599732, -0.047014687, 0.024552684, 0.009448822
-0.037269358, 0.026939709, 0.008377046, -0.08091311
0.028913962, -0.01981891, 0.009191263, -0.015681617
0.0029937495, 0.010287602, 0.004377342, -0.081785396
-0.042669315, -0.00025043637, 0.030206263, 0.012579409
-0.013055865, 0.023732457, 0.0068807513, -0.07515645
-0.007628572, 0.026137311, -0.0053282036, -0.031258922
0.015356667, -0.016141811, -0.03378116, -0.037324876
0.0023228822, 0.008826404, -0.029590808, -0.022340896
-0.015758786, 0.023093397, -0.028348519, -0.08239412
-0.04916718, 0.030373754, -0.02614194, -0.01059724
-0.02717155, 0.0335624, -0.01193683, -0.06688487
-0.046003044, -0.0022119037, -0.0081815, -0.033359207
-0.04185369, 0.005315454, -0.029432809, -0.053752244
0.013804327, -0.015742859, 0.0035111802, -0.0069250483
-0.05033766, 0.03587706, 0.006485221, -0.030432
0.023781363, -0.040233858, -0.0091184, -0.06668631
0.033322107, -0.044033006, -0.02102197, -0.01732287
-0.0006424515, 0.010258687, 0.005011564, 0.035957735
-0.03973791, -0.008122581, 0.03268894, -0.018218972
-0.015589319, -0.026532168, 0.008024851, -0.017843151
-0.034292594, -0.009078724, -0.015368529, -0.003986012
0.029167587, 0.026943872, 0.011451242, -0.007337398
-0.02806987, -0.027182193, -0.024151007, 0.02927299
-0.047737446, -0.027168652, -0.038002737, 0.045487422
-0.041283116, -0.030690039, -0.016303562, -0.0029730252
-0.017426152, -0.020505525, -0.04327768, -0.0077529843
0.026058355, 0.04345826, -0.0013415776, 0.024015246
0.02679822, 0.0004920105, -0.029131299, 0.024121756
0.029660236, 0.00044997293, -0.039470166, -0.0340035
0.012229306, 0.014858785, -0.0057004746, 0.012397851
0.028226579, -0.024638763, -0.037871636, 0.03359986
-0.016041052, -0.013724325, -0.04449464, -0.0002603177
0.02780482, 0.031246152, 0.041319467, -0.008400091
0.013144394, -0.017015943, -0.030329406, -0.028894112
-0.017138535, -0.030951329, 0.0009333558, 0.022817401
0.0029566227, 0.0024639934, 0.018114021, -0.07929169
0.007480989, 0.008148135, 0.023561016, -0.06473754
-0.03965194, -0.003439913, -0.012853841, -0.04234687
-0.040298756, -0.026317338, -0.032548912, 0.017305074
-0.03390619, 0.032596473, -0.010213679, -0.004035603
0.040717296, -0.022974892, 0.014049796, -0.089776084
0.028156873, -0.03893025, -0.04044077, -0.0037813766
-0.017243383, 0.010325659, -0.0076906662, -0.0047889277
-0.015744297, -0.0368857, 0.0058217426, 0.045435086
-0.04561137, 0.026427625, 0.026182268, 0.0098599885
0.022755723, 0.016978044, 0.00263442, -0.02094348
-0.030368509, 0.01622309, -0.023760423, -0.0074631493
0.03505114, 0.008711304, 0.03188558, 0.08107002
-0.015894758, -0.014472176, -0.04399157, 0.066204056
0.008059785, 0.0121710235, -0.008949989, 0.028184181
-0.034171063, -0.0005071865, 0.0049220286, 0.024701977
0.033023875, -0.016598782, 0.011323387, -0.020448523
0.0021589596, 0.02063542, 0.009561715, -0.0448445
-0.021860635, -0.024690304, 0.034473024, 0.034934253
-0.010892306, 0.03837423, -0.010478507, 0.013657354
-0.009351879, -0.0025073837, -0.013689816, 0.0033159626
0.0018099776, 0.011959666, -0.00952992, -0.027419722
-0.041862756, 0.014355757, -0.012559373, -0.0271155
-0.04251209, -0.027843582, 0.020992083, -0.053165693
0.03092848, -0.051058915, -0.014124673, -0.008767684
-0.00474073, 0.035242897, 0.042105917, -0.0028381872
-0.017426543, 0.01689408, -0.008184798, -0.001313109
0.02713878, -0.0071578375, 0.029964076, 0.043407105
-0.023592059, -0.015450252, 0.02208894, -0.019506663
0.01084504, 0.011493533, 0.036835816, 0.05726251
-0.032571297, -0.00040831548, 0.01665575, 0.034983657
-0.038207974, 0.023656115, 0.008360774, 0.0016454529
-0.0019087862, 0.0048223934, 0.0046447557, -0.024487983
0.041131284, -0.0029966729, 0.03188718, 0.04391265
-0.017802516, 0.0036602844, -0.038161512, -0.009717729
-0.025111156, -0.0016134875, 0.030008584, 0.05363624
-0.006490832, -0.018070798, 0.013929422, -0.008681715
0.0039562816, -0.034049515, 0.013327514, -0.0075085233
-0.032557096, -0.03050504, -0.047911916, 0.014460749
-0.013939214, 0.030487811, -0.04358191, -0.055720758
-0.0008145036, 0.015709607, 0.005183922, 0.019329894
-0.02678793, -0.006877501, 0.021582521, 0.0065517095
0.00070114376, -0.025729407, 0.016397089, -0.046897475
-0.01016666, -0.03934983, -0.009288954, -0.06223573
0.018225657, -0.0031305996, 0.011256161, -0.0066607757
0.02994425, 0.034061532, -0.025486851, -0.045169476
-0.030360969, -0.016645025, -0.01912858, 0.062729195
-0.0028711024, 0.03162319, -0.0011480285, -0.032214582
-0.034237202, 0.019223059, -0.044322103, 0.038891047
-0.010602075, 0.04627067, -0.009708489, -0.02926172
-0.03245754, -0.04076033, 0.029442888, -0.009163229
0.028075669, -0.023450099, -0.026859175, 0.0195548
-0.0051927846, -0.015055825, -0.048860934, 0.048613247
0.00994885, 0.03852895, 0.0117383115, 0.01772715
0.035030685, 0.022388864, -0.0056105186, 0.04394534
0.005273746, 0.016997883, 0.024580548, 0.04669341
0.024750018, 0.019525884, -0.03524886, -0.015525621
0.03867681, 0.012960604, -0.02613581, -0.041781794
0.034179073, 0.032560267, -0.016857747, 0.02779177
0.0132657895, 0.015112184, -0.041834824, 0.015449791
-0.012612727, 0.02604465, 0.027275173, -0.038278576
0.004145346, -0.0051967055, -0.006067029, -0.0551662
-0.031199723, 0.041904654, -0.030982357, -0.04998354
0.022187999, 0.043824278, -0.029206939, -0.066299185
-0.04422582, -0.010924242, -0.026161907, -0.046943866
0.0010535754, 0.021203198, 0.034526292, -0.017145831
0.01715925, 0.02861613, -0.034978375, -0.023632068
-0.0076787733, 0.037203755, 0.004562429, 0.018649872
0.009528147, -0.03796466, -0.032215223, 0.010896853
-0.041352164, 0.023400445, -0.007112101, 0.026645811
-0.026530335, 0.022734057, 0.0062952666, 0.049204472
0.027444955, 0.04213643, -0.033024583, 0.1006524
0.02992329, -0.0075329477, 0.0006723579, -0.009477695
-0.033312213, -0.015976515, -0.033693716, -0.045397226
-0.01623757, -0.02545364, 0.018714527, -0.032980032
-0.030201262, -0.0033663437, -0.027431965, -0.0023609833
0.035025503, -0.030048924, 0.025672354, -0.056075018
0.03200888, -0.011141028, -0.0002160689, -0.03677616
-0.02016622, 0.014507804, 0.020243628, -0.0063928477
-0.039927654, 0.027339753, -0.027848281, 0.024782348
-0.024140947, -0.012034247, -0.03412563, -0.03828704
-0.02282429, -0.014853844, -0.02544222, -0.025155013
-0.026555352, -0.03745525, 0.0038676353, 0.029571697
-0.022302039, 0.016229546, -0.041043706, -0.002393569
0.029353376, 0.0075419173, -0.03432666, -0.005412489
-0.038021956, -0.0022902684, -0.03051679, -0.02966341
-0.01803792, 0.025727816, -0.049128626, -0.008781124
0.047645696, -0.024333142, -0.0046394947, -0.06351873
-0.029029513, -0.0036834201, 0.028167542, -0.010439426
0.0278864, 0.019288123, 0.02940939, -0.041393463
-0.0009906943, 0.0071650436, 0.010787335, -0.010688156
-0.04697111, -0.019721914, -0.033911385, 0.054865245
-0.009346421, -0.038728163, -0.027688973, 0.0635982
0.015514843, -0.04198398, -0.020335918, 0.0683302
0.0013675932, 0.019273894, 0.018605383, 0.05318379
-0.031742234, -0.043524668, 0.035879824, -0.021676373
0.020862022, 0.021955231, 0.021909477, 0.045593806
-0.005751439, 0.008066694, -0.019727727, 0.0061491737
-0.00063441554, 0.029241627, 0.0059077395, 0.021438034
-0.012044068, -0.020360222, -0.045705337, -0.039668486
-0.006342081, 0.03784134, -0.042409286, 0.0003747086
0.029545287, -0.01144874, -0.043138046, -0.09009496
-0.018577129, -0.011514322, -0.029031686, 0.028041223
-0.0008024212, 0.030197013, -0.033276845, -0.018036382
0.014823927, 0.0037912722, -0.0038696243, 0.020134538
-0.009424753, 0.012777303, 0.044958036, -0.04623508
-0.026816882, 0.022938516, -0.04284263, 0.03714073
0.034942392, -0.017827125, -0.019779598, 0.0028115942
-0.031108914, -0.023550821, -0.017271273, 0.03352746
-0.026642952, 0.0015622013, 0.030845843, -0.025261085
-0.007311457, -0.0069859056, 0.013529062, 0.056126975
0.011456456, 0.0108381, 0.025537906, 0.026471684
0.026106171, 0.00067495427, -0.0052704234, 0.044921495
0.021452097, 0.006128368, -0.01357868, 0.028251719
-0.028947063, -0.04315452, 0.0025872174, -0.037638348
0.006605153, -0.0022826362, -0.007510415, -0.07021158
-0.018129127, -0.048280783, 0.0059682587, 0.007205113
0.037916288, -0.0053287516, 0.011582602, 0.023905423
0.032465976, 0.027584873, 0.03192946, 0.02042684
-0.012445542, -0.05160692, -0.011813519, -0.0046564625
0.00589077, -0.0319577, 0.018695658, 0.012710721
-0.027721504, -0.006228752, 0.01962296, -0.04839898
-0.02638854, 0.0012606579, 0.0008368862, 0.013986956
-0.018500965, -0.0105223525, -0.012274982, 0.004892265
0.03369904, 0.033845823, 0.036404554, 0.023946574
-0.039555553, -0.044084396, 0.018523954, 0.0012509348
-0.015126643, -0.045790322, -0.014925497, -0.021078436
-0.019099288, 0.0038542792, 0.039530203, 0.0057439916
-0.0016734604, 0.010406961, -0.04748138, -0.03303484
0.00873985, 0.01279116, -0.045072325, -0.0049008983
0.007102535, -0.050946083, -0.042152874, 0.054876138
-0.037153278, 0.034711383, 0.023425408, 0.018069992
0.0067505273, -0.008115542, -0.03529821, -0.007143585
-0.001197018, 0.0069508213, -0.046802558, 0.05901194
0.043858223, -0.03449191, 0.027881311, -0.009598935
0.034560744, 0.0018976572, 0.03694782, -0.017270321
-0.018040514, -0.01542722, -0.026833033, -0.050414365
0.012475501, 0.009169429, 0.031783022, -0.06373605
-0.03256809, 0.041018274, -0.043743536, 0.015112332
0.017354973, 0.018752618, -0.005348395, -0.020458614
0.038261063, 0.014797857, -0.026879318, 0.0294949
-0.012986286, -0.021499122, 0.03480789, -0.074205026
0.01092434, 0.022921288, 0.019271147, -0.014341121
0.023094876, -0.025276965, -0.021714225, -0.0844536
0.01407711, 0.033874437, -0.034569312, -0.009578253
0.0048573967, -0.011414602, -0.038284503, 0.016633468
0.009054912, 0.011458021, 0.012200392, 0.022274502
0.004726932, -0.023937762, 0.0013776794, -0.032439757
0.04337661, 0.030213669, 0.017874258, 0.01704142
-0.032702148, 0.03309223, -0.04877074, -0.006498424
0.015724974, 0.004732438, 0.030577589, 0.018694917
-0.01865976, -0.027283074, -0.031362783, 0.053270817
0.03902044, -0.009952274, -0.025191393, 0.025661224
0.021096287, 0.03678147, -0.020688077, -0.012886905
-0.037737593, 0.01171184, 0.022447731, 0.032725286
0.03495075, 0.031312637, -0.040580623, 0.053304024
-0.012198489, 0.020484604, 0.0061201286, 0.014704466
-0.029802745, 0.030873375, 0.017375192, -0.020405672
-0.03314159, 0.03561376, -0.018969264, -0.020445675
-0.010626234, 0.01808923, -0.0053823125, -0.008640781
-0.02426031, 0.030563934, 0.0043154126, 0.008391131
-0.01679721, -0.019542646, -0.03533272, -0.07612675
0.021440202, 0.0019072704, 0.0063755168, -0.00632642
0.01660061, -0.023229526, -0.048423294, 0.0043345527
-0.0015007249, -0.016290672, 0.016530575, -0.009973791
0.035497643, -0.03960696, -0.039629564, -0.03743228
-0.040304393, -0.023510957, -0.013386177, 0.0024331717
0.035520602, -0.024093881, -0.002814076, 0.025140455
0.020076388, 0.01684586, -0.0075474177, -0.018052751
0.02417238, -0.028334932, -0.011203427, -0.046857845
0.018232185, -0.036605347, 0.014975348, 0.01683247
0.02159811, 0.02213419, 0.04541028, -0.038521793
-0.019013954, -0.02886661, 0.010684812, 0.019050539
0.024320595, 0.035879765, -0.035012513, 0.03303863
-0.013012774, -0.030546138, 0.031495064, 0.008968741
-0.018427223, -0.018042894, 0.020810723, 0.03647522
0.011709183, -0.047864713, 0.006806743, 0.0076244073
-0.04031797, 0.0013232142, 0.006603247, 0.008613217
-0.03201092, -0.011962017, 0.01292839, 0.0011864497
0.028017327, 0.032712393, 0.009724502, 0.05161024
-0.017698042, -0.0064443843, -0.029191732, -0.049385015
0.036794983, 0.022769293, 0.004797275, -0.05401244
0.018466685, -0.015697721, -0.022548176, -0.0053476864
-0.010266417, -0.023725457, 0.003953238, 0.020363275
-0.005335167, -0.014151316, -0.044652842, -0.01839274
-0.01563048, -0.041776948, 0.03947809, -0.016009348
-0.0017955388, -0.010015102, 0.0047929436, -0.0016959838
-0.020307869, -0.049794693, 0.0072956104, -0.035726275
0.015168277, -0.009707863, -0.0292091, 0.024788389
-0.0018567867, -0.033587024, -0.040790115, -0.021353949
0.036230173, 0.018412424, -0.033586774, 0.03682579
-0.047241446, 0.005036693, 0.0035815246, -0.00040456367
0.01780205, 0.02798956, 0.030871686, -0.020609943
-0.011115242, 0.012176837, -0.013514651, -0.03247523
0.02570586, 0.030191818, 0.014358539, 0.00064147316
0.011053754, 0.024372585, 0.006800186, -0.061466567
-0.00096964464, -0.0025240183, -0.03892669, 0.013644085
0.027583484, 0.014954307, 0.024961956, -0.009771015
0.031465996, -0.009772994, -0.009258889, -0.027953079
-0.02968613, -0.0071698204, -0.025103388, 0.004576512
0.007143439, -0.026159875, -0.042674404, -0.023411002
-0.03887829, -0.035569187, -0.03972342, 0.026282588
-0.040163685, -0.032605313, -0.045712724, 0.014580679
-0.031118829, -0.042154927, -0.021372309, -0.020179262
-0.025939884, -0.048706505, -0.0056265816, -0.014001017
-0.017119218, 0.03849379, -0.04120612, 0.0034159864
-0.022235377, -0.0036066896, -0.010367079, -0.009435795
0.025682645, -0.0016935284, 0.0037184989, -0.044635188
0.026080621, -0.03361805, -0.026435059, 0.029639192
-0.02865342, 1.033168e-05, 0.012997932, -0.028213162
0.03465243, -0.014049744, -0.045007966, -0.028060297
0.0060191075, 0.009701782, 0.039711617, 0.012919798
0.013009079, 0.031929586, -0.0122224875, 0.024591543
0.026814533, 0.032742742, 0.018856596, 0.03704946
0.026379032, -0.030897615, 0.036212932, -0.0412921
-0.025451282, -0.00045291052, 0.008015718, 0.062201902
0.023945715, -0.050843365, -0.013576959, 0.03320543
0.028482627, 0.0024156768, 0.02396556, -0.04069188
-0.018111993, 0.024375414, -0.040814012, -0.05339836
-0.03952886, 0.028076876, -0.025882274, 0.009469947
-0.033820108, -0.039484393, -0.027635925, -0.058229547
-0.02251924, -0.026070163, 0.005319901, -0.10565072
-0.007235934, -0.030868424, -0.041202635, -0.020244528
-0.018296812, -0.014021162, 0.0045293025, -0.08003593
0.015003716, -0.02787992, -0.017888783, -0.06253276
0.009183022, -0.023989195, -0.018692082, -0.10144337
0.0070162024, -0.03354156, 0.0114935795, -0.024911849
-0.023561426, 0.019829165, 0.021946443, -0.037649218
0.022701768, -0.014627355, 0.016214276, -0.03794358
-0.013868541, -0.02479813, -0.03225438, -0.037479807
0.014403564, 0.017101169, 0.018025586, -0.04415478
0.022824375, 0.0022230076, -0.02252016, -0.04379356
0.006205832, 0.0058106743, 0.009394366, 0.0060601905
-0.039375074, 0.015676811, -0.011438025, 0.011822536
-0.011227563, -0.015045643, -0.00031873197, 0.012387548
0.010268787, -0.007534506, -0.045858428, -0.029391998
-0.0368855, -0.03365448, -0.004427279, -0.005175582
0.0011511117, 0.026629956, -0.032974545, -0.09146505
0.01751737, 0.042642523, 0.0032522802, 0.014444561
-0.005929964, 0.021729067, 0.0034736358, -0.02442707
0.020096354, 0.03551907, 0.028236479, 0.01038112
-0.04098663, 0.004372774, -0.016125007, -0.048698444
0.034052175, 0.018996023, 0.00863566, -0.0037916503
0.0033945271, -0.012073663, -0.008615048, -0.047537245
-0.038157243, -0.0055438043, -0.024701156, -0.05670867
0.027764117, 0.012115143, 0.0076394966, -0.04387859
-0.024599625, 0.03382945, 0.030269189, -0.04665245
-0.030393446, 0.0029017292, -0.006418897, 0.0011267065
0.03399252, -0.001557015, 0.029831551, -0.032709856
-0.0029949856, 0.009766676, -0.042476982, -0.093257755
0.01408809, -0.004115293, 0.0064967466, 0.04414346
-0.0045360597, 0.016306778, 0.028870834, -0.012154542
0.009018273, 0.0070100296, -0.01161665, -0.012802453
-0.039252713, 0.031242799, -0.046619423, 0.052168958
0.021001907, 0.03283422, -0.025109924, -0.0034136977
-0.028074248, -0.0069188583, -0.0030335635, 0.007383951
0.0318072, -0.0029943096, 0.01428174, 0.02773296
-0.021716842, -0.025236897, 0.030494317, -0.02781704
-0.03686657, -0.01769875, -0.0032714787, -0.006961839
0.0011824444, 0.0025661134, -0.03741272, -0.019326854
-0.009713998, -0.021676635, 0.028632017, -0.008101814
-0.032097094, 0.02126426, -0.039944254, 0.022707304
0.005967688, -0.043748353, -0.0007329316, 0.019473217
-0.04283691, 0.019371834, 0.021154398, 0.003016857
0.020609394, -0.03844102, 0.04618588, 0.015022251
0.040365856, 0.0013373088, -0.01050638, 0.02687222
0.020051554, -0.026380552, -0.029403675, 0.0053926306
-0.0100104045, 0.0010021669, -0.0073740594, 0.038836006
-0.04785148, 0.025639266, -0.0018587755, 0.073531896
-0.045570944, 0.015567262, 0.008522854, 0.039759807
-0.024827195, -0.032755014, 0.0104954755, 0.05129981
-0.014689065, -0.03065471, 0.014294062, 0.04810141
-0.004364267, 0.010409151, -0.025626892, -0.02080525
-0.03367024, -0.044347934, -0.03206833, -0.054289714
-0.043695748, 0.0055836895, -0.018252006, -0.015889205
0.0032280544, -0.043259148, -0.001888549, -0.02635666
-0.00330444, 0.009571928, -0.027985072, 0.02668412
-0.032403048, -0.035557788, 0.017571013, 0.013015519
-0.02150296, 0.032574173, -0.008840071, 0.0041397717
-0.006660185, 0.009118057, 0.0052781897, -0.054798946
0.00066397525, -0.03640927, 0.005833532, 0.0021200173
0.028739316, -0.020263642, -0.009046627, -0.0678562
-0.015864206, 0.011941941, -0.036594313, 0.017819135
-0.041562665, -0.045359116, 0.0152379265, -0.05307978
0.025265524, -0.038273692, -0.010796503, 0.048583765
-0.00908453, -0.047892865, -0.03149162, 0.04428486
-0.024849232, -0.0047451044, -0.018948196, -0.03740161
0.03177667, -0.006232755, -0.0048634894, 0.0053593307
0.03966359, -0.0030736085, -0.027826305, -0.047470387
0.03429916, 0.0052712313, -0.0012462272, -0.046583842
0.036800362, -0.035791986, -0.022072084, 0.010408208
0.0042340583, -0.014204217, -0.00018334016, 0.0020467304
-0.022838041, 0.004959427, -0.019591337, 0.024408372
0.012128263, 0.022677615, 0.010970922, 0.011647348
-0.045328178, -0.034624353, -0.044009592, -0.012315391
-0.03439131, 0.022951035, 0.0061007924, 0.023344845
0.029646592, 0.029431041, 0.008406703, -0.05612951
0.009418365, 0.005852364, 0.028853163, 0.016279139
-0.03236678, -0.013453709, -0.0066155097, -0.013088049
-0.024697162, 0.0012325748, -0.015135211, -0.022833532
0.014373917, -0.016249683, 0.017979218, 0.009243973
0.018572195, 0.0060837623, 0.0025190301, -0.066970386
-0.0050953566, 0.0030886363, -0.0065274555, -0.041844774
0.045315333, -0.0028536767, 0.00072041154, -0.08425037
0.042233177, 0.019639319, -0.009291831, -0.052701034
-0.040788133, 0.0056200717, -0.0058389036, -0.074272245
0.0195718, -0.012727422, 0.005491709, -0.0023477701
0.019727904, -0.031059451, 0.033563346, -0.028683102
0.019230338, 0.0018782776, -0.013801614, -0.03719064
-0.021285698, 0.017433638, 0.035835113, -0.042593382
0.050323803, 0.0043590493, -0.043689277, -0.06417839
-0.023458881, -0.0108356355, 0.014524601, -0.058271434
0.026972253, 0.041479327, 0.004613685, -0.024967441
-0.021906462, 0.0076776515, -0.0111412285, 0.012703652
0.0066480716, -0.030562203, 0.03398902, 0.0061577098
0.018639732, 0.032383267, 0.031520747, 0.023996627
-0.025240885, 0.010137388, 0.03186021, -0.036738507
0.049563978, -0.014443343, -0.0066395635, -0.042737372
-0.0228746, 0.030807827, -0.041069083, -0.02768261
-0.0104885595, -0.011216989, 0.015601013, -0.035045896
-0.0207141, -0.043146577, -0.006193356, -0.051466454
0.026956648, 0.011154923, -0.02435876, -0.046053424
-0.016173782, 0.04053952, -0.015453591, -0.05936819
0.0017875959, 0.028819295, 0.014193859, 0.024891907
-0.0042783665, -0.00442787, -0.0065604253, 0.009661353
-0.010429662, -0.012452524, 0.014500477, -0.10609143
0.014216459, 0.0038657545, 0.027469466, -0.044125162
-0.025146892, -0.01685333, -0.003202363, -0.09647984
0.036863495, 0.026974903, 0.010683067, 0.021400955
0.012870186, 0.0075420556, -0.036223877, -0.044108946
0.028981712, -0.026339008, -0.031749815, -0.010540464
-0.012898668, -0.039174795, 0.021965668, 0.002874299
0.027595805, -0.037618976, -0.004300932, 0.052723244
0.007977299, -0.0043287403, 0.03358318, 0.04854693
0.033267863, -0.041646652, -0.03781843, 0.011652095
0.04258269, 0.018566662, 0.02264609, 0.018084548
-0.041131623, -0.032966804, -0.010400562, 0.018285414
0.024506297, -0.029009761, -0.042685583, -0.015913755
0.036431503, -0.024605175, -0.03547731, 0.043486387
0.036759444, 0.010437771, -0.0049237884, -0.0034542298
-0.03777, -0.030014077, -0.026042407, 0.038812786
0.022881087, 0.010762562, 0.03509099, 0.008381094
0.008761833, 0.037084, 0.008006267, -0.010123892
0.01710274, -0.047926225, 0.037392184, -0.029814476
-0.013577429, -0.0058326167, 0.010876561, -0.012737003
0.02725276, -0.024894023, -0.03770038, 0.03584547
-0.01629349, -0.0022840365, 0.029406343, 0.07014106
-0.024662787, -0.02292063, -0.00622227, 0.04761137
0.021926533, -0.007858155, -0.0045600757, 0.06536432
-0.016210511, 0.044235468, 0.012421053, 0.03980809
0.018608747, -0.01379531, 0.024473993, 0.090160534
-0.022168636, -0.0046302425, 0.016962234, 0.041191254
-0.028208982, -0.015470835, -0.0074009863, 0.029432815
0.00068936724, 0.035749286, -0.03656071, 0.0005410244
-0.039040934, -0.05054514, -0.011083936, -0.019084046
-0.032173365, 0.025202002, 0.0075895693, -0.05547275
0.033339582, 0.01428232, -0.020058425, 0.0069852425
0.0039560846, 0.032190274, 0.018786568, -0.014418272
0.0085505145, -0.0032981068, -0.012125854, 0.01220964
-0.017834216, 0.024800472, -0.025863005, 0.012909221
0.011434344, -0.025983209, 0.018327057, 0.0010440467
0.038558196, 0.006713528, 0.00051846984, -0.0035723841
-0.046440154, -0.005224596, 0.007888013, -0.016476471
-0.0064597875, -0.0330382, -0.0077157207, -0.046369433
-0.028570447, 0.02497616, -0.024641125, -0.050912734
0.03415738, -0.010407206, 0.031759452, -0.007690961
0.02794972, 0.02577725, 0.031977076, 0.006160824
0.006308983, 0.03548277, -0.02240711, -0.017757585
-0.028665839, 0.032370113, -0.028467225, -0.016074903
-0.019707503, 0.0013633613, -0.03474076, -0.0015408761
-0.033274185, -0.033682592, -0.03895712, 0.008115137
-0.03219268, -0.025224706, -0.0383712, -0.031394962
-0.05075403, 0.02169679, -0.009782546, -0.036976047
0.012365347, -0.0023750472, -0.028528249, -0.05419305
-0.024171207, 0.032713924, -0.023764659, -0.04669086
0.0288644, 0.022946082, -0.020309225, 0.018242814
-0.050563194, 0.027225023, -0.025185853, -0.029096605
0.02441731, 0.0009005568, -0.046396043, 0.030504884
-0.0008096336, 0.016374914, 0.01783595, 0.0318002
-0.014622053, -0.019831384, -0.024201375, -0.024278453
0.007934618, 0.013748332, -0.011286856, -0.006985554
-0.03608558, -0.026736667, 0.02078512, -0.05292302
0.024928791, -0.024929365, -0.00951927, 0.0074271276
-0.0001713402, 0.038027927, 0.0065777306, -0.08931467
-0.013129939, -0.03148935, 0.015046565, 0.0059532323
-0.033812895, -0.024911312, -0.03538124, 0.02723112
0.0031304613, -0.028956234, -0.03284843, -0.054542236
-0.019692766, -0.011454251, -0.021299994, -0.035363592
-0.011123217, -0.014409302, 0.021689758, -0.026096763
-0.01189433, 0.013061876, 0.026261076, -0.083043955
0.020545036, -0.019758245, 0.007737553, -0.051520802
0.0067749196, 0.037515104, -0.024377279, 0.021254005
0.012756894, 0.009194347, -0.032494288, -0.062679626
-0.036260363, 0.019957779, 0.012924273, -0.05032295
0.041010275, 0.024077874, 0.04036751, -0.08634514
-0.025154188, -0.023526518, -0.03910499, -0.03283714
-0.033940684, -0.010706263, -0.01051643, 0.016427176
0.032046404, 0.026259385, -0.01176383, -0.043535005
-0.019130364, -0.006105476, -0.037166785, -0.034936946
0.004240534, 0.033084597, -0.011793571, -0.037784226
0.03465664, 0.009690464, 0.006742015, 0.010561559
-0.009633989, 0.0058027534, -0.0058819167, -0.052660745
0.037519764, 0.048214667, -0.02818792, 0.013523397
-0.049327083, 0.009403882, -0.04034407, -0.0011912842
0.029587148, 0.047055352, 0.0016454167, 0.012743308
0.032884575, -0.022527076, -0.011736797, 0.006041239
-0.020314578, 0.03808999, -0.014230034, -0.080479555
-0.016630076, 0.033717927, -0.01694732, -0.11500021
0.004304331, -0.025210783, -0.043667793, -0.007549499
-0.020462066, -0.007133409, -0.023768628, 0.031016752
0.030041935, -0.032085724, 0.03353893, 0.03161105
-0.02410694, 0.013181484, 0.04260263, -0.05184013
0.01746051, 0.012813296, -0.010045749, 0.004020338
0.0017155723, -0.0075659077, 0.029671144, 0.0009532629
-0.039159946, -0.027678542, -0.0060677477, 0.03603953
-0.010568803, -0.014019937, 0.024476437, -0.024110714
0.021941707, 0.008553512, -0.0054006428, -0.01773805
0.007890251, 0.01064276, 0.0105408495, 0.011468091
-0.0012767479, 0.022538789, -0.016179502, -0.027551908
-0.0028981338, 0.03862315, 0.0030451342, 0.046227917
-0.013823514, -0.011743097, 0.016558416, -0.002176274
0.020600477, 0.017328696, -0.011132049, -0.022628408
-0.01883623, 0.029710187, 0.032707386, 0.002962936
0.014148028, -0.02228315, 0.030867621, 0.015526514
0.031045243, 0.011062968, 0.0009485129, 0.0830932
-0.021149866, 0.0269675, -0.04086832, 0.046487853
-0.02511976, -0.03399868, -0.009274992, 0.045620862
0.027977275, -0.019497056, 0.030349884, 0.076317884
-0.022032795, 0.03904598, -0.041047, 0.056202922
-0.017989933, 0.014688049, -0.044496305, 0.05495798
-0.037414525, 0.037646122, -0.043657873, 0.100676194
0.027187366, -0.005460493, -0.010563533, 0.026462443
0.024076382, 0.013323603, -0.032024723, 0.035371754
-0.03346507, 0.023346888, 0.021779569, 0.056238115
0.024930114, -0.033862535, 0.006494216, 0.053913996
-0.027890055, -0.032031823, -0.03144685, 0.043473415
0.028533876, 0.014712598, -0.031921178, -0.009240654
-0.026375188, -0.02315827, -0.0413347, 0.038273323
0.0019672248, -0.0073399753, -0.007485562, 0.0267786
0.01893187, 0.011114912, -0.018429773, -0.017230695
-0.0018052615, -0.015277181, -0.02028848, 0.054319415
0.028305398, 0.0025444385, -0.033667967, -0.019563597
-0.04443388, 0.0082065, 0.03315247, 0.042740278
0.023928257, -0.03555869, -0.034231544, -0.018707395
-0.041460287, 0.022848688, 0.036624283, -0.04732035
0.010219654, 0.03800318, 0.02877709, -0.021012321
-0.020062553, -0.0056197993, -0.012359753, -0.00730114
0.016271122, -0.021081263, -0.03259296, -0.0071837464
0.007379012, 0.0034785555, -0.0439191, -0.0049767895
0.02501306, 0.03617882, -0.047490403, 0.018239062
0.042009767, -0.023552662, -0.014600664, -0.055989202
0.0049790563, -0.041561894, -0.006116301, 0.004375026
-0.033359252, 0.038877137, 0.013005739, 0.0005125676
-0.0016458337, 0.041320927, 0.035341546, -0.042445973
0.027366934, -0.0052506244, -0.04131492, -0.022581121
0.026973994, -0.0064534177, -0.014990711, 0.012466731
-0.044682834, 0.030415818, 0.03658272, -0.0063543073
-0.02538557, -0.002075531, 0.016701955, -0.004901855
-0.0017820653, 0.04136798, 0.015917266, 0.03663409
0.02288322, -0.022522567, 0.0014371793, 0.020137036
0.03189423, 0.01257837, 0.010116219, -0.037700407
-0.017399872, -0.013288024, -0.010890827, -0.03805454
-0.036374502, -0.023625195, -0.008547362, -0.012547692
0.028673213, 0.008704224, -0.0026861615, -0.009877617
0.022995919, -0.009034029, -0.047010574, -0.038093153
-0.04910026, 0.0019510116, 0.015247293, -0.048778556
0.009287583, 0.012676675, -0.011345341, 0.00026092678
0.017464854, 0.017245704, -0.022219263, -0.0485103
-0.03408008, 0.0024939938, 0.033189673, -0.07513819
0.045545813, 0.018328289, 0.02112203, -0.1008614
-0.0038792978, -0.019577969, -0.033787746, -0.013830978
-0.023318058, -0.03288063, -0.021007951, 0.023121692
0.019540152, -0.013925456, 0.02075676, -0.016380502
-0.019766655, 0.020581516, -0.037484147, -0.062341187
0.043104775, -0.016582742, 0.015803572, -0.036258187
-0.0425794, 0.032741964, 0.031301677, -0.053485814
-0.016832743, 0.031381886, 0.04066232, -0.06583543
0.03659222, 0.0337193, 0.027585022, -0.098910905
-0.014362589, 0.033441935, 0.024090612, -0.0449568
0.01929854, 0.030363886, -0.0071691265, -0.041502744
0.026050396, -0.0033372806, -0.04889375, -0.06840183
0.009727602, -0.0102833025, -0.033306446, -0.056455765
-0.015002579, -0.014066111, -0.011485003, -0.0019791268
-0.023796275, 0.045546204, 0.02571609, -0.066638395
-0.04042721, 0.01788421, 0.047585953, -7.416328e-05
-0.008153966, -0.011164932, -0.023304557, -0.0063327635
-0.04500469, -0.019848242, -0.018851489, -0.05537566
0.022995193, 0.023715429, -0.02188434, -0.059329107
0.029000692, 0.036017958, -0.025852809, 0.022995599
0.006315832, 0.01506408, 0.019043623, 0.016983906
-0.0063462327, -0.021864887, -0.04395572, 0.0547931
-0.016807413, 0.01485523, 0.008065852, 0.07891434
0.016527336, -0.036224116, 0.018418444, 0.037366863
-0.012110276, 0.02338568, 0.035956133, -0.026518017
-0.021716174, -0.014941565, 0.002879184, 0.06719849
-0.027558804, -0.003398661, -0.025165634, 0.0014369952
0.009983351, 0.0030433545, 0.026486618, 0.065369025
0.029034073, 0.029340472, -0.035198513, 0.01677178
0.015310963, 0.008169727, -0.036791377, 0.04061996
-0.031384908, -0.048567977, 0.0222319, 0.05914647
-0.0038632934, -0.036113158, -0.024685387, 0.063882865
-0.028877577, -0.02986984, 0.03519633, 0.109751195
0.021512622, 0.009416258, 0.003656424, 0.1029406
0.02616548, 0.032187115, 0.026415562, 0.08588495
-0.01829235, -0.009929827, -0.029677378, 0.07774995
0.01553907, 0.021894757, 0.03075812, 0.056429964
-0.020254029, 0.028005885, 0.013145422, 0.076338835
0.01462309, -0.026069459, -0.04039694, 0.023962641
-0.02498551, -0.0038835632, 0.009259954, 0.027954819
-0.013187269, 0.0082495175, -0.015858622, 0.07204813
0.011426244, -0.025137817, -0.030606527, 0.067120016
-0.0068028998, -0.02791865, 0.0051403977, 0.022951653
-0.0032478692, -0.033079784, 0.022505831, 0.03548711
-0.03276923, 0.0052808705, -0.0104239825, 0.047795407
-0.038043257, -0.028299524, 0.017200349, 0.070490524
-0.028038552, -0.040329527, -0.018675605, 0.10584717
-0.033591375, -0.020663919, -0.03246164, 0.038379043
0.03988292, -0.0024937226, -0.037234373, 0.06255641
0.0017394805, -0.034131173, -0.01268793, 0.05110998
0.0077881296, -0.04329806, 0.003652826, 0.049155813
-0.041935876, 0.0016568474, -0.041926865, 0.008562268
-0.044054106, -0.0009758801, -0.011488073, 0.037391026
0.033886578, -0.01136769, -0.04073571, -0.012403849
-0.037614975, -0.016815137, 0.03590598, 0.018403606
-0.037079167, 0.03853939, -0.040754315, -0.00087933935
0.01331116, 0.05258354, -0.032577515, 0.0238137
-0.038118064, 0.008162042, 0.0018782197, 0.0119031
0.0057904385, -0.00900494, -0.009201381, -0.044924602
0.018353863, -0.020757297, -0.005348941, 0.039532475
-0.018504199, 0.042993814, -0.038656708, 0.06616564
0.007849032, -0.009386047, -0.023161605, 0.0133470725
-0.010636789, -0.004217406, -0.024242554, -0.042325918
-0.035226393, 0.023692923, 0.0021861864, 0.010134322
-0.032273613, 0.04599592, -0.016573777, -0.047812067
0.026578095, -0.026281286, -0.034711014, -0.01897591
-0.025249027, 0.047871154, 0.01353118, 0.012907027
-0.018412635, -0.0034612801, 0.025029011, -0.024772875
-0.01916935, -0.03509109, -0.038941223, 0.022432348
0.031784687, 0.0015466117, 0.01633927, -0.028554292
0.017164191, 0.008749506, -0.007678453, 0.05077124
0.01357617, -0.032962147, 0.0050948467, 0.00021049753
-0.011483141, 0.023221122, 0.015844177, -0.044079695
0.0052527683, -0.014546062, -0.010999133, -0.012266164
0.024651112, 0.024595318, -0.02850598, -0.031037804
0.022715656, 0.033391163, 0.001758974, -0.009204079
0.045027927, 0.045173764, 0.0154381655, -0.06864605
-0.00890164, -0.032440346, 0.0151894335, -0.004347413
0.033658452, -0.015723351, -0.012444649, -0.092550464
-0.009765015, 0.00958256, -0.017725332, -0.019008078
0.024843268, 0.032976072, -0.03227233, 0.014466971
0.008768216, 0.019270508, -0.03354583, -0.02323942
0.0046274737, -0.005771945, 0.028906388, 0.012271063
0.00079874095, 0.057443816, 0.0026488996, -0.023022735
0.001808164, 0.014195618, 0.036409616, -0.04517599
0.017366529, 0.0054333536, 0.029786494, -0.043425646
0.0008819039, 0.02522119, 0.02820161, -0.025879959
0.0020197262, -0.026623791, 0.03522102, -0.08831656
0.052922275, 0.01303967, 0.021954611, -0.06801626
-0.009411772, -0.00093155116, 0.03655844, -0.10484434
0.025195649, 0.053267512, -0.00814224, -0.047273483
-0.01235195, -0.024272358, -0.045153845, -0.033968214
-0.03851194, 0.005371209, -0.026137082, -0.09381671
-0.032705422, 0.007952183, -0.03880382, -0.039959583
-0.03240982, 0.047964517, 0.004768297, -0.09431688
0.012582452, -0.011498481, -0.008384521, 0.006194736
-0.027927456, 0.049367193, -0.03277518, -0.08891692
0.023530949, -0.034498066, 0.0021710326, 0.011216909
0.0022153151, -0.015580929, -0.024143476, -0.105748504
-0.0060395305, 0.027323924, -0.04036377, -0.042048745
-0.018854897, -0.011969368, -0.030079622, -0.013948231
-0.041554153, -0.0047261477, -0.03186249, 0.056887954
0.034133695, -0.032738566, 0.03974722, 0.044175737
-0.0068491627, 0.016364217, 0.011313765, 0.015340526
-0.023986522, 0.01635851, -0.0066977986, -0.040864795
-0.0054303682, -0.008087121, -0.021057745, 0.06922497
-0.014984595, 0.016436521, -0.037253805, 0.03804222
0.035501998, -0.034204207, -0.013406859, 0.056218073
0.022785576, 0.015695391, -0.0101256, 0.050409522
-0.018064436, -0.025369916, 0.02712385, 0.061957024
-0.03902354, -0.03676471, 0.030989707, 0.08664437
-0.037126966, -0.018360877, 0.012678767, 0.11496424
0.022201328, 0.0035882639, -0.0311195, 0.14422745
-0.038518265, -0.019877627, -0.004196985, 0.10826976
-0.02851838, -0.015136067, -0.009530605, 0.08082927
-0.028256072, -0.030422188, -0.034180593, 0.052331805
-0.03556957, 0.03642239, -0.04343832, 0.06964538
0.021699248, 0.022289876, 0.022697182, 0.0805965
-0.012037199, -0.03374417, -0.0036782946, 0.024221692
0.02321439, 0.032041725, -0.04378039, 0.009204246
0.017762747, 0.032182887, -0.033596516, 0.031666126
-0.03331625, 0.031452537, -0.0076678414, 0.08425674
0.0040611583, 0.022629177, 0.016279235, 0.1000648
0.01966206, -0.024714036, 0.0240738, 0.03580988
0.014891021, 0.011447209, -0.02375923, 0.070715286
-0.014738483, -0.019126706, 0.031600047, 0.09555513
-7.433207e-05, -0.014760496, 0.026686063, 0.057578616
0.027668202, -0.042709097, -0.04741806, 0.07446312
-0.043275073, -0.040178575, 0.016241122, 0.08099939
-0.029630374, 0.0026241143, -0.035728745, 0.025305718
-0.050041925, 0.01920511, -0.026098637, 0.03120903
-0.019567752, 0.03162371, 0.018564548, 0.061023418
0.027861383, 0.003874163, -0.0030600615, 0.041680325
-0.045821518, -0.03024751, -0.030609662, 0.05935365
-0.02853495, -0.023321364, -0.042145766, -0.03217184
-0.04251759, -0.027945803, -0.02151503, -0.045553494
0.009306398, 0.039038766, 0.034600098, 0.019312035
-0.029971436, -0.015467129, -0.024583058, 0.0056962064
-0.013896703, 0.032610353, 0.014226563, -0.046680946
-0.026916305, -0.036649443, 0.026707366, 0.011759918
0.012947321, 0.01879059, 0.012711968, 0.023231737
0.010898612, 0.023961008, -0.039294098, -0.0063135317
0.022675129, 0.032019097, -0.018924547, -0.06591477
-0.025766267, 0.010064893, 0.011305368, 0.033970837
-0.043788034, 0.0007691347, 0.021709487, -0.076064184
0.021187186, -0.0021149898, 0.0078184465, -0.03252787
-0.026937343, 0.04755984, -0.012206602, 0.011914217
-0.026065798, 0.006177649, 0.016391953, -0.013150551
-0.003239421, -0.0015961948, 0.028047673, -0.0069348696
0.027870428, -0.020133939, -0.007323616, -0.07979363
-0.027973773, -0.022677593, -0.023230376, -0.020989934
-0.04054337, 0.037841864, -0.0028344786, -0.03279342
-0.0018123623, 0.013765992, 0.010857957, -0.070885405
0.016138036, 0.022571322, 0.033216976, -0.043618474
-0.018273963, 0.017770112, 0.0031122246, 0.011087869
-0.038789697, 0.014164092, 0.010157609, 0.022658743
-0.041225307, 0.00667873, -0.025027314, -0.05636055
-0.015924944, -0.0010272667, -0.028556805, -0.0625865
0.040261894, 0.009728743, -0.025044234, -0.017308883
0.008142297, 0.0075935842, -0.003392062, -0.056970842
0.03170768, -0.011339841, -0.034450274, 0.004350315
0.0043816217, 0.020997837, 0.0045589665, -0.053375144
-0.02883352, -0.02672669, -0.0026710867, -0.036088195
-0.025837604, -0.010501489, 0.029859714, -0.055576734
-0.01746209, 0.004242842, 0.019174827, -0.09171637
0.011660829, -0.0019120371, 0.009022104, -0.03976095
0.029160958, 0.04728576, -0.034869473, -0.018764697
-0.025062455, 0.013858826, -0.034396216, -0.12023802
-0.03406465, 0.0008957365, 0.027486727, -0.12799434
-0.026987474, -0.0016576432, -0.04658814, -0.04702334
0.0074592126, -0.020645477, -0.030143619, -0.12785088
0.002885049, -0.015131471, -0.045065515, -0.08415002
0.028104793, -0.013642636, 0.03739308, -0.09624128
0.012617845, -0.0056404886, 0.034276232, -0.030849563
0.014253586, 0.010205692, 0.03453369, -0.11201897
0.017968414, -0.024002507, 0.025498813, -0.036295224
0.026421092, 0.03168996, -0.007933091, -0.06247345
0.026296498, 0.03142535, 0.041192904, -0.039795995
-0.047854904, 0.0018453056, -0.042882476, -0.06539724
-0.032209445, -0.0027273633, 0.01423081, -0.05873349
-0.03176581, 0.048839167, 0.0052291676, -0.03316703
-0.030304542, 0.038450588, -0.04397949, 0.03609232
0.031009259, 0.023080477, 0.037264828, -0.045610797
-0.023263078, -0.008448952, 0.026963403, -0.013717586
-0.026570246, -0.036914624, -0.0073592756, -0.07633057
-0.012716942, -0.016961962, 0.034709286, 0.020692805
0.03765724, 0.014996139, -0.0050845705, -0.0147009725
0.031549063, 0.023732832, -0.033883784, 0.120845504
0.016584039, 0.020689702, 0.022345696, 0.09532929
-0.017789345, -0.03025573, 0.027642133, 0.06548934
0.0077300193, -0.038480613, 0.0455911, 0.08703269
-0.046279587, -0.01993279, -0.007412041, 0.06440485
-0.015656874, -0.036033727, -0.028972467, 0.07545636
-0.017900845, 0.018536588, -0.02471882, 0.035071272
0.012251883, -0.0029694992, 0.012786088, 0.10970169
0.014849651, -0.037442476, -0.02030944, 0.12017209
-0.0040896675, -0.03682537, -0.042695392, 0.032761198
-0.051617213, 0.008202974, -0.0335602, 0.067921415
0.021001637, -0.028038992, -0.0026296044, 0.08310969
-0.018563708, -0.008236187, -0.02536055, 0.0031159695
-0.0077640023, -0.026252449, -0.01635103, 0.02769161
-0.009823084, -0.0266466, -0.04278958, 0.042669542
-0.0018800856, -0.047933698, 0.031844463, 0.051094722
0.018889628, -0.030579947, -0.010101768, 0.014767932
-0.04061523, -0.028678037, -0.015684418, 0.07172346
-0.0033537615, 0.0058670565, -0.014951683, 0.020468058
-0.009864237, -0.04575978, -0.03616495, 0.0067047444
-0.010484307, -0.021404784, 0.008473402, 0.07458556
-0.023306906, 0.030334357, -0.023586528, 0.09584271
0.014311337, -0.0084148105, -0.012192344, -0.030006412
-0.038145136, -0.009127299, -0.010348465, 0.022853594
-0.039584477, -0.04023123, 0.031359866, -0.016705919
-0.021505058, -0.019693734, -0.03619769, -0.032415863
0.024675453, -0.0053407373, -0.01319822, -0.01926585
0.017146142, -0.023397878, -0.017147548, -0.050650347
-0.03484026, 0.03977296, 0.037258755, 0.0020429892
0.03271466, 0.049099144, 0.018660113, -0.027163295
0.013100566, 0.03407354, -0.045650315, -0.07304533
0.009372246, -0.0160085, -0.02266149, -0.09942238
0.010035427, -0.009159218, 0.03445772, -0.045595072
0.0114747565, -0.0076134866, 0.02205497, -0.063465685
-0.0144853555, 0.013356087, -0.004032545, -0.035960373
0.025172967, 0.04205245, 0.0035413797, 0.0062057045
-0.003731405, 0.030773547, 0.014634568, 0.009809243
-0.00041914982, -0.0061350306, -0.014900103, 0.016941106
0.013543035, 0.010847827, -0.00983225, -0.039944533
0.0310925, -0.012618451, -0.015980612, 0.014925423
-0.035844076, 0.0011201826, 0.032691143, 0.029183801
-0.0138608115, -0.008755029, -0.02256145, -0.042097013
0.015308486, 0.015637482, -0.031366974, -0.088578284
0.016771005, -0.045112416, -0.01661912, 0.010000061
-0.04305074, -0.03033247, -0.037881915, -0.02160276
0.011119238, -0.017704539, -0.0040609743, -0.0566264
0.025286123, 0.030368302, -0.01928761, 0.015594183
-0.017710285, 0.03482381, 0.02121546, -0.031280257
0.02506231, -0.012941088, 0.027093073, -0.01807092
-0.019923117, -0.0016899989, 0.017083244, 0.036824826
0.014260987, 0.027639199, -0.019183109, -0.026703926
-0.011532397, -0.025932396, 0.0021543303, 0.011243904
0.008274175, -0.016641095, 0.029825047, -0.004349642
-0.017511902, -0.028946279, 0.0060921684, -0.049641486
-0.024314659, 0.046290852, 0.0014376853, 0.0024226923
0.011725654, -0.015603523, 0.031108255, -0.0062316144
0.023780547, 0.017445497, -0.03569273, 0.016140772
0.035467833, -0.008390572, -0.015143855, -0.07045808
-0.036797598, 0.041514747, -0.046880867, -0.011010965
0.008189936, 0.02204876, -0.017963983, -0.060293335
0.00033520116, 0.042419158, 0.028015599, -0.035999604
-0.04635001, 0.03720905, -0.035576236, -0.06566502
0.027196253, -0.03444282, 0.030295106, -0.015624812
0.024324276, 0.022005823, 0.03718873, -0.12815621
-0.03354857, -0.022833299, -0.011512171, -0.074162126
-0.023525765, 0.05238705, 0.007313679, -0.09277714
-0.0072424, 0.038215194, -0.045124568, -0.054064564
-0.024521884, 0.024381194, -0.017920887, -0.024723526
-0.028637048, 0.024020882, -0.0367789, 0.0038266894
0.029469308, -0.0476568, 0.005891427, -0.023543129
-0.013351516, 0.028622514, 0.0017293359, 0.023708286
0.032689236, 0.041448444, -0.00718067, -0.023337558
0.031896602, 0.008955046, 0.04753885, -0.0088704685
-0.015302089, 0.009448261, 0.0040553585, -0.03799966
0.02471012, 0.022171563, -0.045794692, 0.045771074
0.023267265, 0.005070241, -0.020931987, -0.017985418
0.005185396, -0.026968593, 0.0015366699, 0.01007291
0.004275842, -0.01687068, -0.039759807, -0.016673407
-0.00808509, -0.0116151655, 0.024130382, 0.041709434
-0.013147895, 0.038511697, -0.011628023, 0.047109965
0.022696787, -0.007957199, -0.032124884, 0.11377827
-0.028223474, 0.015691593, 0.031864345, 0.030623654
0.019313745, -0.028392227, -0.019544372, 0.099803306
0.012255576, 0.011654014, -0.04477209, 0.13402824
0.031057475, -0.015201099, -0.014226297, 0.08684425
0.0013403936, -0.021868333, 0.011518338, 0.06955735
-0.045221128, 0.020496545, -0.01003302, 0.08011084
-0.003961484, -0.03276704, 0.03095932, 0.040435486
0.0009690746, -0.012675713, 0.011823822, 0.0339041
-0.022061713, 0.010295224, 0.02258958, 0.046219498
-0.01901131, -0.0325899, 0.00341547, 0.08807518
-0.02833904, 0.03268131, 0.022200879, 0.15405193
0.02576128, -0.01550113, -0.00042208342, 0.058047086
-0.04213556, -0.02066917, -0.041925516, 0.045246392
0.00014892919, -0.043544084, -0.045125283, 0.09534203
0.026391122, -0.03641331, 0.03946746, 0.12531516
-0.04843444, 0.0016533593, -0.025517136, 0.008072711
0.035483625, -0.04311935, -0.020930244, 0.0030419028
0.0032065718, 0.002027157, 0.022565208, 0.022516636
-0.029395577, -0.019228522, 0.03525331, 0.035837196
0.0027874967, 0.0077129873, -0.013292036, 0.027306033
-0.03393094, 0.036455225, 0.031720385, 0.12106718
-0.006960699, 0.027774502, 0.033865284, 0.047576666
0.005538894, -0.008683873, -0.015774123, -0.025134575
0.012307494, -0.005942699, 0.02076107, -0.015827456
0.026956487, 0.034811858, 0.021324908, 0.07111418
-0.007240182, 0.024419615, 0.035820078, 0.005120253
0.041750748, 0.0053630867, -0.0018008687, -0.052040655
-0.0018984571, -0.0028006942, 0.003401368, -0.021339819
0.023049394, 0.049630526, -0.020901754, 0.00032401684
-0.0059765573, -0.0022514916, -0.0037330533, -0.050090883
-0.031064898, -0.0076443003, -0.022701504, -0.04968616
0.022654882, -0.0033901464, 0.020753507, -0.059455648
0.033522815, -0.019360777, -0.039479416, 0.0087584285
0.034411676, 0.0052593043, 0.0011089969, 0.008285725
-0.014668624, -0.010796002, -0.037435748, -0.045558643
0.0017949379, 0.006319539, -0.04128689, 0.0019611474
0.01187909, -0.0063440558, 0.01639586, -0.017649367
0.036573347, -0.011166777, 0.021119421, -0.036577087
-0.033026498, 0.020433819, -0.011265882, -0.0077384845
-0.03982477, 0.01870761, 0.023354728, -0.058306057
-0.02366237, -0.041163757, 0.027370255, -0.059737816
-0.009541506, -0.018571226, -0.014029344, -0.07789836
0.026130129, 0.03927745, -0.04673451, 0.019891663
-0.011962826, 0.036274835, 0.014733392, -0.04461752
0.0034999645, -0.024989873, -0.005704339, -0.0630677
0.034088954, -0.0022414925, 0.032939624, -0.05706657
-0.017878583, 0.040829297, -0.0007328913, -0.052864622
0.01160573, 0.015234212, -0.009713472, -0.0063559012
-0.018076802, 0.018746309, 0.03259085, 0.038680922
0.005776006, -0.003401573, -0.039590463, -0.02250045
0.0012527185, 0.01549596, -0.0016707481, -0.010724457
-0.008474661, 0.025896499, -0.042385805, 0.00014846418
0.036899984, 0.028290853, -0.003950036, 0.014676107
0.031373415, -0.025577517, -0.037180856, -0.031704333
-0.002304693, 0.034416497, -0.04029194, -0.05338901
0.016326677, -0.0031430167, 0.008579534, -0.03872251
0.012176292, -0.034590155, 0.00575754, -0.015946027
0.038152546, 0.0023454444, 0.040087074, -0.02615843
0.034448422, 0.05321436, 0.034295496, -0.019302402
-0.03874481, -0.034036655, -0.002927141, -0.038318127
-0.020234128, -0.036769226, 0.03641665, -0.06135023
0.016471608, 0.030661644, 0.009336661, -0.031960547
-0.008871053, 0.05078577, 0.00037195344, -0.04902533
0.011516486, -0.032866262, 0.02116967, -0.09336253
-0.022781307, -0.035527945, -0.0006502057, -0.10125186
-0.050861932, -0.00951812, -0.037158266, -0.007184565
-0.034347434, 0.0068968004, -0.030533792, -0.039645743
0.0024579423, -0.006959909, 0.018338287, -0.039320163
0.02958197, 0.027025191, 0.004111819, -0.055598173
-0.0014438032, -0.023653515, 0.013270769, 0.01091727
0.02298511, 0.007902299, -0.017159041, 0.013253946
-0.030651156, 0.009173739, 0.0075202007, -0.013763454
-0.011396412, -0.030914186, 0.030058369, -0.04124252
0.003535385, 0.004572692, 0.0342395, -0.00012696811
-0.047211584, -0.024648236, 0.008598193, -0.0015656245
-0.029414266, -0.0061918325, -0.045191646, 0.048916563
0.0046928683, -0.025087599, -0.018266013, -0.03723811
0.0055737966, -0.040758144, 0.042735796, 0.07536143
0.030927105, 0.033824656, 0.022011587, 0.042752873
-0.017678214, 0.034573473, -0.0039733658, 0.016619978
-0.016155817, 0.014945887, -0.048179112, -0.007368648
-0.024299864, 0.0017388135, 0.0372856, 0.10036505
-0.03901065, 0.013627544, 0.021970158, 0.07051721
-0.05065777, -0.03773153, -0.0007833029, 0.06413834
-0.03462918, 0.011458579, -0.004677518, 0.052873448
-0.030187998, 0.03423112, 0.029414497, 0.02274649
0.0027294743, 0.0036507857, -0.04029377, 0.08397439
-0.0004145466, -0.026583351, -0.02737928, 0.049065135
-0.007685901, -0.0146556785, -0.019403685, 0.030516678
0.030755313, 0.00666118, -0.024968373, 0.080769435
-0.016076699, -0.009295058, 0.0021088722, 0.053034853
0.016192188, 0.020278247, -0.015547744, 0.03472534
-0.004868497, 0.012574676, -0.0096571455, 0.085908584
-0.0141964, -0.019045228, -0.00594975, 0.11898272
-0.008740441, 0.014686394, 0.0319793, 0.10342046
-0.006456583, 0.027632391, 0.013234086, 0.06241563
-0.0047397567, 0.020277603, -0.015287926, 0.05646719
0.004279128, -0.04665215, 0.019345675, 0.045080084
0.02864186, 0.016553, 0.042305045, 0.021358429
-0.019988284, -0.041759424, 0.011121573, 0.07788356
-0.020661198, -0.013348349, -0.03961943, 0.025267417
-0.021982186, 0.017757686, -0.030112203, 0.025243197
-0.017406024, 0.03844984, 0.018097756, -0.020898022
0.025536535, 0.0036634705, 0.031852107, 0.03470428
0.021587696, -0.038681656, 0.034195207, -0.04265508
0.004212629, 0.020233551, -0.038366035, 0.021974681
0.028684966, 0.003477319, 0.014834275, -0.07176481
-0.019253237, -0.037803866, -0.044113893, -0.022145245
0.034621608, 0.005692718, -0.015575139, -0.055011593
-0.035561975, 0.004079419, -0.007602533, -0.024586713
0.021010863, 0.020655924, -0.012249053, -0.010110177
-0.0005450493, -0.024612447, -0.044407222, -0.04610282
-0.008015427, -0.010704236, 0.0034335032, -0.020236282
0.0037526968, 0.026271092, -0.0139351925, -0.039032128
-0.045011893, -0.02662113, 0.00073200255, 0.004851984
0.0050243833, 0.03585105, 0.016475335, 0.0017233687
0.023456952, 0.028372342, -0.029860418, 0.03543847
0.040319685, 0.047534492, 0.01053868, 0.042615827
-0.029221864, 0.052159097, -0.014802418, -0.03318056
0.020375747, -0.0020960714, -0.045376513, -0.06105726
-0.036296144, 0.037723076, -0.014287548, -0.02285906
0.025784878, 0.02804687, -0.028700028, -0.04677352
0.004735709, -0.0064126384, 0.008141559, 0.058216434
-0.0121773, 0.007097358, -0.01769835, 0.016925644
-0.04559241, -0.031767696, 0.00062707596, -0.10207076
0.00022497962, 0.013936155, 0.028334992, 0.025716696
0.0150409695, -0.031132761, -0.0284927, -0.05170392
0.014410914, -0.030192256, -0.033977505, 0.009259341
-0.01636657, -0.032798707, 0.030353937, 0.0066711893
0.015593019, -0.015587318, 0.011159628, -0.026583837
-0.043388627, 0.008669477, 0.0016585877, 0.025841482
0.012426091, -0.0038285241, -0.048964653, 0.0015402682
-0.04410928, -0.02951288, 0.004319012, 0.0027234217
-0.00058197207, -0.004801702, -0.0036489826, -0.03307574
0.0036558476, 0.018465985, -0.047665495, -0.044338774
-0.027842637, 0.038571965, 0.0048492206, -0.046327107
-0.019555911, -0.023300037, 0.011896354, 0.011599816
0.024173314, 0.033196498, 0.011141161, -0.023247637
-0.04165394, 0.013787165, -0.0344362, -0.015112071
0.027962893, -0.015161941, -0.023429483, -0.0045136595
-0.014823307, 0.024244629, 0.00453767, -0.05020331
0.007500396, -0.02762129, -0.012906462, -0.06332835
0.0032733243, 0.013273702, 0.016433123, -0.06100225
0.028726408, 0.0066503356, 0.035181843, -0.010820501
-0.038117636, 0.028593648, -0.04794765, -0.081897214
-0.053772792, -0.036381852, 0.032819003, 0.019812327
-0.019182485, -0.03460871, -0.038633473, -0.08887465
0.0030387202, 0.008163102, -0.025492456, -0.06379272
-0.028107224, 0.018604454, -0.034377325, -0.09516916
0.011456057, -0.029299991, 0.0051407805, -0.041813582
0.024865713, -0.02098197, -0.0019601078, -0.07028814
-0.035265982, 0.028182488, -0.024309983, -0.020463342
0.037532967, 0.037962377, 0.017364707, -0.0509383
0.005375831, -0.0500692, 0.00349347, -0.016384283
-0.02716711, -0.037115987, 0.007885698, -0.05737691
0.012480725, -0.0052134297, -0.029177923, 0.012075772
-0.05053069, -0.036898904, -0.014941127, 0.10912407
-0.03971071, 0.032915168, -0.03987161, 0.035480745
-0.008474401, 0.04543186, 0.0031490102, 0.010847464
0.0086755045, 0.015164052, 0.044737637, 0.11557747
-0.00153402, 0.033953544, -0.016533833, 0.025530133
0.03455077, -0.024742594, -0.025544984, 0.067540504
0.029085387, -0.0474324, 0.006377649, 0.04668579
9.182486e-05, 0.037942406, -0.029018126, 0.08173917
0.025911475, -0.015261829, 0.015599269, 0.035670385
0.017360786, -0.033831827, 0.018663824, 0.04340785
-0.026669635, 0.024314392, 0.00660896, 0.010933996
0.014712204, 0.019326247, 0.026986064, 0.115758374
-0.0109514715, 0.015517503, -0.027594926, 0.109239265
0.00329084, 0.0035600183, -0.036870323, 0.039913274
-0.03693793, -0.018569538, 0.012355012, 0.022298144
0.0022405968, -0.041840237, -0.020270772, 0.06242194
-0.008701877, 0.03190462, -0.032897312, 0.12759869
-0.019670302, -0.018939495, -0.0058360985, 0.07824948
-0.003799677, 0.01910842, 0.024835259, 0.0006005437
-0.030765379, -0.020457402, -0.030484099, 0.105815746
-0.0100770155, -0.04770464, 0.03576302, 0.0443957
-0.0053945933, 0.0064063477, -0.025264425, -0.005320042
-0.04710484, 0.028054684, 0.026601048, -0.049981963
-0.037432007, 0.0038322795, -0.037873928, -0.023599308
-0.03707025, -0.011907373, -0.0011764094, 0.046440993
-0.01691708, -0.014451129, -0.042900976, -0.042948686
-0.027946971, -0.0049383077, -0.030507928, 0.0053589055
0.0295927, 0.021318085, -0.04560464, 0.038813103
0.02985385, 0.030300336, -0.03271071, -0.09085331
-0.041344367, 0.013788116, -0.0112036485, -0.021195285
-0.03972279, -0.0067078653, -0.04257879, -0.085667804
-0.007356873, -0.036498267, -0.03045062, -0.03989195
0.0038756744, 0.001155486, 0.010982614, -0.069597065
0.01991574, 0.047634218, -0.024392553, -0.013546993
-0.02228873, 0.0051277303, -0.037862528, 0.0116730835
0.031930786, 0.010856306, 0.018413477, -0.017814698
0.0063893227, 0.035830475, 0.025226068, -0.015012305
0.048693474, -0.0003063334, -0.04284151, -0.010842031
-0.030774787, -0.011911901, -0.042285796, -0.065548286
0.010288527, -0.020577783, -0.013085224, -0.062867425
0.02304816, 0.021767957, 0.030111142, 0.027286839
0.0011872078, 0.0026054801, 0.026334733, -0.059735715
0.0041427803, 0.03135851, -0.036061443, -0.096450225
0.018027801, 0.0026601274, -0.026806906, -0.047044676
0.0027364024, 0.013143586, 0.005618902, -0.0689807
0.03764048, -0.026251977, 0.035004556, -0.051685557
-0.03394162, 0.015859548, -0.048879657, -0.00020406226
0.027705671, 0.030544313, -0.018957539, -0.022165716
-0.03833334, 0.02014233, 0.009633978, -0.06896418
-0.04629238, 0.013848428, -0.0012170663, 0.030412085
-0.029862849, 0.044144332, -0.0021676621, -0.020914694
-0.013048399, 0.008764398, 0.034645077, -0.049871024
-0.027875837, 0.030143972, 0.024448069, -0.0016820772
0.025560841, -0.009834417, 0.03709607, -0.01779125
0.024352461, 0.004437018, -0.010766246, 0.024734294
-0.03100175, 0.013725865, -0.0007945855, 0.017976798
0.032075472, -0.013882517, 0.0074660885, 0.018032711
-0.046157338, -0.048713956, -0.017152738, -0.013201733
0.019595282, 0.03483731, -0.034527693, 0.048904005
-0.016002176, 0.021230228, 0.03361644, -0.04859156
0.0076539842, 0.06176367, 0.03219185, -0.001139358
0.0086588925, -0.0022947018, 0.025713041, 0.007336081
0.008175328, 0.03266936, -0.030917797, -0.05505177
-0.019954149, 0.019272748, 0.030028831, -0.04743271
-0.0012877506, -0.01579824, 0.017734084, -0.03651508
-0.03183932, -0.018537141, -0.016074985, 0.008238219
-0.008248055, -0.03206404, -0.010388829, 0.014974608
0.026728218, -0.030902859, 0.03590026, 0.009156401
-0.023936255, 0.03969756, -0.017550532, -0.07267296
0.013403052, 0.004831484, -0.016994078, -0.04947567
0.027285133, -0.010591088, 0.035355072, -0.06401961
0.041739415, 0.011884958, -0.008395389, -0.011733816
0.03786585, -0.016461398, -0.030910095, -0.10836548
-0.037124697, 0.025841096, -0.046652906, -0.032074936
-0.0066952864, -0.025039228, 0.021439604, -0.07765579
0.022081194, 0.013194969, 0.024439216, -0.0025806264
-0.025624534, -0.042073395, 0.023028098, -0.113669045
0.0012238547, -0.046958305, 0.020206545, 0.020172507
0.049087938, 0.020191265, -0.024106776, -0.05400291
-0.008649713, -0.011722778, 0.019531135, 0.009497473
-0.0028444265, 0.004904953, -0.032218803, -0.015339167
-0.006181625, -0.049441535, 0.009827856, 0.09816173
-0.03537805, 0.0058147297, -0.008031122, 0.0027625086
-0.03934312, 0.0010538803, 0.0033579632, 0.02909359
0.039917566, 0.036212914, 0.023828, 0.013891518
-0.018473646, -0.021977814, -0.03493971, 0.10035648
-0.009766908, -0.045030583, -0.038509745, 0.109383814
0.020190375, -0.016549129, -0.018236488, 0.089853525
-0.033869933, -0.032986518, 0.00050547323, 0.08438108
-0.015350942, -0.020210296, -0.011602579, 0.07405402
0.020732183, -0.024985632, 0.032881133, 0.062414367
-0.019206801, -0.04238082, 0.021039484, 0.08645579
0.0020694148, -0.01322258, -0.047486894, 0.054861445
-0.039946802, 0.025215728, 0.020842697, 0.12639368
-0.03884111, -0.0037288438, -0.022305489, 0.095344625
-0.038438845, -0.0046474673, 0.010458511, 0.06751426
-0.029236099, 0.030353857, 0.02294339, 0.101843074
0.027393166, -0.030609898, -0.035757672, 0.060882904
-0.00403337, 0.0035747127, -0.044671442, 0.023470512
-0.0018616291, 0.0091273645, -0.0059189526, 0.08251408
0.02860445, -0.0064315214, -0.026218029, 0.032486483
-0.049057335, -0.00939107, 0.019922342, 0.025538284
-0.01982025, 0.0029143621, -0.005214291, 0.001155943
0.032127168, -0.033384647, 0.0077138282, 0.018870266
-0.022531414, -0.011315368, -0.034094166, -0.02413552
-0.038985655, -0.051528495, -0.0008105526, 0.0012830481
-0.034345265, -0.024117006, -0.039234336, -0.011648578
0.01648309, 0.019555876, -0.04271695, -0.0037432886
0.027457543, 0.007595898, 0.012724261, -0.059319213
0.0044974387, -0.0289682, -0.015663564, -0.029698072
0.03795373, -0.0047830767, -0.032903314, -0.056972317
-0.0064574075, 0.0057595996, -0.009088945, -0.025532896
-0.040266447, 0.027841859, -0.0006422885, 0.008638046
0.0094401585, 0.026291247, -0.0034881774, -0.018645367
-0.01064268, -0.040629543, -0.0024566837, -0.022423388
0.041492023, 0.02431212, 0.0132011315, -0.058223333
0.019596329, -0.013197343, 0.032890625, -0.09248414
0.045718282, 0.024927568, -0.038620654, -0.062184956
0.0018191792, 0.027292544, -0.0029410124, -0.014341229
0.0029636153, 0.020527313, -0.0366455, -0.039588146
0.012435676, -0.03767385, -0.00838542, 0.02854655
0.026555698, -0.025225585, -0.022034522, -0.0114389
0.032657225, 0.0067342436, -0.013791099, -0.032786872
-0.014329062, 0.021006875, -0.02269549, -0.027684176
0.017953908, -0.022289611, -0.022825213, -0.033493042
0.015395888, -0.0019934736, 0.016511716, -0.052075334
0.02721164, -0.04204448, -0.04390841, 0.02336977
-0.006365569, -0.026321378, -0.033477314, -0.0075518726
-0.023057058, 0.029821271, -0.0066882377, -0.11617502
-0.021086952, 0.03744891, -0.009347616, -0.035725262
0.020002998, 0.0014717766, -0.014060034, -0.02132268
-0.022683803, 0.029424172, -0.030911034, 0.043979757
0.0123497, 0.01077209, -0.041338917, 0.05571804
-0.0056021344, 0.017325504, 0.035617992, -0.015455616
-0.046494067, 0.022636462, -0.048241224, 0.024015492
-0.009484885, 0.04240583, 0.036407996, -0.030216482
0.0002239703, 0.013003113, 0.028007813, -0.020062316
-0.032373138, 0.007226445, -0.03200764, 0.029050285
0.043617718, 0.013691202, -0.047475666, -0.0048205717
-0.010891116, -0.0017990558, -0.016073715, -0.0028822874
0.012581756, 0.0053759506, 0.018744059, 0.054484352
-0.025536774, 0.02042982, 0.027748832, -0.043628138
0.014670277, -0.012434211, -0.03391388, -0.06271311
-0.018214924, -0.037313767, -0.013053852, 0.0070892186
0.024929842, 0.035332642, -0.028069682, 0.0006556222
0.024426201, -0.044576388, -0.039715003, -0.014060683
0.020391423, 0.048249908, -0.023880463, -0.028290298
-0.035315897, -0.034363456, 0.013575747, -0.0099456
0.028707221, -0.0150459185, 0.033751868, -0.022860868
0.040694818, 0.035942096, -0.007828019, -0.045924805
0.0014625688, 0.019479865, -0.013363773, -0.054650124
-0.0004667073, 0.003506427, -0.0057923235, -0.009172643
-0.03504065, 0.018840846, -0.014226092, -0.12309738
0.006759357, 0.02504251, -0.025961682, 0.0072989473
0.0272494, -0.020925159, -0.032324277, -0.02586896
0.029478742, -0.026127348, -0.047770992, 0.009404289
0.03797252, 0.04197318, -0.022835355, -0.076247625
0.023240784, 0.026289716, 0.006209858, 0.017904114
-0.0043869605, -0.0029954903, -0.0014555361, -0.07858487
0.011850617, 0.019612255, 0.027655354, 0.020097813
0.025150988, -0.022786269, -0.02665007, -0.036908347
-0.013101567, 0.029114194, -0.03129601, 0.06749857
0.044426974, -0.039207563, 0.029220086, 0.06238982
-0.010284633, -0.028479656, 0.010991831, 0.06590105
-0.043026585, -0.029097259, 0.0032651734, -0.008919676
-0.029419938, -0.019613134, -0.048464555, 0.07676878
0.026999142, -0.021036629, 0.0017073867, 0.08157901
-0.03212428, -0.043883502, -0.029455123, 0.07254393
-0.040125914, 0.040001612, -0.02482985, 0.08970651
-0.024276087, 0.003393995, 0.015963921, 0.06338556
0.024456158, -0.00898929, -0.04137925, 0.11450655
0.0052630715, -0.01730103, -0.0071707233, 0.06175087
-0.04045333, 0.028409626, 0.0141373845, 0.0796929
-0.032425676, -0.042264532, 0.021719938, 0.15324879
0.014964821, 0.025371479, 0.007438758, 0.049477942
0.03346709, -0.04720918, 0.026715707, 0.05273188
0.018140433, 0.0013795184, 0.008597885, 0.0302114
-0.0066661783, -0.00656822, -0.0024607258, 0.06981195
-0.027719717, 0.042561464, -0.0063673505, 0.035471123
0.025326295, -0.015364518, 0.01969887, 0.009264752
0.028718553, 0.03510091, 0.031886376, 0.10211649
0.02394809, 0.0099524325, 0.010729929, -0.0056802602
-0.0017753671, 0.026015926, 0.009548434, 0.034030106
-0.010431142, -0.032030623, -0.030130116, 0.038866732
-0.046596475, 0.017115604, 0.04245104, 0.012859287
0.0099837445, 0.008378168, -0.04497875, -0.026813904
0.027390722, -0.019358318, 0.03621929, -0.04146708
0.0018233968, -0.028669693, -0.020928299, 0.012838363
-0.014922459, -0.01900979, -0.00050478097, -0.031284865
-0.02061981, 0.00069417414, 0.03565934, -0.033644117
-0.0094804745, 0.008641191, 0.034171976, -0.078713916
-0.045534473, -0.017277949, 0.02853135, 0.008221445
-0.02658948, 0.015835261, -0.030358098, -0.011411358
-0.030324467, 0.0043156873, -0.017093899, -0.034397427
0.022499397, 0.03299817, 0.032615904, -0.019069277
-0.030606667, -0.026349718, -0.04022613, -0.053947616
0.011584268, -0.050013907, -0.035376564, -0.020029029
-0.031995505, 0.02393601, 0.030943716, -0.08030161
0.01859993, -0.017368192, 0.0045325086, -0.029747251
-0.023886703, -0.0153959375, -0.029277945, -0.049321353
0.009692629, 0.0020236066, -0.0382918, 0.009727202
-0.03270775, 0.04540994, 0.028704103, -0.0725495
-0.043484896, 0.020485945, 0.002558221, -0.02167163
0.03866011, -0.029713497, -0.042388503, -0.06462388
-0.027214654, 0.031359065, -0.03740003, -0.11051284
0.035201687, 0.015792022, -0.00017969596, -0.010573366
0.006095931, -0.034399174, 0.032029387, -0.035503592
0.028231138, 0.0478552, 0.024542611, -0.033394013
-0.040334534, 0.0060510486, -0.038648896, -0.094050236
0.0034694104, -0.047625236, 0.001272973, 0.026039403
-0.034533344, 0.033009455, -0.04102673, -0.028059507
-0.0042671654, -0.023169639, -0.00686342, -0.005853931
0.019686706, -0.00817924, -0.016186662, 0.038237266
-0.045525264, -0.025827825, 0.031307746, -0.0022872023
-0.015998706, 0.03182659, 0.03799182, 0.0020509982
-0.03211819, -0.0010740006, 0.028338458, 0.01156523
-0.04163467, 0.022394406, -0.02456199, 0.01507464
-0.03739678, -0.004932429, 0.025269678, 0.010410025
-0.03147856, -0.005283111, 0.023900501, 0.07390639
-0.028833942, 0.032977346, 0.028431738, -0.011760884
0.004120516, -0.031396978, 0.034890912, 0.008077855
-0.020872261, -0.020163462, 0.01060885, -0.023611842
-0.038821373, 0.036139805, -0.01815792, -0.027886676
0.00021289584, 0.0058909673, 0.032738164, 0.042694904
-0.012852106, -0.010075167, 0.022880029, 0.06961603
-0.048423287, -0.02895754, -0.01596654, 0.03566743
-0.01633201, -0.0005700106, -0.026825704, -0.017846594
0.0038386744, -0.0034777415, -0.046046246, -0.022476086
-0.010816467, -0.036787987, 0.008298669, -0.035809066
-0.0063906997, -0.03551217, -0.03131941, -0.037234493
0.0021469726, 0.0027886548, -0.042451728, -0.03386438
-0.043436892, 0.023404192, 0.03399939, 0.033585537
0.021863822, 0.02697524, -0.007708408, -0.026216235
-0.016227392, -0.0032536844, 0.0030823583, 0.047020245
-0.05260168, -0.04052211, -0.04150453, -0.02214573
0.03096315, -0.022248501, 0.00012518275, 0.055666145
-0.031888872, 0.02759454, -0.00412331, 0.05932362
0.0053608674, -0.029124832, -0.023689771, 0.04510695
-0.007867816, 0.009543277, 0.0290933, 6.000031e-05
0.0030843911, -0.051542614, 0.03131078, 0.04657518
-0.035760954, 0.028164301, 0.0044273986, -0.001533029
-0.03036169, 0.029107703, -0.009596558, 0.0075890203
0.009340386, -0.03977949, 0.027652556, 0.03277461
0.0064164, -0.04706851, 0.03351789, 0.09312217
-0.0089401435, 0.00903157, 0.015286695, 0.046930116
0.02754851, 0.0003948019, 0.0027706644, 0.0496225
0.021250343, 0.009794443, -0.040224966, 0.00076614006
-0.0072285742, -0.025948348, 0.023961822, 0.07020408
-0.021033019, -0.004238134, -0.017345209, 0.10907006
0.0184322, 0.02711438, -0.016915342, 0.12743002
-0.020521345, -0.020732665, -0.0093187895, 0.11852794
0.004137969, -0.012850461, -0.0046073003, 0.044384573
-0.02465124, 0.009030358, 0.032296862, 0.0970396
-0.018096434, 0.020669147, 0.03522855, 0.055056494
-0.038853224, 0.00040250664, 0.023941705, 0.081056915
0.02644595, -0.004662603, 0.0068086637, 0.077536635
-0.020333668, -0.03914991, -0.0066867177, 0.030703032
-0.0077602775, 0.018245675, -0.02217467, 0.016974589
-0.021605194, -0.03811852, -0.0078111803, 0.07458938
0.004942671, -0.022521202, -0.02820443, 0.052275315
-0.030417394, 0.022377469, -0.008235648, 0.04170046
0.03317928, -0.047519386, -0.021105014, 0.020684771
-0.0077902647, -0.004354464, -0.0018042561, 0.022387514
0.009171736, -0.016737014, 0.026895937, -0.006045009
-0.013517255, -0.004236844, 0.020288117, -0.02615897
0.033953533, -0.03773811, -0.043505996, 0.04901883
-0.032388613, 0.025972567, 0.011590421, -0.0017696226
-0.022700287, -0.014999083, -0.015108429, -0.01712836
0.031517968, 0.022555264, -0.033036504, 0.015878256
-0.024573144, 0.0059398864, -0.040439796, -0.016187763
-0.011411287, 0.022863355, -0.038876805, -0.054541547
0.02965607, -0.022386326, 0.0038090022, -0.027407063
-0.005154659, -0.024948925, 0.027315855, -0.043906927
-0.009071159, -0.0045622922, -0.043737024, -0.03269394
0.040815588, -0.023827635, -0.03956175, -0.02348247
0.013371115, 0.019255219, 0.019096462, -0.04669103
-0.021496374, 0.0042507206, -0.0074928124, -0.065542206
0.0016343981, 0.033968113, 0.036945697, -0.037469115
0.04574977, -0.025516922, 0.032056794, -0.100065075
0.0112341, -0.024935562, -0.034282617, -0.047191918
-0.014058976, 0.016458804, -0.02485744, -0.032010894
0.0053988458, -0.0040894183, 0.021421868, -0.05795638
-0.021027565, 0.0044535664, -0.019078797, -0.069420345
0.02909812, -0.0076163565, 0.016427457, 0.015237993
-0.011832646, 0.037032347, -0.026860455, -0.059765078
0.0011004803, -0.026022214, -0.044797797, 0.011263524
0.00437992, 0.035709657, 0.03488069, -0.040890403
-0.038816456, 0.016324077, -0.007123707, -0.011299878
0.0034216268, -0.021837335, -0.024047073, -0.060634512
-0.052661017, -0.017570011, -0.027310567, 0.014903382
0.0009864252, -0.026896967, -0.010577157, -0.0001205889
0.03602316, 0.03022451, -0.005578373, -0.026674526
-0.02085487, 0.026048897, -0.02056234, 0.029275566
0.0047310577, -0.0037706029, 0.010057317, -0.047171526
-0.0335089, -0.027921384, 0.020250283, -0.0305744
-0.0037846602, 0.027384292, -0.041107483, 0.032874398
-0.027929172, 0.007995154, 0.017327106, -0.042433042
-0.035305068, -0.014831119, 0.031057565, 0.019069431
0.031135641, 0.0031805465, -0.010405267, 0.011636319
-0.04308874, -0.020415207, -0.04149968, -0.01115813
-0.052969173, -0.02805282, 0.03513593, -0.017960075
-0.0143621825, -0.023557963, -0.012826276, -0.040381756
0.043000422, -0.022978285, -0.011226389, -0.048409835
-0.0026944475, 0.005837345, -0.02518109, -0.028687492
0.029544383, 0.04420533, -0.00936874, -0.043404248
-0.008376023, -0.04296881, -0.03741938, -0.009811073
0.0045012715, 0.036292944, -0.011952207, 0.017502746
-0.038409505, -0.0067284936, -0.027363416, 0.027428797
0.009172696, -0.014644085, -0.024021385, 0.012726029
-0.044813883, -0.0359685, 0.026031375, 0.07475069
-0.028451538, -0.014251027, 0.00927826, -0.004657916
0.013842367, 0.005367905, -0.03609298, 0.044447694
0.017027328, -0.027400043, -0.028332863, -0.0059415665
0.015567773, -0.0012519951, -0.03692996, -0.021171449
-0.031817473, -0.04138127, 0.022113943, 0.055752087
-0.014542235, 0.029784704, 0.030589063, 0.08406153
-0.007930961, 0.015267174, -0.03319567, 0.023777695
-0.032238826, -0.04807225, 0.036743995, 0.06090536
-0.013237169, -0.01965567, 0.023014061, -0.024813093
-0.032775715, 0.001769076, -0.04431248, 0.018390184
-0.0025472692, -0.044537123, 0.027833123, -0.008762026
-0.050445206, 0.025347685, -0.04818198, 0.019772755
-0.03101566, 0.01365178, 0.034943648, 0.042222872
-0.017595738, 0.027549056, 0.035519414, 0.04507958
-0.036531523, -0.011430328, 0.016274098, 0.053278
-0.01035849, -0.03244985, -0.00014173189, 0.0823987
-0.02467088, -0.046060394, 0.018785467, 0.03295225
0.027387325, -0.043181606, 0.017714893, 0.13514133
-0.043509692, -0.01927625, -0.03806193, 0.06714958
-0.014911505, 0.028522689, -0.027755084, 0.11362268
0.034142043, -0.040182218, -0.032124523, 0.049513604
0.028878246, -0.035313763, -0.037092328, 0.076655835
0.025250101, 0.021132551, -0.019682506, 0.07054086
-0.03560977, 0.012937173, -0.011607394, 0.0723026
-0.017273633, 0.031013088, 0.026654938, 0.04674897
-0.00019313805, 0.025012165, -0.015654495, 0.06607736
0.034512248, 0.023013083, 0.032453753, 0.02827695
-0.0439776, -0.051307533, -0.015543689, 0.0408714
0.029063482, -0.04261588, -0.0076004122, 0.029663658
-0.04141632, -0.034924515, -0.048151758, 0.065255985
-0.035317607, 0.026770031, 0.006934736, 0.037369236
0.030250449, -0.036908913, -0.0031854738, 0.019316219
-0.046570435, 0.028062394, -0.0028990544, -0.0007620313
-0.017859058, 0.0009112419, -0.0005532281, 0.057258602
-0.04396959, 0.0031238657, 0.0037048801, -0.03538898
-0.00467366, 0.007993457, 0.0023838354, 1.6700433e-05
0.016338637, 0.0007735154, 0.010438807, -0.0020173106
0.0010979816, -0.031014856, -0.022637736, 0.058109205
-0.0089323195, -0.007857444, -0.042593308, 0.10771241
-0.01902841, -0.026091218, -0.022410003, -0.011604991
0.03460271, 0.03416013, -0.034862094, -0.0030400977
0.003920561, -0.028696332, -0.006571185, -0.006699846
-0.035555862, 0.016160877, -0.040424466, -0.010242745
0.02809126, -0.041438688, -0.0021969478, 0.0012362164
0.016529506, 0.0047443556, 0.016216248, -0.008834685
-0.03237409, -0.0066917255, -0.00015898587, -0.034464613
-0.01536857, -0.0055751065, -0.03629557, -0.029647263
-0.01825477, 0.0033532402, 0.017328372, -0.051482834
0.009599409, 0.004809932, 0.0060796663, -0.048188902
0.029539054, 0.021771077, 0.007110846, -0.084401906
-0.042958334, 0.022090996, -0.024418812, -0.0800664
-0.011362006, 0.0067784456, -0.01804876, -0.09057276
0.017213855, -0.019799137, -0.031614207, -0.02941502
-0.033510856, 0.0044100885, -0.0035687832, -0.054888934
-0.010943467, 0.03396318, 0.03054184, -0.038972158
-0.00048712475, 0.04493688, 0.00808831, 0.021113269
0.009523307, -0.045392923, 0.03997554, 0.03191446
0.025757112, -0.03351808, -0.0015853149, -0.06115801
-0.034533788, 0.031180145, -0.020368272, -0.09087345
-0.032665867, -0.01572456, -0.009584304, -0.025725713
-0.0019439984, 0.02860273, 0.023607852, -0.019686718
-0.014267365, 0.0024524222, 0.03207247, -0.060070135
-0.016734833, 0.01314056, -0.028399317, 0.036329918
-0.024772547, -0.021361385, 0.01930584, -0.085578546
0.008798112, -0.024409238, -0.0014996758, -0.081200905
-0.050512552, -0.044773325, 0.018796556, -0.032622594
-0.04849748, 0.008008428, -0.033242814, -0.04432848
-0.04432849, -0.030504351, -0.03296859, 0.014495614
-0.020892004, 0.019623127, 0.023957051, -0.00867096
0.03598371, 0.021854443, 0.015310896, -0.021899229
-0.05111365, -0.037333503, -0.026503135, 0.030899914
0.014113585, -0.047426008, 0.019794358, 0.007532808
0.020278903, 0.014390957, -0.035814147, -0.048027873
-0.014330944, -0.022625236, 0.03083942, 0.006877432
-0.00735925, 0.030802721, -0.015710313, 0.05511242
0.02979807, -0.034683295, 0.007217567, -0.0017841703
0.016698716, 0.033944335, -0.04309918, 0.05448301
0.010446351, 0.03153534, -0.025318706, 0.017728373
0.014443217, -0.020872114, -0.044447664, 0.015519107
0.029997906, -0.013620051, 0.012879846, 0.006619386
0.025357349, -0.024139935, -0.019485455, 0.0024764484
0.009540438, 0.009761113, -0.03838805, 0.04905833
0.026100172, 0.018888546, 0.029583152, 0.033681173
0.029803185, -0.0201562, 0.022459988, 0.062001247
-0.024782646, 0.032522682, 0.008888003, 0.050694488
0.018619716, -0.044268895, 0.0147227645, -0.0030564037
0.011490552, -0.000118564596, -0.040390927, 0.06280672
-0.024400702, 0.02581469, -0.040316086, 0.079043746
-0.037956763, -0.04026304, 0.030438218, 0.07450274
0.0025715146, 0.027266504, -0.007986172, 0.057063155
0.01735969, 0.012643856, 0.014807013, -0.024508055
0.016962055, 0.017340994, -0.012600693, 0.07683873
0.00054023636, -0.0059469608, -0.0044172173, 0.07149676
0.028545102, -0.024209036, -0.022233827, 0.08155885
0.030652398, -0.038454905, -0.023080649, 0.10313562
-0.03576336, -0.04561141, -0.023470387, 0.078599386
0.029584706, -0.04322828, -0.025488898, 0.110535875
-0.023325667, -0.012047735, -0.046862584, 0.06777996
-0.042822495, -0.020730257, 0.005696976, 0.030677233
0.0060497285, -0.03211275, -0.012587577, 0.097143404
-0.0074984543, 0.012942936, -0.030570451, 0.007835559
-0.050158672, -0.046290353, -0.025955457, 0.01476733
-0.030222548, 0.027525805, -0.0063727056, 0.027965931
-0.016279245, -0.037300523, 0.016798649, 0.10443216
-0.0010750977, -0.0049339305, -0.032057807, 0.068177894
1.2297256e-05, -0.051315393, -0.011272834, 0.053774633
-0.024264323, -0.007024968, 0.012030302, 0.06428742
-0.011410752, -0.049610466, -0.011378098, 0.04591166
-0.036794376, -0.009709273, 0.036659222, 0.039924536
-0.015422857, -0.0090949405, -0.013849994, 0.026797667
0.01987993, -0.02134247, 0.030432902, 0.0779194
0.02419612, 0.032076124, 0.019672852, 0.08121574
0.025899084, -0.009957744, 0.010291208, 0.062087953
-0.04625648, 0.02220329, 0.024640465, 0.023383636
-0.016797122, -0.011779359, 0.022696733, 0.008254425
0.014394438, 0.0017502242, 0.033436753, 0.027207008
0.0101777995, -0.041344434, 0.016386617, 0.044500604
-0.030944554, -0.0183472, -0.0016158208, 0.0043425704
0.021899397, 0.021330837, -0.047147654, 0.05974065
-0.03499152, -0.009270805, 0.019958682, 0.017589316
0.044457287, -0.03324361, 0.03522661, -0.021888379
-0.0047009424, 0.020642772, -0.048908923, -0.038126696
0.040389135, -0.011313089, 0.010755527, -0.023715286
-0.047630504, -0.042194117, 0.036720797, -0.021938603
0.026847417, -0.036136545, 0.0088759, -0.081269056
-0.03718151, -0.026594432, 0.014498996, 0.0048183184
0.0015846253, -0.023835212, 0.00056197867, -0.0038327982
0.016961304, -0.031628687, 0.009800186, -0.05565415
-0.01698121, 0.014650311, -0.045318026, -0.079232596
0.011152684, -0.00874117, 0.00488666, -0.06448527
0.006202438, -0.015198194, 0.036285173, -0.09918927
-0.014557615, -0.023652412, -0.047601733, -0.063308425
0.0020192366, 0.045290593, -0.047359306, -0.14656627
-0.0054035904, -0.005572685, 0.017194035, -0.048777234
-0.010368969, 0.008415788, -0.009967167, -0.06454121
0.005489748, 0.0043060775, 0.031238865, -0.017772065
0.004553487, -0.02714617, -0.017909873, -0.06435033
-0.012000531, -0.005324392, -0.006718905, 0.017568922
0.026647067, -0.021975985, 0.027282793, -0.041996744
-0.013339314, -0.01493882, 0.024018843, -0.04946151
-0.027041227, 0.021055175, 0.0034382455, -0.085395396
-0.035634764, -0.017261675, 0.0046513025, -0.07719725
0.014171796, -0.052525338, -0.010477203, -0.045923345
0.0031541146, -0.04065113, -0.036010355, -0.028337305
-0.0023810312, 0.006540491, -0.004485334, -0.088393144
0.023820404, -0.012556429, -0.048576675, -0.0114401765
0.02722995, -0.021487694, -0.015369616, -0.027629128
-0.0075599966, 0.0090234345, 0.018158138, -0.04903128
-0.03257266, -0.027849399, 0.015181006, -0.02373623
-0.04664557, -0.019056527, 0.032527536, -0.05550446
0.020406237, 0.0022229857, -0.040368583, -0.013127834
0.02640425, -0.014108062, 0.006778247, -0.056801252
0.015819883, -0.010013398, 0.0012053587, -0.0053453404
-0.023069847, 0.02412429, 0.008714855, -0.02550668
0.010927828, 0.0023499771, 0.034525312, -0.044718537
0.017002093, -0.022190887, -0.048893742, -0.032198034
-0.011489003, 0.036616694, 0.022188066, 0.038850296
0.026109636, 0.032706864, 0.015056136, 0.06044562
0.0009499866, -0.02153931, -0.039099693, 0.03771028
-0.02760282, -0.04970088, -0.019012528, 0.068674676
-0.040544506, -0.03413506, -0.010943746, 0.005017182
-0.01794366, -0.034968447, 0.022907069, 0.051588483
0.0026504053, 0.028966853, 0.012010221, 0.092939064
0.010970896, -0.044753402, -0.026684893, 0.03588639
0.0072790533, 0.009256295, -0.024400923, 0.07249963
-0.017216172, 0.02370995, -0.016539574, 0.07621432
0.009993321, -0.03136739, 0.03895021, 0.067719586
-0.03896323, -0.0015189205, -0.0417342, 0.0020382542
0.02778987, 0.030865213, -0.01749619, 0.07970992
0.025065979, -0.023035679, 0.016782258, 0.101340525
-0.03934746, -0.04387136, 0.0023252992, 0.051166043
-0.02222139, -0.03647362, -0.014357286, 0.095487066
-0.00994249, 0.0140191, 0.041559394, 0.055999126
-0.011698898, 0.016609753, -0.011445381, 0.025982725
-0.002015923, -0.044447843, -0.025968496, 0.021292727
-0.04640745, -0.027845265, -0.036227606, 0.08813017
-0.022792602, 0.032590277, 0.021935835, 0.04931984
0.03219348, 0.002761668, -0.049250893, 0.00477765
0.014555927, 0.007874692, -0.025214162, 0.02687882
0.01270202, -0.0068562403, 0.01761491, 0.041428305
0.035642255, -0.023829484, 0.01574267, -0.017407663
0.031398583, 0.022149717, 0.010079956, 0.096011825
0.0163818, -0.015480221, 0.037802003, 0.023027632
-0.051566146, -0.03623637, -0.042235, 0.059225753
-0.05151948, 0.0028633033, -0.0030626974, 0.07828694
0.024097443, 0.010946484, -0.04161583, 0.059768308
-0.030404687, 0.0013659341, -0.03203747, 0.0072609917
-0.021073462, -0.021441631, -0.0037407153, 0.036939178
-0.013959532, 0.021048937, 0.023909874, 0.11293399
0.018876776, 0.0032999157, 0.0255826, 0.10792015
-0.03649219, -0.0358473, -0.03705612, 0.084406465
0.005232382, -0.04703987, -0.046894494, 0.08140714
0.032698944, 0.0060735364, 0.0110316565, -0.017361896
-0.030587079, -0.03836907, -0.0131534645, 0.037642118
-0.030029206, 0.02802952, -0.0011305071, 0.014613839
-0.02072476, 0.029366834, 0.032175776, 0.025578206
-0.017732257, -0.04167488, -0.014385355, 0.024033194
0.03877172, -0.022941345, -0.03004948, -0.03230231
0.012059888, -0.047919445, 0.015336915, -0.026083907
-0.016917132, 0.012646574, -0.020149382, -0.02642088
-0.04466368, -0.005577207, 0.006205399, -0.003314042
0.024620105, -0.034314122, 0.026463725, -0.0621527
-0.020479998, 0.033660743, -0.013298599, -0.086495884
-0.008249363, -0.03494058, -0.00012809863, 0.016305884
0.012484305, -0.010239267, 0.019082567, -0.004595914
-0.0015404837, -0.032952715, -0.03880915, -0.07477107
-0.003939622, 0.023644682, -0.021221675, -0.01458671
-0.037984673, 0.0032668705, 0.02954783, -0.06430862
0.013705833, 0.025303304, -0.017715609, -0.037974004
0.04271779, 0.036210295, 0.021795277, -0.06405406
0.00089117495, 0.004696382, -0.026138796, -0.109623805
0.028016744, 0.031239584, 0.006015433, -0.08799524
-0.02297115, 0.010023421, -0.017524816, -0.06249308
0.04852279, -0.018977212, 0.011249976, -0.094379395
0.012068711, -0.037971076, 0.0005860068, -0.11646474
-0.030645702, -0.028006671, -0.046955697, -0.043308336
-0.0063818726, -0.049275, 0.023085251, -0.027488474
0.028915871, 0.022070836, -0.029740559, 0.014556899
0.038231153, -0.041218594, 0.03669938, -0.081319496
-0.033569343, -0.0022052675, -0.044496812, -0.04031456
0.016657457, -0.03762077, 0.029163674, -0.08972037
-0.042478252, -0.020981962, -0.015331842, -0.044396073
0.014533571, 0.005329095, 0.03533022, -0.06909732
0.0069135414, -0.0036489295, 0.021991149, -0.0594755
-0.050131638, 0.016387198, 0.0087014325, -0.008046386
0.02684102, 0.022010945, 0.029739052, -0.07446566
-0.0352532, 0.004219362, 0.008652918, -0.0306743
-0.013685568, 0.014923365, -0.022186454, -0.020288164
-0.024492152, -0.021855464, 0.027588692, -0.029668046
0.013875865, -0.0036307867, 0.002159416, -0.004182737
-0.020020735, 0.0017006486, -0.04037056, -0.025070868
-0.044675093, -0.01561567, -0.0032699455, -0.027135564
-0.03149829, 0.035584472, -0.014047692, -0.046057526
-0.042961482, -0.014267474, 0.03429984, 0.0269344
-0.013938213, 0.032784965, -0.011935186, -0.003160303
0.009646914, -0.03223794, -0.01697678, 0.017083557
-0.016640186, 0.011559954, -0.045040432, -0.003933838
0.0037160593, -0.009014732, 0.004445217, 0.008019928
0.0014958885, -0.02057426, 0.007429564, 0.03464293
-0.010355836, -0.006868474, -0.047694866, 0.06428688
-0.0060132584, -0.019524017, 0.03292786, 0.06615042
0.016625796, -0.05063753, 0.016980072, 0.054355726
0.031455547, 0.0036130096, 0.0010848903, 0.02089447
0.023835976, -0.03156858, -0.0012145683, 0.02061542
-0.04556757, 0.016678015, 0.024643894, 0.056287438
-0.033168998, 0.023981575, -0.0042977324, 0.062847205
-0.0220718, -0.0039206757, -0.0019581257, 0.06413939
0.017811675, -0.018712586, -0.024433024, 0.04065851
-0.025927076, 0.033619527, -0.0067547522, 0.032818865
-0.010275749, -0.034120064, -0.04529798, 0.10560672
0.01756919, 0.025867997, -0.021148305, 0.024383212
0.0019092219, -0.0074088257, -0.014795114, 0.0847649
0.034726575, -0.026015561, -0.03242331, 0.11226814
-0.00043224148, -0.023029422, 0.025777575, 0.05987787
-0.036964826, -0.039623912, -0.021783805, 0.023975419
0.022367971, -0.0031106365, 0.010245842, 0.039615005
-0.020390967, 0.018774811, 0.034738705, 0.10252294
-0.0076110307, -0.014748717, -0.029569427, 0.06732706
0.0040945015, -0.04283983, 0.029715635, 0.084476136
-0.011542441, -0.051291555, -0.015186482, 0.025687272
0.033943046, 0.02293561, -0.043089863, 0.056136653
0.008961138, -0.0150132375, 0.007382754, 0.0025514043
-0.04182522, 0.028155692, -0.021093033, 0.001547611
0.033315923, -0.021457642, -0.020870274, 0.037746035
-0.030250091, 0.005911145, 0.032850225, 0.025677267
0.00026618995, 0.025987243, -0.021704499, 0.020347489
-0.004183502, -0.050524835, 0.0058253207, 0.027516041
0.019253282, 0.0010148039, 0.017897455, 0.027859295
-0.01656811, -0.047151983, -0.02396798, 0.07770199
-0.0113173835, 0.02323294, -0.033782154, 0.0744202
-0.0073552625, 0.034036867, -0.03567513, 0.03181499
-0.013654207, -0.02645933, 0.030249478, 0.08409757
0.015446645, -0.044115257, -0.02094869, 0.07200553
-0.024462711, 0.0065522348, -0.013197218, 0.023871316
-0.049842175, -0.04681657, -0.0087311305, 0.031879462
0.0020751308, -0.038455937, -0.0021858423, 0.055711273
0.0054548276, 0.03400643, -0.044464435, -0.009395838
-0.032705273, -0.046408568, 0.019041207, 0.010026926
0.022821065, -0.040398255, 0.0016457669, 0.009510415
-0.0177086, 0.02185493, 6.4214814e-06, -0.021364376
0.0018260558, 0.0025457188, -0.015457552, -0.010716917
-0.007623881, -0.009946503, -0.00028522348, -0.041909903
-0.011498009, 0.018387003, 0.04753452, 0.011685494
-0.0080151, 0.008270462, -0.013627415, -0.027184548
0.025437048, -0.03274965, 0.025085865, -0.06479994
-0.038803987, -0.047872353, -0.011441365, -0.06298354
-0.039380874, 0.015150072, -0.044771977, -0.06543811
0.012237779, -0.044766616, 0.031674407, -0.029042734
0.03574049, 0.024322039, -0.034040846, -0.111902416
-0.017876625, -0.041347727, -0.02223918, -0.061682165
-0.0372766, 0.0017331806, -0.00960901, -0.034558073
0.026320843, 0.03397163, 0.010679127, -0.069472015
-0.022952944, 0.032148026, -0.012103553, -0.115262024
0.0141332215, 0.031888448, -0.03699166, -0.097307876
-0.039576326, -0.028738666, -0.036172323, -0.083002746
-0.022535414, 0.014455122, 0.027204372, -0.048870817
0.014635835, 0.029369105, 0.028010849, 2.6048714e-05
0.04188818, -0.024040364, 0.022728113, 0.017466635
-0.028543033, 0.013526998, 0.029734313, -0.030327195
0.004841895, -0.0062326416, 0.032556977, 0.015330313
-0.012539866, -0.014718236, 0.028630976, -0.0046529695
0.009975642, -0.02578524, 7.3830706e-05, -0.023678686
0.036306754, 0.039627872, -0.017952124, -0.030944435
-0.009277022, 0.0140425, -0.028590472, -0.007764991
0.02375892, -0.02727924, -0.014906245, -0.03746149
-0.025413744, -0.04758509, 0.0077058095, -0.034585506
-0.015974382, -0.015577688, -0.017975222, -0.061941955
-0.042544257, -0.049809933, 0.00234649, -0.083055936
0.010977755, -0.00976207, 0.02387564, -0.014324096
0.03440345, -0.03547436, -0.02959124, -0.049291346
-0.04338569, 0.0029231557, 0.03080067, 0.0024803826
0.013729778, -0.04175199, -0.024068622, -0.06798336
-0.025210623, -0.0333542, -0.020642232, -0.021547237
0.033045027, 0.012990978, -0.03000892, -0.02752766
0.0005376849, -0.03142051, -0.039450694, -0.018959861
0.024860602, -0.0028598146, -0.017691165, 0.020974416
-0.018999722, -0.006661423, -0.03836717, -0.019315572
0.029237423, 0.030021966, 0.014752168, 0.061737422
0.009197437, -0.0118226325, -0.030011764, 0.07589248
-0.017999196, -0.036479384, 0.0050018667, 0.026579544
-0.016534928, -0.040652245, 0.02672799, 0.020941166
0.008336365, -0.047137436, 0.033091243, 0.012584372
0.027667359, 0.0027571274, -0.025160387, 0.03328129
0.012496981, 0.03267919, -0.038269985, -0.0024594753
-0.044766296, 0.02224502, 0.020318389, 0.01946489
-0.041193586, -0.045498915, 0.024222206, 0.103786744
-0.038545933, -0.015896618, 0.028289143, 0.10287064
0.033791, -0.026168594, -0.028275002, 0.07948238
-0.020436883, -0.038949538, 0.019847617, 0.10691341
0.005834105, 0.00664715, -0.009450728, 0.039504573
0.010518944, -0.0036728508, 0.035581663, 0.05400303
-0.011079648, 0.034184143, 0.004174432, 0.0022326617
0.0193945, -0.011943593, 0.032665055, 0.07308343
-0.015799299, -0.011090378, 0.03640013, 0.078205176
0.009974494, 0.018581714, 0.008759323, -0.0025130697
-0.005260836, 0.025766242, -0.018815279, 0.021666117
-0.041716766, -0.013933499, 0.032501392, 0.06445396
-0.044861186, -0.032962896, 0.032197654, 0.047779463
0.021241184, -0.03900019, -0.00048322667, 0.10864807
-0.040656503, 0.033005234, 0.021137903, 0.05315412
-0.031434342, 0.019081384, -0.017924648, 0.0669018
-0.018610079, 0.0022204947, 0.011092103, 0.06441706
0.0009108827, 0.026918475, -0.018792745, 0.03286204
0.02770549, -0.019533416, -0.022098308, 0.06073141
-0.013856085, -0.014886318, 0.028939955, 0.07455762
-0.033925973, -0.010247758, 0.034053545, 0.0428815
0.025866404, 0.02359848, 0.027714914, 0.05628673
0.015701052, 0.018681435, 0.02745359, 0.016910769
0.0170027, 0.0076536364, 0.01895872, 0.01564204
0.032157652, 0.010631712, -0.010756412, 0.01277757
0.0030203431, -0.041131653, -0.035873838, 0.05299013
0.02957138, -0.0055908617, -0.044758365, 0.087398395
-0.00090085535, -0.038415544, 0.010381855, 0.047826994
-0.035737865, -0.009551704, 0.018788952, 0.029016051
-0.014937069, -0.006843027, 0.011076316, 0.04788234
0.023796635, 0.011214348, -0.02155572, 0.023171712
-0.0077323676, 0.021547062, 0.0029795635, -0.058295373
-0.050849188, -0.04273985, -0.0020632416, 0.018947123
0.03912043, -0.03527493, 0.0143052535, 0.0130364895
0.032749917, 0.031074354, -0.029518012, 0.046489194
-0.0276132, 0.0032319392, 0.011920537, 0.04321776
-0.0057209167, -0.0059532654, 0.037197128, -0.043817755
0.02605055, -0.0138316145, -0.008716739, -0.039678596
-0.04269226, -0.03677263, -0.027016057, -0.00920019
-0.0036383923, -0.031474244, -0.03735533, 0.0072944677
0.023630287, -0.023919767, -0.031437833, -0.06385721
0.042768158, 0.03752199, -0.033435334, -0.1021941
-0.023475187, -0.02019036, -0.016556777, -0.05916444
0.03769623, 0.025093375, -0.012989676, -0.08792639
0.019635528, -0.04457481, 4.9632537e-05, -0.04247358
0.0107609015, -0.0047118394, -0.018391382, -0.036877602
0.027628595, 0.014721416, 0.031683654, 0.001209205
0.0077412343, -0.0069973296, -0.002579763, -0.043391187
0.014342896, -0.008038062, -0.029515002, -0.019361958
0.015534946, -0.015394224, 0.010263597, -0.08376514
0.001114222, 0.038762283, -0.0224652, -0.025552198
0.0036606858, 0.015327048, -0.01969399, -0.038089443
-0.014512043, -0.051670652, -0.0405588, 0.023606662
-0.042963434, -0.03709786, -0.029547494, -0.025012081
0.025025718, 0.032238603, 0.018750204, 0.06863674
0.045871373, 0.0005364467, 0.023975836, -0.021460187
-0.04677301, -0.00093950797, -0.030937904, -0.044498634
-0.03312888, -0.009908293, -0.015805982, -0.06708296
0.033248477, 0.026324186, 0.019980261, -0.08814712
-0.019442305, 0.02423274, 0.02044072, -0.032431994
0.02257563, 0.029124374, -0.010243222, -0.048538975
-0.024296457, 0.01636947, -0.012082934, -0.00014906292
0.010846658, -0.020229155, -0.017478464, -0.0725951
-0.03971987, 0.027850403, 0.019481074, -0.011452461
0.02722699, -0.02045726, -0.02149596, -0.028495321
0.0020346304, 0.037345238, 0.023420954, -0.07303454
-0.037322465, 0.0050060963, -0.012161719, -0.040938456
-0.024830408, -0.0011420104, -0.025177596, -0.08528762
-0.038084816, 0.028087553, 0.009736533, -0.10339332
-0.04459624, -0.049212474, -0.03432638, -0.07597345
0.02447134, -0.019488981, -0.03113225, 0.0046138773
-0.02524998, 0.027951889, 0.017506458, 0.007745575
-0.040407505, -0.004258881, 0.01850354, 0.012099842
-0.039521493, -0.019658724, 0.018866515, 0.06775481
0.01503778, -0.04178271, 0.002787519, 0.06705796
-0.024657484, -0.013516507, -0.03914956, 0.018097833
-0.0069841654, 0.032932624, 0.026558865, 0.06731161
0.01951324, -0.021291701, -0.02253783, 0.10307292
-0.018080095, -0.031612296, -0.038958665, 0.03463576
-0.020457126, -0.04031045, -0.0077319695, 0.099203736
-0.012521568, 0.002752459, -0.027249275, 0.00873679
0.020014308, 0.004948416, 0.011563544, 0.08640491
-0.014241606, -0.00014011818, -0.020352509, 0.07215949
-0.023739327, 0.022735372, 0.038926147, 0.11811667
0.008515823, -0.016808642, 0.00038826582, 0.041084617
-0.021357475, -0.018960472, -0.008209382, 0.029202443
0.032734416, -0.019893708, -0.0004571579, -0.032457348
0.0065002823, 0.027888536, -0.03405192, -0.024305047
0.031695943, 0.020613277, -0.01140712, 0.0290745
-0.033381138, -0.019713102, 0.018532667, 0.08804138
-0.038740974, -0.03784044, -0.015478862, 0.059149474
-0.005344539, 0.044068124, 0.012899631, 0.07501469
0.016840536, -0.023460187, -0.005176808, 0.05999916
0.0030204572, 0.022638837, 0.017089605, 0.03911189
-0.039882183, -0.011964805, -0.03270049, 0.06072336
0.003162872, -0.027419774, 0.03381902, 0.042013004
-0.03284488, 0.031156342, 0.02191215, 0.029691529
0.00017484136, 0.008278155, -0.044832874, 0.039504293
-0.015229034, -0.01629513, -0.036867052, 0.08213775
-0.045217447, -0.04971105, -0.016427612, -0.013949211
0.0008902019, 0.006613586, 0.028451322, -0.008309613
0.02852643, 0.008760728, 0.008424606, 0.056737855
-0.047799174, 0.028590597, 0.036337003, 0.07419422
-0.011924982, -0.015170291, -0.03617952, -0.0075810067
-0.026047783, -0.04866595, -0.03171619, 0.08657998
-0.028217457, 0.012683793, -0.03525423, 0.004357121
0.02055287, 0.016369414, 0.024554215, 0.073513165
-0.034968816, -0.030854933, -0.025523357, 0.035650503
0.03220472, 0.0012241938, 0.033049002, 0.04131089
0.023936842, -0.035322588, -0.034919653, -0.010144356
-0.0019838954, -0.04432451, -0.02585103, 0.030441955
-0.038286842, -0.03830362, -0.01682216, 0.05473208
-0.015547377, 0.020322748, 0.028841723, 0.011322247
-0.0373846, 0.010356255, 0.007884982, 0.023603711
-0.012891978, -0.01215392, -0.0047555952, 0.024241623
-0.03075817, 0.036434576, -0.027020114, -0.036602493
0.015192347, -0.013841441, -0.023820283, -0.00838579
-0.01448711, 0.02997297, -0.03268331, -0.010485587
-0.027084177, 0.0111966245, -0.031261604, -0.011997965
-0.004191857, -0.00071021053, -0.00015233438, -0.0661944
0.0042693526, -0.047063716, -0.014643813, -0.07213593
-0.03342803, 0.040755443, -0.020233931, -0.075416505
0.029893199, 0.009305197, 0.03363171, -0.044504967
0.039769955, 0.013506552, -0.021587113, -0.07322854
0.02119143, -0.02747081, -0.018159904, -0.04760819
0.02253046, 0.03255165, 0.02831013, -0.07563592
0.018956766, -0.04401383, -0.016089713, -0.030949298
-7.456597e-05, -0.014538748, -0.022299666, -0.1188674
0.011933897, -0.021854492, 0.0013406533, -0.06861806
-0.048210237, -0.02784849, 0.03076759, -0.09368693
0.009685702, -0.021006186, 0.009082125, -0.042091887
-0.015430241, 0.0149163995, -0.02167058, -0.05070959
0.032301452, -0.0036506404, 0.019521872, 0.007833481
0.0027115375, -0.0042819246, 0.03427131, -0.042641524
-0.0056001497, 0.034801524, -0.0008226423, 0.048111815
0.033892445, -0.022937985, -0.014869837, -0.021521768
-0.0211669, -0.022910763, 0.027065475, -0.016588792
-0.04360904, -0.04057416, -0.045275312, -0.042810887
-0.022501566, -0.03961031, -0.033110254, -0.06234821
-0.0043772864, 0.027444817, 0.005371532, -0.07023279
-0.015601164, -0.040289514, 0.012265391, -0.08496933
-0.024747962, 0.0013263089, -0.035687085, -0.015938785
0.027210811, -0.024143655, -0.009817021, -0.09034984
-0.012031389, 0.022409182, -0.036868017, -0.021961456
0.03070194, 0.0023310925, -0.0178908, -0.09192274
-0.029221069, 0.0036690203, 0.029420717, -0.070842706
-0.035148993, -0.03754331, -0.044545867, -0.028103478
-0.013935265, 0.021544138, 0.02344842, -0.012538799
0.003899896, -0.0110730035, 0.0036459148, -0.026661199
-0.007451967, -0.004243254, -0.035717785, -0.040697996
0.017986171, -0.0004882859, -0.048591953, 0.0010922475
0.004369752, -0.005138825, -0.037590805, 0.025880303
-0.048030004, -0.052089214, 0.01868613, 0.043584086
-0.006416281, -0.01674249, -0.037785944, 0.053778242
-0.046978716, 0.009951194, 0.015539813, 0.0985905
-0.011702484, 0.021474585, 0.006212668, 0.09200641
0.0015379004, -0.009248831, -0.046753455, 0.0680766
0.007026916, 0.027390076, 0.021193754, 0.069565274
-0.018264864, 0.011798156, 0.017485714, 0.042549647
-0.044285607, -0.046677478, 0.02682264, 0.08251431
0.018136555, -0.036706828, 0.010387011, 0.11713298
-0.011959206, -0.0019461518, 0.028704315, 0.072134346
-0.04327144, 0.031493776, -0.004192532, 0.026872722
-0.04445727, 0.0058658556, -0.0435444, 0.114524595
-0.012156857, 0.009067293, -0.030663272, 0.050762936
-0.0100896135, -0.011811411, -0.047789134, 0.054171916
0.030070918, 0.030617254, -0.03789915, -0.0068000066
0.004739379, 0.016525596, -0.026365403, 0.08668364
0.022389907, -0.017855039, 0.028333427, 0.035871368
0.025649432, -0.03938626, 0.024068065, 0.124287404
-0.02338891, 0.0061412724, -0.012198812, 0.08157197
0.037127677, -0.012886717, -0.042174183, 0.051927444
0.021629391, 0.014327087, -0.028997922, 0.054604158
0.030720696, 0.03346335, 0.024766194, 0.07212115
0.014940285, 0.016084542, 0.01070306, 0.003795859
-0.027779032, 0.03378744, 0.037742898, -0.062624514
0.027482573, 0.024446994, 0.012955958, -0.01591045
-0.04219842, 0.017974647, -0.00811257, 0.011684944
-0.0076186107, -0.008475356, -0.013223711, 0.06887937
-0.036646638, -0.018758606, 0.0065486496, 0.05982847
-0.013142018, -0.052703053, -0.028874053, 0.014997762
-0.010434299, 0.030808097, 0.02055806, 0.062246915
-0.013310966, -0.03304426, -0.010446499, -0.0041256705
-0.049647976, 0.016057886, 0.017052727, 0.061395936
-0.0028261642, -0.022896687, -0.005886581, -0.005562899
0.03227895, 0.0050980058, -0.0077202315, 0.0792565
-0.015697774, -0.00867256, -0.020644207, -0.010142567
-0.022046814, 0.02676467, 0.024080848, 0.060587194
0.0027302557, 0.019508533, -0.015827661, 0.0106748445
-0.0284178, -0.02061042, 0.0036430657, 0.018427769
0.0097658355, -0.032840203, 0.01804927, 0.028625842
0.015737655, 0.016190019, -0.045344938, 0.06594361
-0.0035336774, -0.038793057, -0.021049364, 0.05176981
-0.012402552, -0.031025708, 0.007984024, -0.026685761
-0.05013053, -0.0027085422, 0.03271861, -0.00062863604
0.015115849, 0.0230596, 0.0013904832, 0.0006331238
-0.0022659977, 0.017279208, 0.027410492, -0.0069260453
0.0019914976, -0.01883398, -0.014436127, -0.017271202
0.02783079, 0.024555152, -0.024365904, 0.0043534166
-0.013379784, 0.03732605, 0.008802638, -0.04122242
-0.027047975, 0.012364594, 0.035346862, -0.014173286
-0.011395627, -0.02649657, -0.04705984, -0.019042384
-0.010437704, -0.036224026, -0.04528232, -0.06151114
0.017042618, -0.039202902, -0.03702509, -0.028525427
0.014957351, -0.041445475, 0.011941024, -0.07470418
-0.04000927, -0.04326295, -0.010849991, -0.038262486
-0.02741647, -0.041414656, -0.025351454, 0.025648342
0.013766356, 0.008740377, -0.038783856, -0.060661152
0.0010386746, 0.007532191, -0.022565648, -0.007285797
0.02386126, 0.022951024, -0.011030889, -0.05852886
-0.038318045, -0.041232117, 0.020805635, -0.00064473937
-0.029280376, -0.043838203, -0.028795341, -0.042059507
-0.002255408, -0.047579397, -0.0055067134, 0.008545685
-0.03289601, -0.005473448, -0.03733093, -0.08271038
-0.027689662, 0.026728211, -0.02766351, 0.04415661
-0.029003326, -0.041557163, 0.033486865, -0.06590725
-0.0021688864, -0.016760157, -0.039663482, 0.026800947
0.019096363, -0.012341368, 0.010475259, -0.005665033
-0.015766732, 0.030993514, -0.016310396, -0.018940752
-0.016726006, 0.012857213, 0.025285034, 0.025622375
-0.02160158, 0.018055817, 0.0042685554, -0.025844406
-0.028893499, -0.02594273, -0.03614808, -0.07171929
0.044805583, -0.040123463, 0.010102858, -0.023422608
