Key: /conv2d_30/conv2d_30/bias:0, Shape: (64,)
0.06943427
0.026330067
-0.021130327
-0.0013741548
0.07200308
-0.01827219
-0.06890467
0.001602305
-0.025023889
0.059220728
0.023973698
-0.0708018
0.0262183
0.008186411
0.0073888255
-0.03281168
0.042843632
0.040101383
-0.029146887
-0.047829133
0.020782951
0.0035665524
0.007743627
0.034604132
-0.05359082
0.07493215
0.050486226
0.048173785
0.04616835
-0.029679202
-0.028123472
-0.057420306
0.039548736
0.0043303757
0.037029814
0.07163895
0.072341435
-0.028346265
0.049579095
-0.006101283
0.05390527
-0.047652215
0.0739012
0.03644201
-0.004965119
-0.01323541
0.07146973
0.07048833
-0.006877033
0.069782585
0.04474762
0.07053252
-0.0069982423
0.049343716
-0.11798496
0.042218946
-0.048617657
0.054308347
0.02771793
0.05300851
0.07100953
0.05047758
0.030056925
0.070048176
Key: /conv2d_30/conv2d_30/kernel:0, Shape: (64, 3, 3, 3)
0.08423486
0.09148971
0.13509195
0.080243826
0.06849926
0.12267746
0.06902555
-0.008413313
0.1836334
0.12138856
0.027194235
0.016364327
0.10436101
0.056049965
0.057777703
0.17475529
0.14583096
0.071165904
0.018526493
-0.0050738715
0.056899793
0.032119505
0.14529182
0.14918245
-0.01243968
0.07987116
0.118919805
0.12755972
0.009676329
-0.03722611
0.13174123
0.093303755
0.11422765
-0.030156087
0.1139216
0.030548494
0.0580494
-0.017352069
-0.0458543
0.07894063
-0.00050532544
0.09316612
0.1330705
0.10299908
0.01562583
0.014997225
-0.034312565
0.121409535
0.016791351
0.11794208
0.041351944
0.077699795
-0.068446785
0.08581817
-0.013302183
-0.062447153
0.010525242
0.06234632
0.044516046
0.039717756
0.07754064
-0.08007767
0.013530885
-0.050088406
0.090354845
-0.07002196
-0.0505092
-0.07803199
-0.10214531
-0.02494804
-0.09757093
-0.09395735
-0.0567706
-0.07127773
-0.0387558
-0.07827427
-0.06224327
-0.011067884
-0.0685804
0.08447116
-0.091329895
-0.06314278
0.093770765
0.0029844213
0.083307065
0.018387072
0.017715123
0.01128799
0.080565676
0.085338324
0.109583035
-0.03576334
-0.032834947
0.040158525
-0.000488602
-0.04297266
0.05651195
0.09486551
0.11332253
0.05732504
0.020392526
0.08396514
0.057847116
0.04918044
0.011946037
-0.031641025
0.111843996
-0.029342331
0.15024345
0.14292042
0.041976176
0.11542713
0.14202234
0.072191425
0.17556463
0.07291313
0.0465364
0.18004045
0.06194864
0.041708518
0.021771874
0.18865511
0.08588476
0.08326741
0.031199364
0.16138355
0.1579623
-0.0021601142
0.15666781
-0.013126969
0.01823947
0.102898434
0.09069192
0.03790228
0.17538384
-0.108909346
-0.027115699
-0.08842703
-0.021743517
0.009419569
-0.04132931
-0.035851527
-0.09173555
-0.041147392
-0.07769066
-0.084147684
-0.11270122
-0.046684608
-0.1299707
0.057667278
-0.026402526
0.01151836
-0.12465968
-0.029790962
-0.11510326
-0.063268796
-0.015746813
0.05765004
0.036354996
-0.10111748
-0.12523139
-0.119539104
-0.01112383
-0.087750435
-0.040544517
0.0027216815
0.03651258
0.029820826
-0.10058728
-0.034245253
-0.06339683
-0.16248088
0.005240963
-0.05335878
-0.16770844
-0.1577856
-0.15081905
-0.08270469
-0.010485236
-0.10404286
-0.0049902145
-0.10024199
-0.082880445
-0.05623506
-0.06651242
-0.084266126
-0.054579798
-0.15401123
-0.0016830823
0.049622588
-0.04736471
0.05269034
-0.06958533
-0.011333858
-0.037776485
0.04600074
-0.05667475
-0.00062263204
-0.026122428
0.10704084
0.0027190768
0.052337036
0.05278066
0.0527594
0.09858845
-0.09457573
0.038524136
-0.049482375
0.095755555
0.11336108
0.06860703
-0.088032916
-0.0074463543
0.043786567
0.010287262
-0.044346448
-0.060615957
-0.0639385
0.016240027
0.08820534
-0.09850695
0.07034441
0.029427305
0.05550658
-0.023572518
0.06837228
-0.10206834
-0.0348562
0.07540259
0.029738976
-0.042758837
-0.070879705
-0.0033723558
0.04274979
0.05483197
-0.09825799
0.123334795
0.04034562
0.093185306
0.060214933
0.048419427
0.029440826
-0.036139734
0.005256447
0.10962594
0.12243399
0.13927987
0.012968463
0.19391242
0.08975345
0.13828774
0.17547807
0.07750915
0.010329821
0.05723621
0.07642373
0.120753504
0.14197639
0.04854277
0.05302924
0.12445166
0.08863965
0.057890326
0.034741867
0.097375356
0.1227883
0.0421113
-0.00794494
0.12232744
-0.00022937819
-0.0072392584
0.012772262
0.10581943
0.13992997
0.059419237
0.07813304
0.07059513
-0.0065167826
0.09357837
-0.034978554
-0.022115193
0.1112531
0.010277743
0.037680898
0.06663976
0.04574338
0.046547245
0.056790102
0.012338901
0.07702109
0.1018186
0.111964986
0.10851003
0.055280812
0.09532
0.09775894
-0.049478196
-0.1403222
-0.003973545
-0.0070675104
-0.079391316
-0.15201005
-0.037801858
-0.16115849
-0.11264087
-0.10779735
-0.16089499
-0.14854707
0.0017769733
-0.1220029
-0.06402881
-0.1115778
0.020768948
-0.044165857
-0.018639347
-0.005244684
-0.15493068
-0.117117025
0.007805203
0.018753152
-0.12703626
-0.026170194
-0.011817733
-0.0030082841
-0.036536172
-0.04708059
0.08129675
-0.057620812
0.03634863
-0.052956358
-0.029203018
0.10743582
-0.020811887
0.11296178
0.07267871
-0.037900478
0.090811834
0.072113745
0.11433184
-0.045141123
-0.009367678
0.112951584
0.07387496
-0.07335336
0.029240452
-0.078203425
0.0012859583
-0.0031940003
-0.03569454
0.117870316
-0.009641689
0.01262453
-0.18968987
-0.026177693
-0.13131735
-0.14392292
-0.1362884
-0.07874655
-0.10938636
0.010787251
0.01513041
-0.18069966
-0.12084789
-0.07417034
0.016341416
-0.10318749
-0.05625276
-0.018759582
-0.031751152
-0.06447049
-0.19346505
0.012905017
-0.083252944
-0.12146606
-0.2001001
0.04716305
0.03308765
-0.03740937
0.028598761
0.046681933
0.25347406
-0.10229626
0.12335717
0.2817399
0.14440328
0.049890563
0.28561032
0.17576206
0.44301745
0.4341611
0.32007736
0.46366048
0.49730018
0.22261488
0.28873935
0.31665757
-0.04294978
0.008191438
-0.0021957944
-0.042321198
0.006887444
0.0035576564
-0.012656153
-0.05712537
0.049578276
-0.026645208
-0.06038448
-0.10683202
-0.061183967
-0.08846308
-0.09851962
-0.110259056
-0.042462792
-0.030800495
-0.12719467
-0.15401088
-0.113254674
-0.08828579
-0.07537905
-0.1592557
-0.20889242
-0.08335721
-0.075630195
-0.11837793
-0.0028752428
0.03306203
0.0757612
-0.08572644
0.0064484323
-0.01366982
-0.12762505
-0.14551371
0.08676017
0.102693975
0.17133844
0.0880216
0.17574765
0.040413532
0.017497344
0.10520661
0.21279575
0.008985917
0.0033186616
0.15764731
0.076277666
0.16939653
0.0063923113
-0.024863381
0.020420156
0.08978415
0.059851877
0.047498632
0.069276854
-0.035588957
0.13000056
0.059693616
0.028136827
0.08635508
0.11498252
0.026405899
-0.08977929
4.6911362e-05
-0.08129663
-0.07130419
-0.036986012
-0.07397403
0.008719494
0.03152331
0.096952386
-0.10076636
-0.07236306
0.098263584
-0.1602263
-0.079810895
-0.1114704
-0.13279274
-0.16016275
-0.043451943
-0.12045413
0.06124538
0.016762313
-0.03004563
-0.010739605
0.14197451
-0.020489374
0.022434691
-0.060493384
0.028743194
-0.07286201
0.057832405
-0.005321459
-0.14680333
0.01835265
0.038585212
-0.11609746
-0.038201626
-0.10687223
-0.003546926
-0.07805112
0.009359618
-0.14571506
-0.07552216
0.07594483
0.008044155
-0.08545754
0.02224615
-0.04294486
0.07557306
0.05202106
0.037195295
-0.11218385
-0.025908617
-0.04950503
0.045762993
0.05433473
0.01993657
-0.028588427
-0.10712026
-0.052659295
0.04004841
-0.044575132
-0.04535633
0.0010847494
0.049596306
-0.041394413
-0.12940994
0.020293323
-0.11105946
-0.11950204
-0.019943064
0.03567818
-0.09486701
-0.06663535
-0.15613456
-0.011191267
-0.02859597
-0.12677743
-0.072273925
-0.12018709
-0.07391744
0.1254068
-0.02663804
0.1560658
0.10360042
-0.03705117
0.04408176
-0.026386702
-0.01397521
0.14041889
0.009580691
0.05549917
0.09454239
0.014301723
-0.011218149
0.004292554
0.02108077
-0.050519995
0.10943376
0.006854633
0.071471
0.026536519
0.114649616
0.055700496
0.036738098
0.120154046
0.070749626
-0.022439225
0.07480019
-0.024986275
0.16016026
0.09751214
0.16157275
0.026729638
0.048250772
-0.017501019
0.114681005
0.10067018
0.060861617
0.058023345
0.00030720996
0.099018335
-0.005748628
0.03085214
-0.054517202
-0.016748516
-0.056161266
-0.100033775
-0.06634371
0.075322635
0.027476259
-0.06840365
0.080000766
0.05804031
0.061882313
-0.043370973
0.117493175
0.06244733
-0.052055012
0.14511313
0.029348781
0.07910871
-0.059016272
0.06352893
-0.027620455
0.09043466
-0.02338073
0.05896191
0.05146266
-0.01840886
0.05425156
0.037703175
0.13770302
-0.04000616
0.10644489
-0.00985164
0.014024671
0.07322502
0.016949646
-0.04379621
-0.019585535
0.037085906
0.11224549
-0.042336628
0.14651868
0.04045001
0.017314872
-0.019180859
0.072401874
-0.005695997
0.132154
0.12815559
0.09454421
-0.035048306
0.11963386
0.08225054
0.023736747
0.14849569
0.012816064
0.16228543
0.11765962
-0.06417763
0.026775623
0.08143581
0.06490887
0.12022329
0.084401354
-0.0027468721
-0.017626114
-0.09502229
-0.091535375
0.043610226
-0.050811082
-0.06200244
-0.04432564
0.10211491
-0.08218657
-0.061768282
-0.028792707
-0.083835445
0.01783299
-0.10686553
-0.07466417
-0.07501481
-0.07428558
-0.09553924
-0.046551317
-0.07521383
-0.09773493
-0.05644543
-0.020191656
-0.05195961
-0.11676151
-0.03666594
-0.10642941
-0.0008086661
0.13570623
0.13873099
0.10384982
0.107706174
0.18350333
0.07267917
0.13736999
-0.0013425468
0.16180748
0.08990592
0.012002928
0.038905967
0.1389355
0.10969266
0.027822081
0.05795801
0.12264433
0.1645789
-0.020481095
0.012855005
0.1589103
0.11768865
0.1099946
0.12334769
0.13662612
0.07950795
0.1691182
0.058379553
0.020543996
0.11555303
0.045816593
0.1561908
0.09814728
0.009530487
0.08045523
0.1364749
0.010499228
0.02366984
0.10035713
0.17388356
-0.026120896
0.13883457
0.09115727
0.06280206
0.09719531
0.088188626
0.14062111
0.12949952
0.05905971
0.09704094
-0.02160827
0.1351237
0.09300811
-0.0030680392
0.12189597
0.090175
0.04905545
0.057914495
0.027496293
0.048334017
0.11015769
0.062347956
0.08666337
0.035523742
0.086076245
0.15436588
-0.010573041
0.082460165
0.15160243
0.060495958
0.1066409
0.1549445
2.64883e-05
0.12006911
0.0971378
0.12923084
0.110723644
-0.0012030398
0.14348891
0.016759342
0.105167374
0.06410886
0.08635637
0.09454509
0.0083850175
-0.0080837505
0.14124513
0.12096099
0.13675947
0.12388163
0.15729293
0.07348636
0.09051568
0.1481552
0.10870297
-0.011569074
-0.033987034
0.14883329
0.10604268
-0.005408956
0.04284171
0.0035209812
0.12263135
0.053279996
0.05122163
0.14240138
-0.0014194077
0.11565965
-0.030212846
0.044738192
0.05769828
0.0901096
-0.0059947344
-0.06282012
0.055404652
-0.012638564
-0.057171226
-0.0015933982
-0.012003535
0.08415847
0.038062997
0.07510911
0.01784398
0.1366538
0.020943748
-0.028827183
0.07699795
0.011060332
-0.0515648
-0.016218878
0.096275836
0.04167126
0.067255355
0.007832719
0.014009118
-0.14978221
0.04721617
-0.13429908
-0.005793483
-0.015044295
-0.15092218
0.026139434
-0.06449882
-0.1141191
-0.048745926
0.048336238
0.045016196
-0.13794461
-0.09498895
0.020446666
-0.13614139
-0.101256065
-0.10060072
-0.01095235
-0.07232786
0.0052947486
0.027220309
-0.10008764
-0.06379444
-0.09243589
-0.11341052
-0.019143283
-0.13457194
-0.02857334
-0.083242394
0.01872938
-0.048498593
-0.07115061
-0.08903737
0.027572561
-0.12399449
0.027720131
-0.022147175
-0.15190789
0.0030347155
-0.088472724
-0.11764263
0.048683032
-0.02381639
0.005258738
-0.11393121
-0.05903257
-0.097724125
0.027362777
-0.0723666
-0.029738221
-0.04972136
-0.07739782
-0.058489636
0.16309704
0.12901834
0.017070707
0.13215849
0.07358093
0.054285023
0.12782107
0.16011384
0.034903772
0.10664377
0.046725865
-0.029637145
0.117177
0.042475503
0.119564466
0.031896573
0.10433204
0.08728406
0.088470325
0.08512845
0.10001513
0.039180122
0.070463955
0.1201942
0.058124505
0.016874397
0.05456141
0.13892624
-0.0036658677
0.07117216
0.11602319
-0.036149453
0.119554654
0.054717164
0.012728229
0.0608301
-0.023398085
-0.020265462
0.054683827
-0.0111056175
-0.0060199415
0.115531206
0.10440775
0.021953067
0.101287216
0.013947765
0.0010195216
0.057113342
-0.01668356
0.1106963
0.05547592
-0.028026205
0.04692852
0.02028752
0.16583116
0.028465468
0.16600241
0.024570268
0.08314079
0.096660964
0.096294746
0.031363755
0.18361937
0.16545051
-0.0057130433
0.07080961
0.19192724
0.031905156
0.022489559
0.03570135
0.08030649
0.12000836
0.12478547
-0.027113935
-0.012565483
0.03717877
0.08075936
0.1436549
0.052417338
0.055398952
0.115317546
0.11203392
0.028217657
0.09672677
0.08312744
0.091225244
0.05628771
0.12716788
0.18799287
0.13742594
0.104173265
0.16024533
0.105724216
0.1007549
0.022590581
0.17030211
-0.018963935
0.115552425
-0.009081974
0.123294026
0.038903713
-0.02510491
0.14238799
0.1259863
-0.013811908
0.029472364
0.17779854
0.10927026
0.15368676
0.107329115
0.098128855
0.15798791
0.08309833
0.081009574
0.0029673092
0.1430298
0.07376794
0.1239431
0.09230323
0.10010546
0.16121222
0.13915952
0.073210746
0.15152974
0.12728016
-0.002249004
0.022474945
0.16350396
0.09824648
0.15828606
0.13760862
-0.0021725055
0.115560256
0.096461385
0.040229715
0.12927884
0.20400381
0.09530288
0.13755694
0.18303366
0.22166364
0.11735554
0.12592965
0.14048684
0.17553777
0.16140449
0.008553892
0.006922999
0.15546885
0.08923189
0.11115818
0.07951981
0.020595469
-0.06506004
0.06270741
-0.07199655
0.07869801
-0.05953706
0.0063321735
0.04149894
0.00799199
0.0641494
0.027865529
0.012346691
0.074380726
0.09340777
0.15437034
-0.010434929
0.15428832
0.085633256
0.14710931
0.11819202
0.037866503
0.12340346
0.12005273
0.12195203
0.016320802
0.031343736
0.104987025
0.05220263
0.13483635
0.14242001
0.09798131
0.0048174052
0.0076587903
0.038341258
0.0731811
0.0031379678
0.08947433
0.0008494689
-0.12933117
-0.0318552
-0.020542393
-0.012537568
-0.06699146
-0.07588804
0.0146141155
-0.048201982
0.03670571
-0.09210454
-0.08994574
-0.09655499
0.04642279
-0.1260457
-0.001958916
0.07625946
-0.09571246
-0.055429332
-0.095276006
0.03519782
-0.022353668
-0.11084366
0.030769208
-0.009592771
0.0065174657
-0.048534982
0.15123883
-0.03217351
0.16739175
0.1430325
0.063651495
0.10260552
0.11284818
-0.019248473
0.14510565
0.1453829
0.025904398
0.11937643
0.12026117
0.07390746
0.01630205
-0.020012721
0.0891909
-0.01857945
0.096758164
0.1465927
0.123044685
0.053009227
-0.02071914
0.102213845
0.079888165
-0.029306289
0.15739477
-0.01461755
-0.050793607
-0.06727543
-0.13010782
0.0212564
0.029775074
-0.068953104
-0.11467082
-0.06679883
-0.094704516
-0.08818053
-0.08340332
0.029304096
-0.15121257
-0.06571587
-0.07702257
0.010227167
-0.12489592
-0.11298334
-0.08244244
-0.0065721516
0.012445506
-0.047501814
-0.14002255
-0.003256345
-0.0750778
-0.005564419
0.06247878
0.09458638
0.13842252
0.11593412
0.1835886
0.06326024
0.16724111
0.023097085
0.049819414
0.11637483
0.14252028
0.109389246
0.11306205
0.008220704
-0.008917751
0.18125556
0.12680891
0.15796019
0.14562564
0.13628739
0.15598464
0.047349412
0.12456056
0.03475506
0.100565046
0.13406336
0.12448859
0.086655386
0.046693984
-0.010395751
0.039126087
0.12860619
0.072352186
-0.040311527
0.14482239
0.12980098
-0.014786952
0.08900638
0.0774073
-0.025164567
0.11881707
-0.041607905
0.07502345
0.034500867
0.09176419
0.0904109
0.13111909
0.1297537
0.021075862
0.051810678
0.042840164
-0.02488774
0.09115011
-0.06045194
-0.037812375
-0.11132986
-0.08942977
-0.12862837
0.060918503
-0.10905828
-0.06618002
-0.102421895
-0.12551221
-0.10992833
-0.0971567
0.011701247
-0.12001116
0.010749859
-0.05462186
0.06186621
-0.065031566
-0.024005862
-0.10414837
-0.024555087
-0.123517975
0.030730324
0.0501671
-0.034763917
0.002165249
-0.07674254
0.017487684
-0.07431772
-0.12704267
0.06483604
-0.06367794
-0.031078175
-0.09643675
-0.059768572
-0.036486357
-0.10119649
-0.05857209
-0.10033576
-0.12020402
0.04788861
-0.123711966
0.036985442
0.05307036
-0.036875058
-0.09728289
0.03661501
-0.09276408
0.06433728
0.04184588
0.05585291
0.0022640908
-0.020874877
-0.012579216
-0.048548993
-0.01070571
0.08483829
0.071619615
0.0872644
0.06068815
0.1003159
0.15341139
0.094247885
0.16417676
0.007933687
0.066638805
0.11598209
0.08967064
0.07756109
0.14091882
-0.03167245
0.05929875
0.1763228
0.15670496
0.09194074
0.1459131
0.11439164
0.12103536
0.08563589
0.07990251
-0.020297257
0.12961267
0.17719468
0.12078906
0.114368185
0.10012592
0.03836488
0.08876873
0.15485941
0.031899493
0.16237327
0.10863132
0.15008484
0.14242679
-0.021228282
0.051085766
0.18320292
0.014293708
0.07487194
0.19138025
0.06276588
0.04345405
0.17565696
0.07486381
0.15417334
0.0400932
-0.0076193167
0.075636886
0.017322933
0.0776852
0.14511533
-0.0057862024
0.02498523
0.012447629
0.14339189
0.1079445
-0.010389408
0.07438294
0.043681804
-0.022114424
0.09774108
0.0108585935
0.15343836
0.10302214
0.06546683
-0.046344128
-0.037503976
-0.0532063
0.035272524
-0.029067842
-0.033911098
0.09463944
-0.013420627
0.11383646
0.10705571
-0.052625366
0.16013262
0.16201454
0.07318211
0.03124026
0.053215034
0.09983244
0.17426667
0.16220321
0.13980518
0.119117804
0.17798384
0.09125018
0.119580165
0.014850815
0.047526263
0.10698058
0.14919108
0.00031413842
0.08589237
0.13389136
-0.018622044
0.021669539
0.14449717
0.0065092393
0.07874954
0.16218759
0.03389858
-0.023291705
-0.013209347
0.03249838
0.07268644
0.091583036
0.17359804
0.10837828
0.0723757
-0.0007847777
0.08222714
0.14156605
0.15901798
0.11731871
0.07757678
0.1062906
0.116062306
0.019158667
0.09341225
0.12337317
0.026496457
0.045095775
0.015433698
0.11252266
0.15682517
0.12524955
-0.0345532
0.14539729
0.17028566
-0.0005307065
0.08298574
-0.00981362
0.13065776
0.12958108
0.119638234
0.17887914
0.17481886
0.10473375
0.050216414
0.011841985
0.18132356
0.054390486
0.06514662
0.06764389
0.047737762
0.047086082
-0.012158768
0.16518904
0.076167226
0.16715671
0.14721423
0.0035845235
0.15030634
0.06362082
-0.00947379
-0.112235025
-0.108722314
-0.13768122
-0.038569298
-0.065103725
0.038167447
-0.035105404
-0.040799
-0.06557019
0.07232517
0.0037834714
-0.07441645
-0.03495438
0.07125882
-0.07711363
-0.007951586
-0.072749116
-0.0729539
0.011034602
0.068157
-0.09451788
-0.067796595
0.09886888
0.04603345
-0.0045015253
0.07556344
-0.06338102
0.14151402
0.028473955
0.076821744
0.108751945
-0.0053343186
0.053839855
0.10940116
-0.027994227
0.104562715
0.11290621
-0.051167294
-0.0011084806
0.14289072
0.10488522
0.02643041
0.07838977
0.03778398
0.11903726
0.045344125
0.026637053
0.07206129
0.034048755
0.071929276
-0.009587145
0.03505041
0.045874935
0.12348883
0.16655205
-0.0039327014
0.40463674
-0.11881899
-0.017458325
0.32447046
-0.057535913
0.10857635
0.13328135
0.23906966
0.66507393
0.5576012
0.25470462
0.5243551
0.45401844
0.28895265
0.49093702
0.3763383
-0.150128
-0.13733868
0.17593916
-0.05499864
-0.062367056
0.122489735
-0.07368375
0.058291808
0.13269347
0.08142714
0.03049077
0.13147874
0.11122864
0.14586465
0.099976644
0.09197431
0.045549117
0.083091594
-0.02274305
0.12817362
0.10597202
0.027054738
-0.00240394
0.062682286
0.033488806
0.046986874
0.043181814
-0.02976351
0.10727417
0.11698443
0.06621531
0.11923571
0.1193594
0.112701304
0.024787446
0.10916455
-0.10271002
-0.09986398
-0.08955567
-0.10168197
0.03215013
-0.08674764
0.056353252
-0.11203688
0.037004117
-0.1277467
-0.07864543
-0.10220068
0.077245735
0.039247088
-0.059655838
-0.08724651
0.050391737
-0.06418449
-0.02497377
-0.08267622
-0.064671054
-0.042221293
-0.0396645
-0.07632394
0.05838036
0.055872872
-0.007044803
0.13065928
0.10107003
0.06156657
0.10601988
0.13625169
0.13996443
0.1474357
0.15472142
0.026261143
0.11839118
0.037647232
-0.0053789327
0.03824033
0.046155248
0.09759685
0.12920621
0.09961024
0.108009644
0.052561395
0.12755862
-0.025863038
0.0030287616
0.11114302
0.14883225
0.051667504
0.05383846
0.11632188
-0.07651504
-0.116715826
-0.102480546
-0.037401542
0.008732135
-0.12154867
-0.18684967
0.028136563
-0.16284174
-0.07888253
0.049053177
-0.071177766
-0.09963655
-0.05378879
-0.060698524
-0.113158725
-0.015865145
-0.16448244
-0.15869972
0.0294306
-0.0050419024
-0.07368045
-0.122657456
-0.14230281
-0.14937185
-0.17562285
-0.15982145
0.15470341
0.108757004
0.046783913
0.17729928
0.13136357
0.16747448
0.055918574
0.12976684
0.037086073
0.15378296
0.030352235
0.11229935
0.12685992
0.096463606
0.1548443
0.01366078
0.02790294
0.09168953
0.08333192
-0.025047245
0.105335474
0.12777328
0.14644216
0.15519337
0.09974685
0.033919677
0.17572111
-0.023760913
0.03693802
0.10385006
0.13879313
0.078082874
0.112529226
0.085727304
0.09814373
0.07171937
0.15207687
0.07286008
0.056936294
-0.01528448
0.052011203
0.13256258
0.031220125
0.16815428
0.16556408
-0.030852491
-0.0028036775
0.027696386
0.09476494
0.0069579175
0.16702616
0.11859439
0.13668494
0.15262093
0.0851661
0.1686907
-0.008643941
0.1196357
0.13081676
0.06399221
-0.019018691
0.010182151
0.1507502
0.07043681
0.14251229
0.08407009
0.08757307
0.09581317
-0.029356157
0.12032621
0.06575901
0.07250014
-0.029323297
0.1242801
0.108396515
0.09484376
0.027603606
0.059338775
0.1186462
-0.024969174
0.14487952
0.0808528
0.10779302
0.016903337
0.13384312
0.03703849
0.16255781
0.10985104
0.018379627
0.1989746
-0.010463483
0.003627342
0.03945113
0.043531224
0.018892014
0.13220324
0.018285668
0.07598622
0.18133724
-0.045791518
0.036104355
0.024733841
0.118465036
0.016381849
0.061103728
-0.062407922
0.048737578
0.117973894
0.15051237
-0.0027747331
0.13798678
0.004512063
0.1773884
0.18898505
0.0001460935
0.07194278
0.016663812
0.1187498
0.09426075
-0.009320818
0.11271898
0.17199875
0.071174495
0.122866146
0.026497042
0.006155549
0.017248861
0.08037907
0.16496083
0.07866481
0.17618097
0.006240026
0.07889768
0.117251515
0.15509512
Key: /conv2d_31/conv2d_31/bias:0, Shape: (96,)
0.034759294
-0.055552345
0.08491082
0.08315956
-0.030522097
-0.051951386
0.08406408
0.08668819
0.08743856
-0.05963607
0.06875323
-0.18363778
0.076012395
0.08408163
0.08554042
-0.05959663
-0.059895106
-0.059700657
-0.05977229
0.081705496
-0.059896555
-0.06491003
0.08411235
0.06475239
-0.059530515
0.09047145
-0.059814975
0.074974135
0.068446614
-0.06303905
-0.05979132
-0.08230611
-0.059773725
0.08655011
0.08348249
-0.059679385
0.08036873
0.06614683
0.08004971
0.08469374
-0.059613302
-0.018789692
0.08370932
-0.059926126
0.087602295
0.084719904
-0.05946886
0.08387917
0.032693014
0.08486937
-0.067347564
-0.061739944
0.08012049
-0.06518204
-0.0664814
0.067368224
-0.045807153
0.08731683
0.080992796
0.08728166
-0.059805308
0.07636274
0.08132684
0.08520772
0.063285016
0.093813255
0.087365516
0.07918077
-0.058945574
0.08418411
0.07956845
0.08677924
0.07772494
-0.05981448
0.06108552
-0.059948534
-0.012387841
0.08435391
0.07784329
-0.05993699
0.08432283
0.081910186
-0.04368367
0.06832454
-0.05981662
0.07278397
0.05273906
0.044307165
-0.046437636
-0.06066236
-0.023082655
-0.059848856
0.08800535
0.07937161
-0.03648159
0.08345881
Key: /conv2d_31/conv2d_31/kernel:0, Shape: (96, 64, 3, 3)
-0.067794755
-0.054134663
-0.053136807
-0.0405846
-0.010449942
-0.07250958
0.00026636815
0.013269206
-0.022232132
0.032916512
-0.07700836
-0.029817337
-0.049397517
-0.106898695
-0.024309866
0.014195348
-0.05176131
0.006840013
-0.055691678
0.035686873
0.05396404
-0.004957486
-0.059955038
-0.029971879
-0.048902966
-0.006645508
-0.042415973
-0.055191785
0.0023076448
-0.024482276
-0.029680924
-0.0545579
0.0044923057
-0.020150997
-0.015763406
-0.0035073028
-0.067330696
-0.06405382
-0.009172737
-0.06961209
-0.1174416
-0.10568143
-0.04755126
-0.092843935
-0.05954221
-0.032856274
0.02647382
0.001315863
-0.028150665
-0.020440916
-0.06859464
-0.038953546
0.031232739
-0.008747182
0.09717065
0.03778978
-0.040163234
-0.054295104
-0.007266382
0.026254697
-0.037340842
0.05654784
-0.0019087788
0.023878282
-0.011456085
-0.044401154
-0.017469626
-0.073496975
0.008523217
-0.026363157
0.018580198
-0.014213087
-0.04388225
0.027275609
-0.06336397
0.059804756
-0.08372489
-0.10661505
0.012263786
-0.05123174
-0.0699396
-0.113127984
-0.111364484
-0.06777373
0.010600409
-0.074347526
-0.0042484114
-0.031854436
0.021561505
0.068500064
-0.05718487
0.028486816
-0.04047363
-0.062147822
-0.052064475
-0.049575604
0.043278098
-0.042799708
-0.014329007
0.026705291
-0.07329544
-0.049719788
0.013537398
-0.02780302
-0.05839087
-0.015173597
-0.013671915
0.026995014
0.06269358
-0.066355236
-0.028344253
-0.07938536
0.009950776
0.010031546
-0.04323843
-0.0032523714
-0.029446034
-0.011137085
-0.067192964
0.012940199
-0.01917381
-0.06613059
-0.09056479
0.0075123566
0.014982513
-0.06526805
-0.06899946
-0.044511385
-0.025866486
-0.05051143
-0.0867373
-0.044675417
-0.01369968
-0.033623334
0.021675527
-0.045946993
-0.050132927
-0.05867133
-0.0061563356
-0.038212366
-0.0011629196
-0.05925079
0.040428355
-0.00986592
-0.10724895
-0.016756738
-0.015096119
-0.06352725
-0.09134503
-0.06805543
-0.060238853
-0.05238366
-0.08495139
0.051628202
0.00093421707
0.046828415
-0.037698008
0.0005056162
-0.04852758
0.01398292
-0.036823366
-0.061357167
0.0026926093
-0.0238779
-0.02342792
0.042547055
-0.072735876
-0.06334126
-0.0029595115
-0.030094737
0.04531433
0.08163675
-0.013443077
-0.02959747
0.016312936
-0.08640086
-0.07628568
0.02909492
-0.0445406
0.020991886
0.021707043
0.0409736
-0.03183709
0.008244243
-0.004904806
-0.07962171
-0.05337538
0.0096901925
-0.09022358
-0.031310756
-0.014954467
-0.0025511056
0.05674615
0.032170337
-0.046657674
-0.06550789
-0.01518752
-0.016732382
0.053104762
-0.009510649
0.026386095
-0.017050551
-0.015989756
-0.007321152
-0.013550472
-0.036206543
-0.027231665
0.054305226
-0.0468789
-0.013116748
0.0067633376
-0.031395577
-0.09817977
-0.06155403
0.017395524
-0.059253722
-0.050410885
0.031953953
-0.0643338
0.052024547
-0.024094576
0.035384476
-0.046611052
0.060896065
-0.06791551
-0.10869356
-0.067061156
-0.06881868
-0.026585108
-0.09803948
-0.0068771043
-0.07751518
-0.022793999
-0.037207283
-0.12544733
-0.054414626
-0.10836126
-0.038010523
-0.044025823
0.0059162728
-0.07204344
0.014527035
0.0052480036
-0.07429952
-0.01672839
-0.098083526
-0.100954264
-0.007799243
-0.04638531
0.014655828
-0.105503246
-0.06642399
-0.087378524
-0.10124162
-0.059424914
-0.051210653
-0.03659778
-0.020713016
0.027586725
-0.045119002
0.03601694
-0.005143208
0.04708978
-0.08025127
0.025485845
-0.042428058
-0.061310764
-0.032949254
-0.0638309
-0.03658411
0.08277534
0.056539737
-0.03386198
-0.034019362
-0.024357757
-0.053322732
-0.008400192
0.00973114
-0.059654124
0.024151023
0.0055740024
0.025563959
0.008450072
-0.025728647
0.021663835
0.023931442
0.029675059
-0.03893173
0.004276807
-0.1119058
-0.100521065
-0.008909044
-0.017171832
-0.08158754
0.028230485
-0.10694292
-0.06535444
-0.026106782
0.041030213
-0.05952614
0.03319399
-0.039395798
-0.09830627
-0.014714164
-0.0066583916
0.016002392
-0.009298405
-0.14026546
-0.008429827
-0.044848748
0.0022494728
-0.05741281
0.025544237
0.027989015
-0.051984075
-0.08166852
-0.1487222
-0.084520206
-0.03418585
-0.07664742
-0.00029120213
-0.052636802
-0.08321134
0.02019404
-0.005388758
-0.14118345
-0.09087109
-0.024719257
-0.03506322
-0.09045581
-0.057383686
-0.096749775
0.0031970101
-0.09366208
-0.0033532178
-0.061985746
0.09511205
-0.021733027
-0.06667168
-0.04893151
0.033878222
-0.01418139
-0.012791369
-0.031029118
-0.04623666
-0.111136094
-0.116190575
-0.027357318
-0.02282654
-0.053079195
0.0036394822
0.061144765
-0.030952
-0.0063519897
-0.0123931365
0.0070398645
-0.058255933
0.012740682
0.06234198
0.054862708
0.037530765
-0.10612446
-0.031082628
-0.054453406
-0.015614221
-0.047383193
-0.028109634
-0.0042786077
-0.032835342
0.014433004
0.020858267
-0.05753053
0.023050655
0.04007176
-0.0740645
0.049309872
-0.0017557114
0.062694095
-0.06839932
-0.13883229
-0.076867595
-0.052313194
-0.11803119
-0.09290675
-0.09087163
-0.12206964
-0.06143311
-0.06043982
-0.12688632
-0.017412454
-0.004042985
-0.074464165
-0.030748557
-0.043065697
-0.06044804
-0.04029148
0.051300123
-0.0053342115
0.0014626934
0.0008525066
0.058934025
0.025577424
-0.05444776
-0.04423084
-0.011219983
0.041887067
0.055289526
0.030527446
-0.004259331
-0.028329007
-0.04984022
0.016781226
-0.04700247
-0.08559533
-0.029230885
-0.059238963
-0.060175024
-0.09269611
-0.060303666
-0.06104403
-0.03924673
-0.07900402
-0.010973946
-0.043588765
-0.12071238
-0.055667546
-0.0073177624
0.0036160469
-0.044669
-0.036316995
0.011554091
-0.09953602
0.011385033
-0.02920312
-0.001811226
0.020648863
0.018561326
-0.04951317
0.057662066
0.05262027
0.029590186
-0.030663263
-0.104405776
-0.114450365
0.0024031769
-0.074415326
-0.07946077
-0.06348919
-0.06820594
-0.045501664
-0.1204508
-0.092898645
-0.11770415
-0.07940007
-0.05940044
-0.032807756
-0.07646647
-0.07847864
-0.03611462
-0.013217496
-0.070410065
-0.103111215
0.017670954
-0.11306139
-0.09766619
-0.0013332505
-0.00020455821
0.008337249
0.07592907
-0.0013913399
0.012611696
0.061288904
-0.04842002
-0.045881286
0.009306299
0.010965945
0.03653441
0.046515085
-0.07226557
0.007017548
0.03410442
-0.0631544
-0.07398373
-0.079033755
-0.03174777
0.00061725144
-0.10706283
-0.08023468
-0.03931362
-0.048167612
-0.06686311
-0.030233433
-0.023275794
-0.030792102
0.058680687
-0.106616296
-0.04842093
0.058225185
-0.03170401
-0.012461252
-0.032075837
-0.003008406
0.004507547
-0.036710665
0.074427664
-0.009364375
-0.06961492
0.052217774
-0.053127866
-0.03485249
0.028018735
0.048488196
0.007889243
-0.09770263
-0.09865976
0.0019939097
-0.087948814
-0.01933982
-0.097527295
0.0073459535
-0.0018503992
0.0006605259
0.034167733
-0.020332025
0.04595943
0.0032997879
-0.034432255
-0.06574735
0.021459598
-0.03894615
-0.031725064
0.015846968
-0.08889491
-0.08913484
-0.025043223
-0.020981615
-0.012546323
-0.053014476
-0.00010855227
-0.08996537
0.008835325
-0.010976935
-0.09523191
-0.082866095
0.0033722296
-0.11399286
-0.01770452
-0.09095265
0.022099359
-0.0034995466
-0.014875284
-0.08884084
0.07842073
-0.049799655
-0.058747023
0.0070404923
-0.065042265
-0.0790006
0.030157013
-0.12345806
-0.078513466
0.002244245
-0.010248954
0.0012441457
-0.07464001
-0.060342103
-0.020162247
-0.112895206
-0.032989375
-0.039926525
0.029040504
-0.04701641
-0.026288519
0.044417076
-0.091504104
-0.09845218
-0.077504605
0.028184129
0.09929303
-0.030566957
-0.08508734
0.025637481
0.09942139
-0.020406462
-0.0031427343
0.0087024635
-0.08188784
-0.0127582345
-0.105224006
-0.016485311
-0.100716114
0.040041003
-0.013379146
-0.056057528
0.0011337381
0.007837594
0.056562945
-0.020688735
0.035749182
-0.043950696
0.002182819
0.02739212
0.024254084
-0.0049406914
0.014952087
0.04498489
-0.053423468
0.018613318
0.02338085
0.043637436
0.021595582
0.04399662
0.027286407
0.016620915
0.08066695
-0.012565305
-0.08691319
-0.074290246
0.007215448
-0.055164624
-0.023986988
-0.03484446
-0.055162843
-0.009009184
0.013525742
-0.037594035
-0.08866599
0.0076191034
0.058750764
0.0139206145
-0.06577518
0.046276476
0.0028997278
0.036521595
0.06744617
-0.037270058
0.00023267878
0.09723587
0.06968614
-0.10390196
0.11006817
0.095166676
-0.060385413
-0.09737525
-0.041822474
0.023198344
0.037645068
-0.04338992
-0.04340054
-0.016762389
-0.052534595
-0.010397587
-0.019394396
-0.014366148
-0.001900201
0.008929152
-0.073228
-0.0043717376
-0.029109918
0.076035365
-0.07751462
0.011784206
-0.044819746
0.025011305
0.09839692
0.067743644
0.003822081
0.024820298
0.025082044
0.009380051
-0.044506963
-0.07224007
-0.013207887
0.009976652
-0.053821597
0.014849499
0.053285338
-0.0053163893
-0.026036289
0.014685972
-0.012961148
0.08324354
0.06550711
-0.0343682
0.034056153
-0.0153609915
0.07254845
-0.0063538
0.014871945
0.024660239
-0.019183729
0.05499968
0.028768275
-0.04037812
-0.08229665
0.023271602
-0.04833504
-0.037086964
0.029447304
0.072867095
-0.045031562
-0.028943963
-0.024459178
0.03305581
0.07237654
-0.0074890177
0.031856507
-0.035488714
0.0074056373
0.06675975
-0.0060344967
-0.005360508
0.0020765532
0.056221258
0.0071848244
-0.039814044
0.042967174
0.065915704
-0.026568776
-0.020595377
0.01706711
0.10102988
0.051910527
-0.06846518
0.003549225
-0.03369537
0.103938915
-0.09407141
-0.00071333145
0.0013620201
0.0062274304
0.009285884
0.0701452
0.02927198
-0.028086174
0.014988684
-0.037961595
0.032142684
-0.08284731
0.027403178
0.056805465
-0.050419487
-0.014832736
-0.077391975
0.10162618
0.017027162
-0.022594227
-0.032055706
-0.08288661
0.018194176
0.0060244724
0.022835903
0.006505883
-0.08450513
0.05064807
-0.025183847
0.0011711412
-0.015900234
0.10354299
0.02936377
-0.05991531
0.014421408
-0.04388929
0.05846594
-0.08021024
-0.038696945
-0.014575879
0.021431468
-0.057554983
0.021867622
0.0054040044
0.02602949
0.045858506
0.051618565
0.0070397398
-0.0006395496
0.002507038
-0.058466814
-0.0138224885
0.008198202
0.01107147
-0.042782977
-0.014522026
0.03980205
-0.029011142
0.12968284
-0.031933602
-0.03245954
-0.08927822
-0.1001495
-0.020549806
0.023672184
-0.0009982166
0.029501786
0.06616623
0.0514703
-0.0021694708
-0.006644842
0.07232523
0.006379064
-0.031762697
-0.052110475
0.072075404
0.056296416
-0.0045978837
-0.050081175
-0.025591683
-0.033820186
-0.059274577
0.09542618
0.010818316
0.047537014
0.062124494
-0.017794924
-0.074690625
-0.012005428
0.06513333
0.056323383
-0.011724802
-0.039380647
0.09231686
0.0698485
-0.029499797
-0.05634686
0.00954499
0.009256127
-0.046260722
0.018022288
-0.034720056
0.017530866
0.09754762
-0.014601122
-0.067401305
-0.02234934
-0.08029674
0.026604928
-0.022923494
-2.1635358e-05
-0.042234212
-0.042454086
-0.09973514
-0.04056705
-0.065635964
-0.061304547
-0.018441565
-0.07721254
0.0056928513
0.027003575
0.1086346
-0.07245201
0.01976774
0.045038808
0.0792992
0.047394767
0.057445593
-0.051122427
-0.052206937
0.0009924384
-0.059184957
-0.03525338
-0.054089352
-0.028815467
0.077152744
0.016289663
0.006505862
0.07152414
0.026744287
-0.07718778
-0.10150132
-0.0952512
-0.023364965
-0.08076722
0.021875385
-0.010222992
-0.033684257
-0.023827102
0.008611065
0.0038469415
-0.05446035
-0.008825282
0.083919086
-0.072275415
-0.03337711
-0.0916967
0.06669789
-0.029360905
-0.0024141225
-0.036925398
0.032478143
-0.0018880671
0.059859253
-0.0031368418
0.008190592
0.09650113
-0.01550577
-0.02104376
0.03142878
0.017370934
-0.03145703
-0.07548534
0.027786788
0.0902865
0.101966746
-0.091594055
0.006846767
-0.08877253
-0.07698811
0.0015617355
-0.050460592
0.013221745
0.010175656
0.054441806
-0.09790971
0.06266645
-0.073089264
-0.042622466
0.0928901
-0.08895013
-0.019089486
0.07511593
0.017524196
0.0027686588
-0.0044241063
-0.023899838
-0.032830585
-0.070199564
-0.08165271
0.03855091
-0.060398296
-0.0057436684
-0.08077252
0.05801748
-0.05574062
-0.030514453
-0.045073636
-0.052900556
0.04009018
0.03742476
0.039970864
-0.06070024
-0.08841413
-0.017007312
-0.09117899
0.0029977628
0.0131380325
0.052015826
-0.044438455
0.030856062
0.049427684
0.02355752
-0.07219881
0.0061807167
0.0754875
-0.058625925
-0.076126345
0.09442808
0.11759842
-0.10948259
0.0069505875
-0.1026871
-0.016816838
-0.039779242
-0.089348815
-0.009049896
0.0056613144
0.05882802
-0.070216775
0.05106675
-0.03473041
0.026442524
-0.018954787
-0.014144648
0.01760215
0.0107567115
0.045191545
-0.062727325
-0.019487867
-0.046516158
0.028138436
-0.058194228
-0.010158563
-0.0007214901
-0.08071962
-0.047048874
-0.073488615
0.01088588
-0.087846786
-0.03808626
0.09228504
-0.035055403
0.01885452
0.044356648
0.088301435
0.011693519
-0.021371199
0.020959998
-0.016101407
0.022305127
-0.064219944
0.07613584
0.07185576
0.054625873
-0.054807268
-0.027195696
-0.025690952
-0.06578223
0.021616174
0.07181219
-0.09804063
-0.0088206455
-0.012552368
-0.054895286
-0.071271196
0.0006083289
-0.06618479
0.028114961
-0.0069154357
-0.10038961
0.11673692
0.034821868
-0.00759604
-0.004932681
-0.054993335
0.0069825645
0.04474904
0.02823576
-0.0211363
0.050990608
0.027573194
-0.108346455
-0.0035583945
-0.078951724
-0.021050265
0.039596274
-0.06119352
0.003219636
0.016268997
0.016778441
0.017279545
0.009919971
-0.006649638
-0.024713121
0.0035768962
0.017550943
-0.017817216
-0.036381043
0.027413791
0.012150786
-0.07517662
0.04529715
-0.014953841
0.03667484
-0.01604405
0.015164918
-0.08337388
0.05275897
-0.10276537
-0.07520702
-0.078534976
-0.061737493
-0.01618885
-0.019675797
0.020853441
0.13368481
0.148169
0.029059462
-0.0028563065
0.02048896
0.05629733
-0.054793667
0.06722586
-0.07390307
0.1202946
0.12049214
-0.06821103
0.03422262
0.011401917
0.0025978491
0.025679044
-0.04211509
-0.01499855
0.03479721
-0.066922866
-0.08251754
0.0153230075
-0.0807779
0.093883306
0.050481122
-0.031636927
-0.045934405
0.042594407
0.010553084
-0.02339351
-0.0046366286
-0.064882345
-0.010043418
-0.038845137
0.01762932
-0.020567322
0.06913651
-0.03362922
0.039542202
-0.02903023
-0.04787442
-0.05249819
0.1001709
-0.019345447
-0.017168902
-0.08587406
0.09996012
0.032033205
-0.074175715
0.015124415
0.06223637
-0.07455969
0.016223466
-0.08865365
0.11517729
0.0031522932
-0.04554655
0.009719267
-0.03561617
0.11326126
0.024595685
-0.047308795
-0.038117297
0.12581974
0.09702555
-0.025359973
0.0420799
-0.09564585
-0.1002684
0.030848904
-0.09938342
-0.062362745
-0.061594
0.04608055
-0.007382302
0.02698101
0.0036000283
0.08725548
-0.024408191
-0.042941246
-0.090805694
0.05845939
0.10105233
-0.017816775
-0.05586914
-0.003109873
0.050520428
0.07008027
-0.018748416
0.06814128
0.06342962
0.14411363
0.10431385
0.10174582
0.029294338
0.12614292
0.124613956
0.05679575
0.06945694
0.117857024
0.037365228
-0.014943445
0.051981937
0.026502006
0.11427316
0.032114845
0.051228337
-0.005518103
0.0511157
-0.062470682
-0.058254518
0.006767137
0.057812113
0.047320485
0.054044146
-0.010809079
0.012409597
-0.049764097
-0.036665473
0.053924527
0.058610357
-0.0013744326
-0.045648027
-0.04682928
-0.028616348
0.019271743
0.11758894
0.1340823
0.11850107
0.048623953
0.01801519
0.11411822
0.021361446
0.04349798
0.009944777
-0.001609881
0.032944605
-0.003390954
-0.008926993
0.0124477465
0.059411254
0.041657824
0.040066272
-0.0153760845
-0.06261008
-0.010392265
0.0263331
-0.104622
-0.055648994
-0.07355559
-0.10173128
-0.013142234
0.051528316
-0.07436061
0.057823397
0.04250208
0.062171068
0.013480187
-0.017434668
0.050141037
0.051355414
-0.0069026877
-0.067090414
-0.054526154
-0.052548308
-0.10409478
0.0052815955
-0.035614867
0.031201536
0.09340914
0.044386387
0.1061051
0.1382032
0.072130084
0.08714474
0.0941634
0.06112792
0.07535014
0.086753875
0.07890185
0.057229947
0.06736148
0.07679217
0.030349161
0.08587173
0.054034688
-0.0074463063
0.092526615
-0.07494542
0.006579922
0.04191161
-0.10867392
0.028873377
0.007249848
0.007363614
-0.017316476
-0.059562583
0.08483459
0.019990737
-0.056459017
-0.028496675
-0.047777016
-0.01905848
0.03253508
0.010641559
-0.029248614
0.09654508
0.047132466
0.036830686
0.10922865
0.07489376
-0.022361528
0.086241186
0.081907816
0.13520566
0.0162779
0.11538017
0.09944782
-0.11495504
-0.13696572
0.08131941
-0.0027347037
0.058678526
-0.016189089
0.07803075
0.02308802
-0.008087882
0.1059505
0.05375559
0.08398771
0.028948823
-0.0059571727
0.025153475
0.08493112
0.047013056
0.08948544
0.049560875
0.10924913
0.045437004
0.09638177
0.06506588
0.118816845
-0.08811208
-0.023751719
-0.08370595
-0.035142053
0.0012919626
-0.11279291
-0.08394877
0.010186327
-0.088052884
0.047082208
-0.0211863
0.111449905
-0.0015127319
0.0028466834
0.017075723
0.072969146
0.032112904
0.005547563
0.10332111
0.077694595
0.10456118
-0.009058133
0.09605094
0.10262497
-0.010261108
0.06809166
0.02630426
-0.01950077
0.0243233
0.10103312
0.018044425
-0.02597801
0.062059466
0.066110216
0.044463955
0.0731483
0.0655882
0.08520307
0.085562
0.052872602
0.08207179
0.030495778
0.046728615
0.055819396
0.10990796
0.033587117
0.020765577
0.06665554
0.06267888
-0.034770638
-0.009139211
-0.0016360675
-0.017485537
0.07092136
0.02293869
0.03420057
0.03926918
0.01041039
0.05642938
0.010335667
0.11435616
0.13003546
0.12569743
-0.014993178
0.06256686
0.07998123
-0.07284604
-0.013925625
-0.09652479
-0.013450269
-0.017775124
-0.019904248
0.03439701
0.06643356
0.14478847
0.11399466
0.10461124
0.019987714
0.10109027
0.1392966
0.11046837
0.10826727
0.123884216
0.09478558
0.061074264
0.054130666
0.09588209
0.050262243
0.03512408
0.027003625
0.05836037
0.019348139
0.11725121
0.017122215
0.12711932
0.1395251
0.026396323
0.1281793
0.043930724
0.119901635
0.106436804
0.13437775
0.03658156
0.08146832
0.06511843
0.13273649
0.10486823
0.14206935
-0.015186228
-0.04645393
0.03500145
-0.08684208
0.03422187
-0.059355646
-0.08560886
-0.053412583
-0.0374713
0.052725118
-0.017564904
0.1055144
0.04566649
-0.003466537
0.06524571
0.11827775
0.06898508
-0.010664847
0.027572766
0.10322712
0.08224771
0.023776239
0.088532105
0.06543361
0.03846291
0.115394875
0.03399711
0.0822189
0.11103383
0.12332464
0.05219735
0.05353188
0.04638519
0.04594377
0.04032474
0.12874019
0.093689114
0.0077006505
0.07484048
0.017257378
0.11588259
0.0031529446
0.031661443
0.09029849
0.017043639
0.063710555
0.048353992
0.055494722
0.037592135
0.02805012
0.08012558
0.06901334
0.07565174
0.026544517
0.11755844
0.13943934
0.08386181
0.11812892
0.10423032
0.03970617
0.119877756
0.12720336
0.1274715
0.119626276
0.09504375
0.07580988
0.0484718
0.12054573
0.0808431
0.11086548
0.070489705
0.069568716
-0.08708785
0.044092543
0.003855707
-0.08833638
0.03366132
0.08168971
-0.07265832
0.07772932
0.10047465
0.1067784
0.0690916
0.03795082
0.052290216
0.041773304
0.120724134
0.08303261
0.06066606
0.13012911
0.012754826
-0.024386436
0.025031311
-0.035232
0.06284534
-0.012700091
-0.029986078
-0.010812454
-0.020168431
0.040387634
0.11234787
0.04848732
0.12860747
0.11404111
0.06647546
0.11091465
0.043193642
0.05868274
0.059450105
-0.07842135
0.026053457
-0.008478669
0.02525548
-0.028647194
0.05620886
0.01101861
0.060746163
0.05854695
0.12123108
0.037113022
0.10206499
0.05491338
0.036448892
0.055774834
0.08466211
0.087978266
0.09826947
0.09232608
0.13016047
-0.01104892
0.08362203
0.093004115
0.055364713
0.008551135
0.010220914
0.043995958
-0.04191954
0.09758508
0.041690532
0.0370945
0.039230466
0.09575003
0.101824604
0.04347011
0.010732746
-0.01033222
0.069030054
0.07572429
0.013417446
0.12165624
0.027369542
0.029948914
0.038523804
0.0699945
0.1129294
0.12635443
0.023124004
0.10817785
0.07531052
0.08801119
0.144475
0.09343435
0.11271786
0.041824985
0.11602432
0.08655832
0.0642878
0.025186267
0.11837235
0.14394042
0.10978082
0.022859816
-0.013686156
-0.015521453
0.016719658
-0.03686612
-0.0057838997
0.04789441
-0.008723784
0.045131426
0.10099107
0.1065505
0.11653054
0.044110782
0.1318982
0.047634803
0.039928988
0.08681004
0.12134825
0.06964491
0.08185336
0.07073284
0.091971755
0.13457124
0.03520676
0.06021894
0.07481489
0.06288251
0.09826648
0.14144808
0.11539474
0.08163952
0.10563648
0.062496938
0.10337127
0.049809154
0.13080084
0.08426731
0.08916846
0.023985727
-0.04553647
-0.00059625215
0.07840534
0.010024938
0.017273743
0.03275943
0.11452103
0.076265514
0.0856637
0.067392044
0.08947972
0.07433916
0.07994685
0.007404842
0.032355808
0.24373683
0.23268376
0.2346271
-0.117232196
-0.009246678
0.098435126
0.08970704
0.15456465
0.13519967
0.04348717
0.08520201
0.025967658
0.041967344
0.04951904
0.03026768
0.07199177
0.09565521
0.082246326
0.08823296
0.03909661
0.1003047
0.027541542
0.118786804
-0.026386248
0.0693531
-0.022828037
0.012193355
0.047553763
0.08112749
0.11876454
0.0418151
0.025114832
0.14556305
0.023574652
0.04982275
0.1427926
0.029220596
0.083307594
0.018220102
0.100342385
0.016754048
0.111183934
0.12685122
0.1010997
0.1045607
0.050792705
0.06722408
0.109762646
0.1376104
0.05293722
0.120612115
0.08637892
0.14043784
0.101070374
0.06552103
0.01896634
0.10352182
0.12128042
0.03564017
0.13111006
0.12933685
0.10992154
0.0412813
0.08396582
0.13714172
0.08297935
0.01879886
0.13334888
0.11338818
0.030517835
0.09849971
0.028256832
0.042442232
0.11391361
0.12719743
0.07248424
0.011899982
0.02322814
0.11438996
0.1125295
0.02652077
0.06107396
0.101366825
0.10650644
0.047465976
0.07785983
0.077187665
0.019995563
0.07794688
0.09037717
0.049888168
0.011107268
0.055615924
0.079656996
0.05150163
0.07134149
0.014840078
0.021411724
0.09480337
0.016197912
-0.014279974
0.06909185
0.06023352
-0.012072197
0.05789441
0.05716895
-0.0011209799
0.1037151
0.020688837
-0.012061214
-0.044302817
-0.023200322
0.025972918
0.0048620063
-0.011162212
-0.034676228
-0.0353504
-0.035999853
-0.015007611
-0.05024919
-0.058498144
0.047767617
-0.054708637
0.04070975
0.04141267
0.06853682
0.014168123
0.1096061
0.009486735
0.009454789
0.09596849
0.024113156
0.109375305
0.057370953
0.066272065
-0.019540858
-0.004892223
0.06986447
0.033523865
0.0372401
0.08266683
-0.034364477
-0.0049948907
0.10259997
0.01260477
0.087281026
0.032800708
-0.060649183
-0.01857205
0.09556881
-0.027741289
0.027750364
0.083841346
-0.012495304
0.013552952
0.012521871
-0.050996702
-0.0021938991
0.07092233
0.07839855
-0.011721613
-0.023991937
0.015561904
-0.013714237
-0.007458846
-0.07586306
-0.04190263
-0.060287032
0.013486491
0.06556424
0.06501201
0.09272136
0.06349835
0.04561641
0.06463729
0.11969193
0.027720913
0.09491418
0.04112601
0.07300614
0.0364894
0.050817158
0.09369473
0.02746712
-0.0005229307
0.071319744
0.070660144
0.06545764
0.095609784
0.115756154
0.04908498
0.12105604
-0.012735388
-0.014607522
-0.015248701
-0.017569661
-0.08687134
-0.05463604
0.05176075
-0.035395835
-0.03560234
-0.051261038
0.009923156
-0.0049400926
0.03245106
-0.0057777944
-0.025877712
-0.04053358
0.103780955
0.059160415
0.04748463
0.026760118
-0.031601083
0.05108119
0.14009562
0.027703917
0.08463855
0.07524016
0.15819187
-0.24577771
-0.01712741
0.115442656
-0.0671732
0.0853059
0.0047608614
0.10174861
-0.010789665
0.06686467
-0.011843146
0.08803744
-0.005843304
0.077866286
0.091954604
0.008926326
0.011109307
0.114226945
0.06886756
0.07710453
0.06655353
0.025408866
0.018924657
0.11414121
0.0046282276
-0.04552521
-0.019256826
-0.051343746
-0.049149815
-0.053401574
0.041315444
0.00585838
-0.012389271
0.034763195
0.047380783
0.009600384
0.060172778
0.07546955
-0.024898907
-0.032779846
0.10572001
0.048116885
0.056343716
0.07748147
0.08031841
0.09999601
0.0126399705
0.0147078
0.08288979
0.10516349
0.074158244
0.065584525
-0.004335797
0.04956112
-0.012232718
0.03433736
-0.016037336
0.10687166
0.06612682
-0.008565582
0.06927973
0.0050197444
0.093145445
0.018799812
0.06607716
0.068907075
0.06537352
0.09676761
0.06086939
0.013769484
-0.02576476
-0.07221041
-0.03315993
0.017772302
-0.013613091
0.07599568
-0.08838659
0.07106855
-0.060645487
0.11102743
0.10195221
0.10720747
0.046692263
0.08282189
0.09985369
0.060826033
0.04877868
0.016908757
-0.07424114
-0.056359775
0.014696992
-0.059383053
-0.106424555
0.07735877
-0.024632333
0.0063338745
0.045176204
0.054562833
0.09202389
0.062061682
0.045297846
0.12398237
0.051233668
0.11009978
0.13992931
0.11712347
0.085318744
0.07192774
0.04278902
0.03138862
0.10262772
0.057285957
0.08532761
0.024927584
0.04337307
0.08529778
0.0065743905
0.0921362
0.03551927
0.07433443
0.065957695
0.112452745
0.117433324
0.03321018
0.03613276
0.052675765
0.12667736
0.014101146
0.0032459875
0.010930727
0.12781176
0.096457645
0.05511239
-0.10976857
0.014064496
-0.09076527
-0.06450865
0.022107616
0.031166703
0.013824168
-0.03577949
0.021380097
0.014927441
0.1328625
0.08855601
-0.01091409
-0.04683066
0.08839603
0.105095066
0.02971301
-0.10765135
0.07656132
0.026960917
0.022913612
0.05667729
0.10838048
0.11158211
0.042344525
0.10354296
0.014114838
0.111530036
0.08177804
0.02059113
0.05763245
0.041742783
0.12561382
0.018347109
0.013601172
0.061693244
-0.0024673305
-0.012531847
0.058552083
0.072727725
-0.020364575
0.073811464
0.09839712
0.076893866
0.031483334
0.06708108
0.10417217
0.116984434
0.07599634
0.067828
0.02659696
0.06742482
0.014561873
0.11585636
0.11943664
-0.010167404
0.06050459
0.057523087
0.05319463
0.019062389
0.088741615
0.02003164
0.028565893
0.0602588
0.0885669
0.030465093
0.11262434
0.08076281
0.0323994
0.11569489
0.10345834
0.077845074
-0.06544811
0.08071374
-0.0007755706
-0.1595862
-0.018053127
0.028011309
-0.06830922
0.053910464
-0.02579199
0.06718142
0.1001401
0.0031896974
0.012309145
0.098816186
0.016546093
0.119668715
0.030951945
0.047257654
0.06286211
0.013668169
0.10186037
-0.029923787
0.08185873
0.052441634
-0.026181454
0.052364584
-0.021045117
0.112195194
0.020407304
0.10044125
0.115764864
0.10265951
0.112357214
0.07442194
0.032306466
0.051260285
0.036599524
0.015945988
-0.06586141
-0.028803512
0.0057651224
-0.0045142747
0.08010721
-0.04066866
0.014268571
-0.0016401077
0.04605156
0.08675255
0.09683392
0.033498943
0.048796218
0.07051254
0.12962247
0.015407885
0.014669725
0.045110732
0.10844644
-0.018889837
-0.012786047
0.05318259
0.01786164
0.072097465
0.014670181
0.07857517
0.079010226
0.05007163
0.009077775
0.012049054
0.06886742
0.030481284
0.07667573
-0.0081344
0.14536007
0.09214004
0.043425456
0.047608867
0.13656919
0.1305838
0.071797445
0.042380452
0.09431602
0.09851047
0.027385285
0.04578903
0.04825931
0.005696327
0.02079112
0.09597724
0.12104448
0.035226587
-0.0055249627
0.028040782
0.09015315
0.017312752
0.025449034
0.07373826
0.10500362
0.019508956
0.041660544
0.02431217
-0.037924882
-0.033431683
0.029971298
-0.03213958
0.07761161
0.08747943
0.089105144
0.04342197
0.044508647
0.10882194
0.07709244
-0.0055511245
0.09643686
0.13099816
0.061872832
0.053630143
0.09025666
0.008061237
0.0032975276
0.10804799
0.030165225
0.11254455
0.08488288
0.022621484
0.042675197
0.026326498
0.11967708
0.044225752
0.07153895
0.027027868
0.05937236
0.07429416
0.10436617
0.017831558
0.13217008
0.039332792
0.07920396
-0.020548342
0.026616257
0.107190564
0.093958564
0.08869799
0.11881666
-0.00987212
0.05606694
0.08557573
0.06560567
0.072069936
0.10476891
0.03626173
0.09376726
0.11981363
0.029190443
0.2897029
0.2836688
0.17084143
-0.010300759
0.07646361
0.12457715
0.07429735
0.15593028
0.03946357
0.100532345
0.098139115
0.10649485
0.03548175
0.011625817
0.12098915
0.06177487
0.110915355
0.092903115
0.0115143685
0.054584052
0.023094902
0.021641683
-0.007740622
0.094922975
0.030528517
0.10602843
0.06561192
0.066979714
0.093983255
0.09290788
0.121216804
0.035143416
0.09322503
0.05339118
0.08486166
0.04143623
-0.023437945
-0.0140246125
0.07950104
0.106771335
0.037539087
0.059979115
0.027728772
0.03655318
-0.08172973
0.00037977667
0.051137775
0.05438424
0.072399236
0.06768172
0.022703126
0.018073827
0.028399687
0.05867295
0.10755061
0.0747045
0.03636864
0.04323551
0.038035497
0.09167739
0.03905066
0.07218908
0.06482129
0.058170717
0.040813837
0.08502327
-0.00025464353
0.012681153
0.07818379
0.064070515
0.03638663
-0.014833978
0.01251626
0.105925664
0.124273665
0.081359595
0.07517702
0.11909681
0.022418087
0.07374234
0.046952233
0.020552045
0.05830252
0.0075831343
0.056957446
0.013913485
0.06218868
0.005253294
0.04051252
0.09535506
0.016280832
-0.07653029
0.0063407863
-0.013498767
-0.02091568
-0.021505931
0.05265807
-0.037462108
-0.014234615
0.055071387
0.033355683
-0.0805349
-0.00016275085
0.005345731
-0.03801977
-0.018854298
0.02262514
0.067017846
0.021857947
-0.03140164
-0.00916798
0.03494414
0.02459748
0.06403156
0.04599393
-0.00895457
-0.0203946
-0.06696784
0.024256032
-0.036177184
0.019349646
0.044510126
0.005204124
0.024243826
-0.03182968
-0.023019034
-0.01226211
-0.04950354
0.014521687
-0.029599246
-0.060063865
-0.096796416
-0.057533804
-0.06581935
0.0029376221
-0.03335363
0.039295256
0.06306184
-0.009373461
-0.051110692
-0.021692766
0.007970946
0.054430787
-0.037957516
0.0637892
-0.014296539
0.08472707
-0.031761292
-0.027150972
-0.05689676
-0.039013483
0.01989326
-0.011681668
0.09276924
0.06463283
0.08421671
-0.03883258
-0.020690452
-0.043662287
-0.07413468
-0.035877276
0.028914854
-0.052499205
-0.022625467
0.01609651
0.03816015
0.007068887
0.030409891
0.027243493
0.0073637757
0.036710586
-0.025986651
-0.084912725
-0.029327024
0.022130271
-0.045112506
-0.058790028
0.03164864
-0.0006919031
-0.07125606
0.043789465
-0.0872811
0.03268624
-0.04656583
0.0056465003
-0.020876935
0.053602006
-0.01374977
0.06524021
-0.045260005
0.028860033
-0.013685926
-0.034105152
0.038649358
0.06304372
-0.042514876
0.025724567
-0.00614275
-0.015209541
-0.007974406
-0.016159931
0.038128305
0.038923346
-0.07249735
-0.0337739
-0.058318432
0.021275543
-0.0111751845
-0.03239772
-0.06345557
-0.053312186
-0.014143293
-0.012740538
-0.058353677
-0.006849981
-0.021243438
0.0110415425
-0.049336586
0.023105748
0.018232426
0.018146068
-0.056968447
0.029902665
0.073798455
0.028860437
-0.025194561
-0.044066243
-0.03148124
0.058976095
-0.093365096
-0.054777306
-0.018718606
-0.038171373
-0.08475336
0.021827826
-0.12248855
-0.02414213
0.032746535
-0.09687238
0.028449763
-0.050978053
-0.08114809
-0.0072702714
-0.054642353
0.0006541405
0.009099745
-0.014320963
-0.034897912
-0.05678074
-0.0040528784
0.01851903
-0.009689807
4.3357904e-05
-0.047130886
-0.006586479
-0.034921136
-0.03563045
0.053337377
-0.0570807
-0.0010321925
0.04891866
-0.01809598
0.018386228
0.0146133695
-0.016979715
-0.07328176
0.0050172387
-0.014906991
-0.06254208
-0.06626532
0.015399954
0.034508362
0.058407877
0.008539823
0.033583853
-0.06707468
-0.028519055
0.0032003426
0.07455417
0.04924219
-0.040115744
-0.054097127
0.013684752
-0.033985205
-0.04927517
-0.0042843963
-0.005355581
-0.050387908
0.006628001
-0.020537842
-0.006194507
-0.03945794
0.012211512
-0.038539253
0.05768514
-0.019875975
0.042240556
-0.028109737
-0.0001201178
-0.05512292
-0.019311605
0.033348665
-0.087702
-0.019090606
-0.058450866
-0.020039156
-0.053833127
0.01826928
-0.018934552
0.019410685
0.03856056
-0.020333515
0.018388452
0.053324845
-0.04686386
0.00091739837
-0.11711264
0.035433616
0.0299072
-0.060279697
-0.08702267
-0.07126186
-0.019889435
-0.028951745
0.081595205
-0.047167405
0.03847605
-0.0011472116
-0.011965503
-0.033756025
0.008346986
-0.06290289
-0.048577964
0.017693935
0.0017024095
0.074237615
0.0077987313
0.0032267298
0.0040371553
0.011795814
-0.055247806
-0.07682243
-0.0035878625
-0.07098549
0.050101083
-0.02489206
0.047964834
0.035408158
0.029376475
0.0012569982
-0.07340315
0.05268312
-0.037241247
-0.013622662
-0.013827446
-0.033166803
0.031237328
0.013942663
-0.014685117
0.056342024
-0.0382302
-0.03571309
0.08695166
0.011128022
-0.03482743
-0.038038235
-0.007247881
0.030701244
0.01864896
0.05252144
-0.056203738
-0.03949871
0.008052006
0.044410124
0.002065117
-0.07372533
-0.04648173
0.014654883
0.07868416
-0.061629582
0.059516124
-0.062366076
-0.041170295
0.0014568771
-0.004953969
-0.050279193
-0.023577228
-0.058410723
-0.06833416
0.031928785
-0.011332889
-0.08965459
-0.06519229
-0.030442167
-0.0891234
-0.018460618
0.01707116
-0.06906081
-0.020924535
0.023793114
-0.034484647
0.004599675
0.0054366225
0.014596711
-0.08268588
-0.0054093497
-0.094588615
-0.03721643
-0.061017554
-0.044839125
-0.041984696
0.012137361
0.010023564
-0.114247926
-0.031813756
-0.07548508
0.027932618
0.010296005
-0.060179435
-0.07597428
0.02070798
-0.015547758
-0.07257638
0.00389572
-0.007998428
0.08151867
-0.030983848
0.036888644
-0.006824325
-0.03723919
0.03911751
-0.029483035
-0.018386884
-0.035247304
0.028677883
-0.025895663
-0.081223324
0.018650379
0.021808535
-0.02182958
-0.07808482
-0.033988114
0.028225074
-0.022822067
0.01416744
0.049136292
-0.020580614
-0.07172699
0.048888285
-0.029452879
-0.006558321
0.06711743
0.06801925
-0.016112274
0.004648884
-0.07897825
-0.046885457
-0.022678414
0.014271808
-0.053796086
0.027481515
0.04952315
0.01275727
-0.007968363
-0.065374695
0.015261658
-0.025357075
0.038055815
0.060897663
0.003606199
-0.005058379
-0.006209441
-0.050561834
-0.08169033
-0.07037224
-0.012071131
-0.065885745
0.086394675
0.011648879
0.059780177
0.029546985
-0.055684183
0.038751487
-0.004456732
0.018642623
-0.043087017
-0.0021743476
0.030953918
0.024769573
-0.006379742
-0.04730963
0.0007715143
-0.031199595
-0.02941936
0.05649185
0.005466588
-0.068994045
-0.008134894
-0.0066243927
-0.017110143
-0.043544408
-0.04294582
0.0073854104
-0.037169427
0.019740697
-0.11622003
-0.08057226
0.010328852
0.00036184254
-0.051125634
-0.0063914675
-0.03158549
0.023791885
0.032905906
-0.027858196
-0.03836139
-0.047976058
-0.049809262
0.017939545
0.02012893
-0.048795983
0.010335095
0.016094565
0.0388397
0.047712203
-0.05675464
0.053861488
-0.0038443846
0.010954371
0.005369582
-0.04844244
-0.0025474373
-0.05870509
0.049751956
0.008615188
-0.11243718
-0.072888814
0.027851375
-0.10951392
-0.08538891
0.03816484
-0.10355417
0.059254333
0.0020364954
-0.04292088
-0.056762587
-0.03127521
-0.0345376
-0.021253973
-0.0043398878
-0.059471108
-0.0014171251
-0.015421932
0.001868514
0.014417666
0.003446039
-0.054502893
-0.06026392
-0.024575148
-0.0018504779
0.023989337
-0.055546235
0.016823195
0.041412666
0.031103175
0.021355731
-0.029746221
-0.06377916
-0.021227762
0.010974359
0.025508735
0.007974822
-0.023802
0.05356077
0.0154583445
0.015797595
-0.0003055185
-0.003978878
-0.051285326
-0.057212718
-0.007304117
0.026824862
0.047161803
0.042755336
0.046361253
0.06983761
-0.02471028
-0.009050666
-0.047069646
-0.07474815
-0.014613765
0.062457997
-0.004673249
0.015947888
-0.023261009
0.03823532
0.0231526
0.0045169108
0.0065948023
-0.032787688
-0.03132633
-0.07397631
-0.04687862
0.016133068
-0.054165155
0.03699964
0.03221973
-0.06960028
-0.056599066
0.032565247
-0.11055601
-0.008192325
0.012473654
-0.01444658
-0.0142979985
-0.016231127
-0.020693492
-0.029144874
0.051443864
-0.035508074
-0.05578286
0.009425479
-0.0732199
-0.050968815
-0.011052933
-0.011309412
-0.103203624
-0.048421856
-0.016360268
-0.09970103
-0.038601182
-0.10397397
-0.08301685
0.04294687
-0.034414135
-0.09733233
0.04184534
-0.021015089
-0.004284294
-0.013158953
-0.017312864
0.093783595
0.06135932
-0.041657705
-0.011739449
-0.047041938
-0.06044939
0.030477183
0.015769681
-0.08332943
-0.018550469
0.06808762
-0.05627005
-0.048487075
-0.018971102
-0.07086821
-0.022536868
0.0064262664
-0.032282077
-0.026133243
-0.052458975
0.009790008
0.023531971
0.004339849
0.023059405
-0.066187635
-0.05305297
-0.031662703
-0.07344592
-0.012468295
-0.026244346
-0.09527961
-0.027085638
-0.020005751
-0.012205353
-0.031785857
-0.006050246
-0.0075091184
-0.0051286076
-0.099444345
-0.086497106
-0.026567971
-0.071147725
-0.11632649
-0.067640685
-0.0086380765
-0.024286065
-0.021561962
-0.015411906
-0.04886868
0.040273026
-0.0072476077
0.031164952
-0.03139698
-0.057565425
-0.107259884
-0.088990726
0.0023271071
-0.007980091
-0.019485692
-0.09460062
-0.07021653
-0.03956762
-0.052729543
0.023534255
-0.074491575
-0.053096432
-0.09884925
-0.017995633
-0.06575997
-0.046959277
-0.02777202
-0.04243614
-0.0015308181
-0.04436314
0.009172156
0.0152337365
-0.10246828
0.009829382
0.014523386
0.0064423503
0.06572171
-0.027030118
-0.021474235
0.069791146
-0.08049462
-0.026839942
0.07809447
0.0104462
0.004339929
-0.08844691
-0.013626774
-0.07943801
0.034858085
0.03471152
0.076387264
0.016205698
-0.07683937
-0.0017584075
-0.10309515
-0.081459515
-0.050169963
-0.09471368
0.0100790085
-0.08073602
-0.057148524
0.0019012498
-0.03913592
-0.032333545
-0.07894201
-0.05011644
0.0075738244
-0.00869258
-0.06716363
0.0011892074
-0.09301806
-0.02817874
-0.0041617183
0.019282987
0.051035766
0.01905412
-0.01625959
0.010903609
-0.009014643
-0.07547193
-0.018290699
-0.064617604
-0.006119356
0.10366572
-0.10571723
-0.085783295
-0.025098393
-0.021939257
-0.1122028
-0.08503162
0.00794252
-0.06498786
-0.0020519432
-0.08240919
-0.08511256
-0.019072589
-0.06609479
-0.04478045
-0.09477681
-0.0883292
-0.031672094
-0.07922998
-0.039458442
-0.017381046
-0.018807232
-0.07880578
-0.11487546
-0.04028795
0.037383515
-0.027983367
-0.028619083
-0.008232775
0.06389293
0.039169222
-0.024673926
-0.039136797
-0.032599013
-0.010750996
-0.005650505
-0.05802705
-0.094027184
-0.077681646
-0.08068382
-0.073220074
-0.06983871
0.09888053
0.005868292
-0.026448486
0.0018776618
-0.023568489
-0.09816759
-0.053181335
-2.0752443e-06
-0.04764008
-0.026331682
-0.018920291
-0.032037955
-0.0032599436
-0.05133382
0.00014447613
0.015682591
-0.034396652
0.05557121
-0.06528846
-0.072688125
0.0011379621
-0.021928666
0.038746577
-0.046691325
-0.09721888
-0.06348002
-0.08804655
-0.08684504
-0.03724486
-0.024771497
-0.041856933
-0.019870035
-0.10632655
-0.10947849
-0.03895381
-0.05067819
-0.0036563964
-0.045367595
0.02121615
-0.036466878
-0.097146705
0.046073537
0.008978907
0.05960563
-0.07433309
-0.06849601
-0.0937016
-0.012660302
-0.07948536
-0.045496132
-0.039255034
-0.017203538
0.037596278
-0.0023676432
-0.009888986
0.01075629
-0.0956339
-0.0073628235
-0.05194546
-0.10644309
-0.010026043
-0.017983874
-0.0017250445
-0.070243806
-0.022742381
0.004634316
-0.04685056
-0.10176022
-0.083936885
-0.056120887
-0.053946603
-0.102091916
-0.057229605
-0.024734013
-0.020756267
0.025072018
-0.01560758
0.0067844475
-0.009843337
-0.045855865
0.08100536
-0.0044757724
0.006575745
-0.031282786
-0.03199867
-0.10589356
-0.013819543
-0.07724858
-0.016111497
-0.111091316
-0.059979588
0.05374434
-0.10140593
0.0141483145
-0.08763193
0.006816882
-0.038924888
-0.10008144
-0.067352995
-0.10629602
-0.062490534
-0.036231548
-0.113308236
-0.090883814
-0.112432785
-0.07732146
-0.11252656
-0.0053759534
-0.024820937
-0.090304844
-0.07836913
-0.03870685
-0.05558431
-0.0036922342
-0.096020706
-0.035739213
0.005208378
-0.069138944
-0.10752073
-0.090267144
-0.12109465
-0.018499501
0.03688044
-0.033819314
0.04300859
-0.04325059
-0.068052635
0.043216772
-0.048421096
-0.017118618
0.03451189
-0.07186473
-0.0022163345
0.045613095
-0.037571948
-9.727103e-05
-0.08212233
-0.0020536154
-0.064030774
-0.107346475
0.0021466978
-0.03962578
0.017814407
-0.087824024
-0.0003808487
-0.102473885
-0.045681328
-0.057264652
-0.051662456
-0.1172234
-0.09224845
-0.10278625
-0.032233015
-0.012694878
-0.033703007
0.10486505
0.09954723
-0.042605225
-0.006888838
0.04316762
-0.033961188
-0.06696448
-0.043040745
-0.08262707
-0.08078278
-0.09118198
-0.015499139
-0.07943871
-0.004285257
0.007929552
0.0034861765
-0.01867263
-0.03564662
-0.09744003
-0.027278902
-0.047834475
-0.028361835
-0.029042043
-0.09583276
0.003983375
-0.105054565
-0.02109882
-0.05474611
-0.037943795
-0.0027035694
-0.11791814
-0.056661382
-0.0853048
-0.03260796
-0.00986465
-0.020814607
-0.047679175
-0.056461796
0.070384264
-0.0029213156
-0.034458626
0.034850802
-0.0058906754
-0.07462021
-0.011558754
-0.09197673
-0.106745005
-0.08160259
-0.013496297
-0.038853046
-0.054014318
0.003119745
-0.04600609
0.025376335
-0.069217965
-0.0276364
-0.04206399
-0.040410087
0.01824909
-0.0005567595
-0.02265833
-0.011835619
-0.10043293
-0.060411915
-0.032945067
-0.0249153
-0.013868432
-0.055837024
0.004428018
-0.033267055
-0.052641787
-0.025267666
-0.064982146
-0.03400971
-0.0034888505
0.02481966
-0.028226132
0.010319387
-0.09437403
-0.06267645
-0.018074978
-0.025321389
-0.04542154
0.0054756915
-0.10548616
-0.048506435
-0.02127159
-0.06532475
-0.0005547668
-0.018275548
-0.045754083
-0.029288795
-0.011069081
-0.025549708
-0.062072568
-0.03218557
-0.10184573
-0.011195529
0.043989297
0.0013116346
-0.053538658
0.045585938
0.03568122
0.012052263
-0.075140394
-0.012185285
-0.013150882
-0.0066770324
-0.08971938
-0.027573245
-0.09632747
0.06418641
-0.09313716
-0.04350048
-0.03436839
-0.087458685
-0.04019514
-0.04748703
-0.009363482
-0.011175299
-0.012852094
0.008858832
-0.05017317
-0.010080225
-0.0012838196
-0.023248566
-0.11115421
-0.041196693
-0.068191774
-0.10576711
-0.04315767
-0.10769124
-0.05617284
-0.08665404
-0.079744995
-0.083727434
-0.04868807
-0.06694723
-0.070281
0.012543458
-0.03591906
-0.06682933
-0.016569152
-0.033489425
-0.0015692267
-0.11104295
-0.019946352
-0.091048814
-0.06166496
-0.03982938
-0.099549554
-0.11169112
-0.036397733
-0.06116648
-0.042875405
-0.012855089
-0.05264958
-0.115608886
-0.03881627
-0.06189825
-0.024010755
-0.103505865
-0.06387694
-0.08340062
-0.032804336
-0.06432069
-0.059688624
-0.08523783
-0.03096309
-0.10024316
-0.010111654
0.03607533
0.05718135
-0.060996518
-0.06567154
0.06440798
-0.04091927
-0.0945179
-0.051770035
-0.06258593
-0.008682035
-0.030833757
-0.09986671
0.02495236
-0.08065486
-0.059656627
-0.0301127
-0.014789954
0.0061033103
0.025370093
0.044795115
-0.036040194
0.061585695
-0.007817369
0.018364904
-0.04177715
-0.034886982
-0.08246459
-0.054026898
-0.04111183
-0.058991164
-0.018013526
0.081012584
0.05313205
0.010930402
-0.016274812
-0.0058037564
-0.07485861
0.038660616
-0.0053157085
-0.01020864
0.014119136
-0.0030179606
-0.006066084
-0.05105754
-0.005826936
-0.009737404
-0.109437935
-0.100021414
0.0023639333
-0.06706088
-0.03617235
-0.0058464683
-0.045756478
-0.06849908
-0.055344846
-0.088892184
-0.048246823
0.080631636
0.021297658
-0.0057002585
-0.0064058187
-0.05812638
-0.071561314
-0.035344392
-0.0051773563
-0.008118509
-0.032618504
-0.112035975
-0.07874588
-0.050919827
-0.06826594
-0.07060521
-0.045973822
-0.018202288
-0.09713885
-0.049468584
-0.052610647
0.0020282653
-0.05669432
-0.074001536
-0.09365165
-0.07901001
-0.082038596
-0.068135306
-0.06405302
-0.07448612
-0.045763563
-0.074062735
-0.0873111
-0.020419506
-0.0939572
0.08676622
-0.11153103
-0.03418207
-0.026112998
0.0066413623
-0.08289149
-0.11415368
-0.09284851
0.08590176
-0.023788916
0.042061836
-0.09155485
-0.07397268
-0.0020379126
-0.0022728713
0.10476088
0.07365978
0.1189605
0.0887405
0.10363517
0.11788753
0.10941839
0.021339137
0.13937497
0.10022637
0.06750466
0.083330944
0.06688653
0.0067445124
0.026299581
0.09245034
0.03155309
0.09692109
0.06602624
-0.053878497
-0.040266134
-0.04923225
-0.03447501
-0.059042435
0.005676133
0.0031104584
0.017675502
-0.07738609
-0.009966959
0.019076655
-0.026843749
-0.071178705
-0.003833913
0.0025208336
0.068356164
-0.043169208
0.01687534
0.057839222
0.13385949
0.03852613
0.09728575
0.068201415
0.09747095
0.14395195
0.0806117
-0.035071798
-0.004003421
-0.01863896
-0.02873554
0.064666696
0.038039416
0.09202107
0.04022289
-0.042299118
-0.061254848
0.008337029
0.033641607
-0.019655446
-0.11866745
-0.09720288
-0.078684114
-0.07035649
-0.017748902
0.0046551973
-0.020375645
0.040534437
-0.04312762
-0.03848917
0.057674784
0.061089057
-0.035607044
0.0042859446
-0.06936434
-0.018178174
0.03454822
-0.005568643
-0.07263412
-0.05381241
-0.005563708
-0.012998515
-0.022692144
0.018282851
0.008753251
0.13798645
0.1120342
0.07948324
0.040904906
0.04820385
0.107954316
0.027231837
0.027558468
0.06340135
-0.0009552715
0.03764622
0.019291282
0.026660634
0.091045834
0.014544042
0.019400796
-0.025143217
-0.07494385
-0.04789428
-0.021976186
-0.0021034523
-0.009174931
0.06750117
0.024119837
-0.08768807
0.004544259
-0.06924139
0.04988741
-0.02645245
-0.047037944
0.060672432
0.04993322
0.021561686
-0.035607494
0.027755244
0.008254887
0.12223612
0.020211268
0.06618008
0.04171877
0.032202035
0.13812159
0.033459507
0.036844604
0.121574804
0.072840296
-0.21913055
-0.13162242
0.05313398
-0.061972678
0.032071076
0.024867823
0.023037804
0.025894718
0.06803882
0.107883744
0.080554515
0.07800232
0.06775385
0.05375014
0.09453788
0.0052959966
0.07918704
0.072418645
0.039663423
0.008992689
0.12680507
0.110436864
0.10776738
0.08984271
-0.04276255
0.012269171
-0.08604495
0.019915339
-0.078201436
-0.00968546
-0.00662739
-0.038749497
0.009722199
0.020712819
-0.07616675
-0.03565336
0.062431335
0.022044288
-0.034030993
0.01079286
0.041478083
-0.00054553006
0.053232737
0.044696867
0.024757251
0.07490386
0.083173335
0.013336716
0.024594264
0.11311571
0.054231815
0.010559223
0.03178821
0.012682292
0.046720024
-0.011647595
-0.0030312606
0.03626796
-0.013554771
0.063178
0.008231725
0.050498527
0.07446576
0.0019125469
-0.0075679175
0.005383703
0.023064008
0.061552767
0.03432736
-0.079794794
-0.06655906
-0.02415577
-0.06707668
0.018048987
-0.014940735
0.013158194
-0.024790356
0.07104995
0.10261445
0.02932769
0.063228585
0.07103428
-0.008891808
0.11989884
0.10092685
0.006381938
0.03598628
-0.032204513
0.011909749
-0.02269213
-0.06851878
0.025739195
-0.017781807
0.020529095
-0.04556307
0.032592837
0.12010768
0.10845181
0.031219319
0.09870825
0.114365526
0.1439462
0.032150455
0.11907175
0.10020176
0.10516683
0.08341762
0.09155609
0.01102746
0.052387815
0.11397087
0.061354183
0.072000906
0.09934793
0.12378718
0.023450999
0.06889615
0.04512586
0.11797653
0.03954967
0.06763758
0.061738946
0.081903294
0.07362193
0.0141407605
0.13522217
-0.0020281265
0.06270263
0.13794413
0.13514298
0.05918419
0.039371055
0.017534738
-0.0679881
-0.043923847
0.006393415
-0.038442165
-0.08078949
-0.052778713
-0.039872583
-0.015411476
0.065993235
-0.018173093
-0.007368882
0.0091855945
-0.045330547
-0.016478801
0.0040248386
-0.10233667
-0.102747805
0.0937713
0.0906388
0.027096085
0.049371146
0.014585063
0.06821919
-0.017915424
0.025433045
0.048706718
0.1287132
0.055499233
0.06374105
0.06893761
0.12632799
0.068154216
0.04575651
0.11535604
0.053481206
-0.014001711
0.03935172
0.07303449
-0.0086764945
0.05583908
0.0037715067
0.029495593
0.117491394
0.037857104
0.09185287
0.019117685
0.037919845
0.06910364
0.07219886
0.0639468
0.049757905
0.0407835
0.045164347
0.02491373
0.10958515
0.10546488
0.026141316
0.008489553
0.14529258
0.031557392
0.07329827
0.020343067
0.06475101
0.12232519
0.019887317
0.059444323
0.0038639687
0.10605378
0.061811972
0.04310628
0.112325326
-0.1469084
-0.004157343
0.015530843
-0.11800256
-0.030631226
-0.006222443
0.016964331
-0.026358433
0.080506556
0.1232893
0.011537192
0.035985935
0.0062495368
0.027940426
0.11328677
0.09742868
0.1226193
0.09090889
0.012264482
-0.009170785
-0.03932791
0.0395723
0.023032669
-0.010353555
0.010517766
-0.030761462
0.044777025
0.098391734
0.021261388
0.11682397
0.051351257
-0.0051386594
0.116752714
0.041389003
0.09033249
0.037328098
-0.016257154
0.022429416
-0.006877091
0.017212717
-0.051935
-0.004805597
-0.010567871
-0.039094605
0.060342014
0.08304005
0.051572647
0.08123847
0.012984008
0.11251488
0.09882955
0.06512158
0.033401597
0.044757947
0.0754518
0.08376572
0.12261916
0.012426227
-0.005952531
0.044149928
0.0134431925
0.086637504
0.08560005
-0.03258181
-0.026496254
0.0009759171
0.0390283
-0.035367053
-0.01757326
0.02376016
-0.008737863
0.031723436
0.07650069
0.089257896
0.12800312
0.044948198
0.10043302
0.11869049
0.10888529
0.06627647
0.03043552
0.073912464
0.041711576
0.1292985
0.12753595
0.019149344
0.050680242
0.024584098
0.093315825
0.08626507
0.04449494
0.09147906
0.02975943
0.051568206
0.13933355
0.0956248
0.13477926
0.028391367
0.0857843
-0.021830725
-0.05251877
-0.01765344
0.001032758
-0.03221938
-0.0064215935
0.020948514
0.063727
-0.015813814
0.038760666
0.11552725
0.032175444
0.11778657
0.023973431
0.02929553
0.10239426
0.04628954
0.12086997
0.022098478
0.086422086
0.054206606
0.059258584
0.1279097
0.028842546
0.07653698
0.012258282
0.04886679
0.09603903
0.0366459
0.13626139
0.04650206
0.0986636
0.018235518
0.09268309
0.11596206
0.12368071
0.030251969
-0.04318224
0.07667086
-0.017604519
0.0127746565
0.056625787
-0.010740715
-0.01609828
0.01570286
0.09227094
0.06927065
0.020721827
0.018768191
0.019999178
0.12339425
-0.010654212
0.024802025
0.12802851
0.3113623
0.29657874
0.19016294
-0.041317254
0.04812898
0.11299119
0.12635039
0.082992055
0.13753982
0.07603716
0.031936232
0.117855884
0.09073582
0.015745163
0.09371093
0.0021487568
0.09445255
0.06595351
0.044144154
-0.02168577
0.056133125
0.09700964
-0.04485039
0.053072877
-0.017808704
-0.005668062
-0.05154258
0.0871111
0.09466327
0.03989945
0.064976074
0.09784995
0.12029806
0.107167244
0.09090344
0.067323245
0.07749795
0.07734672
0.04256558
0.0115538165
0.052402664
0.047395367
-0.04312637
0.11440834
0.07924769
0.07705885
0.018087203
0.14037617
0.037391614
0.12124709
0.08995043
0.08746171
0.13496026
0.12275809
0.0769095
0.11005035
0.07872304
0.029222019
0.12680003
0.11837499
0.034481544
0.026120896
0.023645105
0.127863
0.025584731
0.048344083
0.0034274366
0.12387924
0.11353555
0.13054846
0.030010784
0.07250322
0.056968573
0.0776916
0.08354768
0.0823654
0.05120173
0.1179523
0.13268077
0.02726068
0.0928594
0.07175509
0.12729879
0.032731023
0.025963502
0.059565455
0.046425473
0.021966193
0.073748074
0.07144255
0.058301132
0.06833544
0.14667468
0.08420142
0.11756452
0.08342844
-0.002338262
0.021215508
0.09317268
0.12780331
0.0828054
0.11036202
-0.027516872
-0.011191732
0.0888558
0.003431295
0.09804732
0.040503465
-0.059792038
0.059365083
-0.02859381
0.046245433
-0.006445576
0.032334168
-0.053683896
0.010266412
-0.035317834
-0.031714045
-0.015355366
0.031098481
-0.083234735
-0.031802382
-0.02672291
-0.08175565
0.016000237
-0.016250337
0.055701677
0.09435491
0.032499153
0.09401211
0.027659813
0.11813638
0.017038992
0.1328057
0.10198414
0.026698945
0.069607966
-0.018174414
-0.021204676
0.020779226
-0.018456645
0.03646209
-0.054950587
0.08676985
0.033011828
-0.02043409
0.09280928
0.013560441
0.035268944
-0.015405225
-0.04614287
-0.047426302
0.04650745
0.027614273
-0.06794364
-0.029420106
-0.0687746
0.012585166
-0.012056955
0.036797818
0.057848822
0.055140253
-0.07366105
-0.03953497
-0.029267875
-0.0999048
0.0065237065
-0.0149186915
-0.097757585
-0.017142601
-0.07397265
0.019667579
0.117651746
0.102329075
0.09854857
0.06933738
0.12675238
0.044365197
0.064407386
0.016488388
0.08546676
0.10044626
0.078852996
0.0138242645
0.08585683
0.0050777644
-0.026206156
0.06305586
0.07058105
0.0053161304
0.11670729
0.005510882
0.01439261
0.034578793
-0.018995821
0.0068305265
0.119015
-0.031656414
0.08600401
0.060344473
-0.059670594
0.057618152
-0.049012836
-0.017945586
-0.002600757
0.051681444
-0.046994686
0.048918497
0.061165195
0.10519494
0.119669534
0.07882599
0.05237791
0.044619463
0.11087534
0.10823651
0.07646107
0.14752315
0.12734461
-0.20932855
-0.09130104
-0.017485427
-0.063789465
0.051723253
-0.057954356
0.059049707
0.026487647
0.031560138
0.06519789
0.0027069107
0.06378405
0.00023199727
0.1022563
0.0889538
0.116143554
0.10577366
0.09783406
0.09329521
0.121256605
0.033048756
0.12288197
0.05026199
0.07766175
0.061192706
0.05088509
0.0066741584
0.061386377
0.062224265
-0.06302992
-0.07236399
-0.02625304
-0.0068839076
0.0111161545
0.057417564
0.0064616473
0.0044505745
-0.006226587
0.07139493
0.021675242
0.03464869
0.087947145
0.06989253
0.033094116
0.13642563
0.018336518
0.052217126
0.028118946
-0.0050339582
0.05376759
0.07971573
0.011701917
0.06319785
0.11848441
0.0066775815
-0.015677324
0.05130604
-0.04755878
-0.026968807
0.0070830826
0.11842041
0.10476719
0.037926685
0.05723072
-0.00039770766
0.095416404
0.048160773
0.06263608
0.11646005
0.025808008
0.025441017
0.02486283
0.060203057
-0.0074758967
0.028138153
0.008619965
0.0017452382
0.03964305
0.13355984
0.044243343
0.07933435
0.0011412362
0.019058984
0.05350494
0.08188421
0.015799962
0.07098483
0.0018669965
-0.011631362
-0.05618282
0.03265773
0.018220462
0.05733101
-0.011063485
0.100726545
-0.054476116
0.07986229
0.14252171
0.13409115
0.13578969
0.13255578
0.13191676
0.057738733
0.029506747
0.10826603
0.025185937
0.032954533
0.12298608
0.016160142
0.09488571
0.058153786
0.06000438
0.09168062
0.009648937
0.087247625
0.12614444
0.070477016
0.00932526
0.016341746
0.012070487
0.112181254
0.05763683
0.021084305
0.103896566
0.1130287
0.1421868
0.0006617123
0.061767567
0.05478753
0.017878545
0.037302077
0.099728495
-0.084562406
-0.044351984
0.00038038398
-0.039317537
-0.011795294
-0.09133061
-0.083055526
-0.010377379
-0.020927848
0.06270202
0.07513015
0.044290636
-0.03550678
0.09688066
-0.08784521
0.09125753
0.007300751
0.027124023
0.07300187
0.045533877
0.092601374
0.11773721
0.06616923
0.0930061
0.014073583
0.068026505
0.12066073
0.10294585
0.09781107
0.09781568
0.032800663
0.08450777
0.04555647
0.04513881
0.048651338
0.12224067
0.10493226
0.07744868
0.037508227
0.07234945
0.069087364
0.093062736
0.101696506
0.0784814
0.10901553
0.06250883
0.109909125
0.10690393
0.03395218
0.086397916
0.13679273
0.023071311
0.057886712
0.017057478
0.054000035
0.028955078
0.042768948
0.032950036
0.10556574
0.08460674
0.019933073
0.058143273
0.12539595
0.027411714
0.1418298
0.07623007
0.109021164
0.029972645
0.08329651
0.118160136
0.040224887
0.13470285
0.010614528
0.031962745
0.041682135
-0.06153552
-0.07475073
-0.0441353
-0.0137283
-0.01508746
0.055292927
0.07191077
0.09986246
0.1337063
0.06992693
0.010232802
0.09650661
0.09325104
0.085379034
0.054262254
0.032148417
0.08850366
0.032990325
0.062321384
0.029407792
0.057688154
-0.05872876
0.06028567
0.08228186
0.059934713
0.13275455
0.13837183
0.009585897
0.11608025
0.09615236
0.0423913
0.12968348
0.04379761
0.05290527
-0.053361706
0.042593274
-0.0063849115
-0.06038556
0.08602387
0.04525853
0.012234029
0.03472136
0.10507709
0.02913448
0.07486518
0.05791802
0.07198188
0.1184708
0.021119656
0.035111323
0.06529227
0.122086644
0.097820565
0.033362
-0.009530188
0.04462129
0.09638847
0.055331513
0.020911105
0.073871806
0.019698245
0.04408372
0.09997053
0.0844769
0.056350373
0.082252935
0.05031154
-0.017546998
0.019796563
0.020037
0.07901
0.030353665
0.11533951
0.13960415
0.12409343
0.11963254
0.061228763
0.11191885
0.11046323
0.10167726
0.11082056
0.049768284
0.02923025
0.108721346
0.104362786
0.030007241
0.056532994
0.10626128
0.14899275
0.05270629
0.111383095
0.09465096
0.07710414
0.059390523
0.103829
0.103378
-0.016211785
-0.0057027554
0.06329193
0.0010076809
0.038852487
0.01233666
0.022338618
0.013611917
0.052301764
0.09538826
0.11769935
0.05849288
0.06480286
0.07669199
0.13703074
0.07266691
0.08971374
0.058906406
0.014420146
0.10810073
0.12626016
-0.0038944043
0.045936964
0.09135215
0.09140454
0.055797208
0.08403255
0.06717034
0.09030079
0.12584104
0.08751967
0.091877
0.14014176
0.12638259
0.022087643
0.106887564
0.026146116
0.012870549
-0.030041412
-0.020830235
0.027277365
0.054393813
0.032429323
0.07100126
0.08179421
0.07268208
0.102832764
0.03199291
-0.006302096
0.10789602
0.09672616
0.0046302164
0.10469887
0.019917693
0.3346785
0.21321297
0.20471476
0.00080062915
-0.02339584
0.083802596
0.047766525
0.045161244
0.118689865
0.13189621
0.089293
0.11524128
0.04603891
0.11559495
0.12051955
0.027453542
0.012360858
-0.0039248588
0.047513384
0.00584465
0.04449793
0.06403947
0.0834453
0.08661154
0.03443311
0.01799831
0.07482299
0.05337212
0.049887467
0.019260405
0.02458129
0.13890402
0.09922767
0.0175701
0.046729818
0.08543012
0.043591917
-0.0061827004
0.030125817
0.12894797
0.03423783
0.03374695
0.06990089
0.050308533
0.055276744
0.10656454
0.049108773
0.058201864
0.09779746
0.041524343
0.10869649
0.028865904
0.017105374
0.105736904
0.06276243
0.13868043
0.041666854
0.098821424
0.083178535
0.043759134
0.07135357
0.12031217
0.10455998
0.13213074
0.10008975
0.09791461
0.10604929
0.035773795
0.0774297
0.096663065
0.0383703
0.028319465
0.13311836
0.13638881
0.0598051
0.03868288
0.12453174
0.054145604
0.028507642
0.09381716
0.0018657934
0.06940506
0.068565995
0.06623285
0.042794622
0.020165745
0.09517434
0.007922047
0.13747542
0.07662831
0.13092843
0.12573954
0.112515815
0.13633443
0.13951541
0.1239721
0.08159628
0.04091551
0.08168039
0.07744163
0.025864678
0.12763701
0.05901951
0.024528045
0.03951463
0.026648246
0.011674239
0.118774824
-0.039970066
0.024140194
0.036229692
0.011904143
-0.026244903
-0.012853521
0.0038559125
-0.00086454774
0.040356215
-0.035144787
0.046019197
0.06575446
0.016394585
0.03932934
-0.00037700895
-0.06708996
0.046530556
-0.056063402
0.118666545
0.060857728
0.08332944
0.07284954
0.08588197
0.11929906
0.10660844
0.055293884
0.11784756
-0.00028245038
0.08316954
0.02838208
0.06879719
-0.018811893
0.086825065
0.047608353
-0.02403168
0.064836584
-0.06547899
-0.06747424
-0.025807811
-0.10108056
-0.016131008
0.06807594
0.09742468
-0.017567314
0.10470638
-0.04465115
0.020956846
-0.0039028816
0.041759484
0.034765713
0.071764074
-0.0016289621
0.04181085
0.02022203
-0.09771544
0.019328145
0.011881191
-0.0078422045
-0.0017045944
-0.015500527
-0.045844674
-0.06050852
0.062243585
0.051280055
0.11936777
0.05856377
0.10176548
0.12755018
0.11503093
0.14641678
0.092755675
0.024572521
0.019953523
0.05734056
0.027417993
0.08846695
0.0046429522
0.023999287
0.015929278
0.016584279
-0.0065513887
0.0942091
0.020719415
0.057259
0.037249427
0.01454368
0.04966476
0.008341727
0.026098765
-0.011993491
0.035574246
-0.029321339
0.036973324
0.0101161515
0.009857777
0.07150893
0.07635231
0.014343483
-0.035825673
0.059764415
0.04235393
0.13950069
0.04315826
0.08177618
0.020458134
0.054914698
0.038427517
0.124122635
0.06750415
0.14477725
0.18331595
-0.1198031
-0.15080146
0.04016686
-0.13993974
0.071916506
0.09717634
0.08990578
0.05625982
0.080861725
0.046191555
0.00090878404
0.0948897
0.046115387
-0.014053979
0.028358966
0.04290413
0.025362153
0.055913225
0.076798156
0.12205529
0.08591888
0.015473465
0.045266923
0.13504025
-0.0021839533
-0.025722334
-0.04780572
-0.06699434
0.008455878
0.022854578
-0.08257532
-0.025294768
-0.08870312
0.103650875
0.036972005
0.062181253
0.06415917
0.056734946
-0.005078543
-0.03871334
-0.012214738
0.11075768
0.0085997535
0.1001648
0.051478267
-0.009253449
0.05021717
0.046676725
0.029477837
0.03402179
0.03488554
0.019387703
0.064441875
0.036474448
-0.030338544
-0.02265366
0.10720321
0.07015323
-0.004538285
0.040014874
0.044468045
-0.00581696
0.0883404
0.09598564
0.04559197
0.007856595
-0.015963823
0.00021035313
0.10069906
-0.023959119
0.06550389
0.061505895
0.020713484
0.019815708
0.051942833
0.010165918
0.04778918
0.0667184
0.08527109
0.065981135
0.094326735
-0.001547873
0.03084872
0.12415011
0.046415195
0.039839555
0.11328787
0.0230496
-0.08068542
0.0038866
-0.027923953
-0.057802536
0.09008956
-0.0021440415
-0.08089857
0.06310829
0.071520925
0.082243875
0.070355006
0.12410122
0.11259864
0.13061385
0.021764547
0.084734954
0.06924766
0.09219752
0.118505985
0.0310392
0.014558704
0.10805287
0.142711
0.058814507
0.103986874
0.14068364
0.09360281
0.14865345
0.11753067
0.09273275
0.03291031
0.07228274
0.07498777
0.0822761
0.099939026
0.093625806
0.061215352
0.09986765
0.103593074
0.017220663
0.13080549
0.083834715
0.038452696
0.07744786
-0.04885855
0.047727738
0.04153167
0.010797243
0.035967622
0.017881965
-0.026112035
0.022311172
-0.03786374
0.0045246664
0.086678214
0.108983815
0.036520533
0.032105144
0.1182806
0.071493655
0.052787755
0.061753083
0.09411808
0.03746467
0.025231063
-0.005100638
0.06599778
0.06039332
0.060378183
0.08840705
0.052334413
0.108790465
0.03317428
0.06624387
0.13155301
0.094077654
0.13813064
0.05631217
0.02369346
0.032215748
0.0720339
0.082689114
0.12053389
0.024830248
0.014041129
0.12216543
0.0115780495
0.079349846
0.049869478
0.12546448
0.06877128
0.022321694
0.07129282
0.0921037
0.09329909
0.11583246
0.013393591
0.1228664
0.07926731
0.1069356
0.021369832
0.1063168
0.08303927
0.043787014
0.11915717
0.122348815
0.08733216
0.081425294
0.11683396
0.04062312
0.122206345
0.14185832
0.055054206
0.10905014
0.04417808
0.06091524
-0.038229294
0.04517543
0.07817784
-0.17644061
-3.8029084e-05
0.11165805
-0.055994436
0.011911151
0.07910819
0.039949037
0.076026276
0.064024866
0.055062603
0.11335502
0.09131147
0.12796043
0.12134841
0.09402716
0.06110535
0.011775836
0.016984321
0.020454371
0.100047134
0.06294769
0.017156454
0.045918077
0.043127485
0.09530976
0.052565668
0.12872301
0.10625636
0.13620089
0.07297291
0.049373753
0.08147778
0.11673169
0.041985735
-0.06643233
0.01682658
-0.0040410203
0.026562773
-0.0824408
-0.077027865
-0.0016775697
-0.057355937
0.0538283
0.09029751
0.13163352
0.095197245
0.11177055
0.13458194
0.07691716
0.13636532
0.03928996
0.043761324
0.07906667
0.016032122
-0.0033143999
0.04472998
0.019161167
0.0472532
0.093912095
0.0072501036
0.03869455
-0.010694235
0.08411831
-0.0009774603
0.03910971
0.04781268
-0.009881955
-0.0041981754
0.08086186
0.119173154
0.016229443
0.11641828
0.13039537
0.014640644
0.08039857
0.012668472
0.07964097
0.059163146
0.0652132
0.06111076
0.061417095
0.14236303
0.064356096
0.07069199
0.14354272
0.071547695
0.030545237
0.07351394
0.13733189
0.10842838
0.12873761
0.05272268
0.13824612
0.03371255
0.019394498
0.051710445
0.032808863
0.03377311
-0.018050019
0.043952614
0.059815045
-0.033245664
-0.016319066
0.023504974
-0.03449579
0.058995724
0.14419053
0.1202673
0.040597763
0.08578195
0.09256103
0.11790987
0.04092605
0.116536066
0.14574845
0.08344587
0.10881296
0.01911314
0.07572612
0.06192824
0.13087063
0.0988457
0.050644476
0.07095557
0.13678762
0.12746502
0.08963651
0.087294616
0.023586486
0.0838372
0.028085683
0.062223118
-0.0006125668
0.09957042
0.002813997
0.08942282
0.049674183
0.023702562
-0.001120882
-0.030808631
-0.024578644
0.0022483277
0.13593407
0.10245163
0.0382173
0.08517534
0.010146792
0.07791958
0.12188432
0.11338877
0.3083831
0.27431086
0.15213037
-0.019299675
0.23426601
0.2096766
0.044712774
0.15039937
0.054822013
0.029174795
0.047532905
0.09396896
0.13780056
0.10918936
0.10115675
0.05853856
0.08084601
0.110789634
0.08720967
0.08743603
-0.0067251967
0.0849669
0.024815027
0.049034078
0.0122040035
-0.06394341
-0.07268677
0.051346768
0.035808373
0.07197991
0.058616355
0.027120933
0.0829512
0.037309088
0.04147835
0.07404747
0.11219564
0.13090807
0.06311094
0.087936476
0.030188128
0.099779725
0.10795488
0.0572755
0.07718896
0.13463709
0.12118289
0.02130585
0.045698866
0.14071465
0.1348102
0.106280774
0.07436682
0.019933036
0.13838834
0.07061533
0.10681386
0.09454742
0.14687155
0.083160564
0.12075126
0.07267186
0.061066445
0.09296509
0.02597483
0.061186433
0.08223408
0.04918099
0.10529997
0.136799
0.14415434
0.038233638
0.014943802
0.02758615
0.03247719
0.11801786
0.056860723
0.12909712
0.08847338
0.08189323
0.050000485
0.019601231
0.118567854
0.09228263
0.14183564
0.12678453
0.04611741
0.14349607
0.06397214
0.024912171
-0.08124445
-0.024214879
0.02563269
-0.09140908
-0.0007384716
0.100752674
-0.11919717
-0.06921362
-0.055438526
-0.008274518
-0.056117438
-0.031650506
0.0046428465
-0.036548503
-0.09866625
-0.10553191
-0.0010772025
0.009024257
0.035000354
-0.059535984
-0.021039791
-0.04718811
0.022790968
-0.052679695
0.031094411
0.01823096
-0.03336609
-0.03830762
-0.03858875
-0.0011155463
-0.0541866
-0.018223304
-0.018086635
-0.09260713
-0.06010724
-0.03153636
-0.07798213
-0.108364716
-0.039397284
-0.0038404332
-0.09483597
0.0055490546
-0.0964388
-0.1075993
-0.008948633
-0.09870179
-0.042184733
-0.0043773972
-0.1184232
0.008351832
0.003988626
-0.09777351
-0.03394332
-0.008008962
-0.09421838
0.027766012
0.027207594
-0.053635783
-0.074814476
-0.036060523
0.0068276785
-0.07187355
-0.018395081
-0.09946765
0.0690296
-0.110645734
-0.057684258
-0.008614062
-0.10831111
-0.099036
-0.01742453
0.06291857
-0.08476111
0.08028601
0.05289145
-0.1054483
0.016172307
-0.084304236
-0.09381703
-0.04930585
-0.0013636389
-0.016946984
-0.031100959
-0.09400011
-0.026387393
-0.047915857
-0.005403964
-0.008503417
-0.06768433
-0.10112213
-0.09642188
-0.00010728857
0.04020658
-0.010425344
-0.10161091
0.039124615
-0.015931137
-0.02156669
0.06931154
-0.1005281
-0.019307012
-0.014947266
-0.021283988
-0.013941928
-0.117534995
-0.08006457
0.00074417196
-0.0579769
-0.06086352
-0.06041482
-0.069749884
-0.01194969
-0.06119824
-0.07266512
-0.05571896
-0.09239687
0.014905057
-0.0055102734
-0.00298184
0.03219319
-0.07366072
0.05809722
-0.10406173
-0.029662432
-0.05541654
-0.09013874
-0.015803434
-0.012642792
0.035304226
-0.05086233
-0.06279494
0.018704673
-0.06454755
-0.05640433
-0.0020234557
-0.06334884
-0.10635913
-0.07105289
-0.10294626
0.003046171
0.028370462
0.01415662
-0.053826693
-0.032519784
-0.024907274
-0.10048378
0.109640524
-0.0030210484
-0.014306217
-0.09641254
-0.054212604
0.03512557
-0.022436533
-0.041844834
-0.021290595
-0.0284296
0.0025987995
-0.081166506
-0.06932727
0.0056839734
-0.054956783
-0.03389729
-0.036504723
0.0010602948
0.046997588
-0.10081988
0.012794577
0.1027555
-0.103685655
-0.035147227
-0.07112193
-0.09848076
-0.09316572
-0.06986394
-0.0021274283
0.0030742069
-0.03566786
-0.10766304
-0.03673992
0.00068502035
-0.08989793
-0.0025487547
0.0017271572
-0.03930575
0.0055604116
-0.08236482
-0.095345065
0.01239134
0.032813672
-0.07692032
-0.06681491
-0.035773687
-0.101537354
-0.016866604
-0.103727125
-0.074011385
-0.106150635
-0.07990415
-0.04437067
0.00022084924
0.049148653
-0.07807825
-0.083202526
-0.037003856
-0.036426283
-0.03537827
-0.06884674
-0.05059885
-0.07560579
-0.07737931
-0.11612408
-0.06406049
0.002333071
-0.078638494
-4.140972e-05
-0.0646983
0.008695909
0.012915522
-0.014092254
-0.018999072
-0.029651182
-0.008059133
-0.09053097
-0.0052441545
-0.048551865
-0.1178704
-0.105521716
-0.043232907
-0.05378592
-0.031953845
-0.07132154
-0.08948387
-0.053852294
-0.022769302
-0.039588924
-0.028233772
0.032949667
-0.11011155
-0.0060186544
0.040054142
-0.0644661
-0.06282663
-0.019026333
-0.10389869
-0.074604176
-0.007901666
-0.067427255
-0.040512517
-0.03849081
-0.07328888
-0.010414835
0.04148295
-0.040131904
-0.0048672403
-0.029797459
-0.05675417
-0.03319453
-0.0006900635
-0.022822343
-0.092453495
-0.06492049
0.008150771
-0.11592687
-0.1072395
-0.054834668
-0.083914526
-0.07912139
-0.013812393
-0.06661908
0.0011545521
-0.02463555
0.048675343
-0.07176721
-0.073733024
-0.004753945
-0.057204627
-0.09511855
-0.071670644
-0.029490625
-0.107798465
-0.013903097
-0.050600775
0.0033428369
-0.072823696
-0.024025826
-0.04771773
-0.04894973
-0.0098558655
-0.03652507
-0.009675784
-0.07751304
-0.058023445
-0.0069185193
-0.006084355
-0.09553616
-0.030283134
-0.03334
-0.100559846
0.036105994
-0.083155245
-0.051683217
-0.0031912713
-0.051636185
-0.0803657
-0.011275319
-0.098410465
0.0029673418
-0.010722307
-0.03189385
-0.0018347158
0.016696708
-0.07340139
-0.031093216
-0.016266752
-0.04837635
-0.10853119
-0.03123283
-0.047482863
-0.11421877
-0.024378749
-0.004394389
-0.030849062
-0.06510185
-0.004032952
-0.067347296
-0.021908376
-0.047687463
-0.056158766
-0.07499733
0.00047386406
-0.038587157
-0.069782965
0.009864068
0.011552116
-0.023633797
-0.110097446
-0.03891676
-0.020828886
-0.09583349
-0.049270675
-0.0030986385
-0.10760878
-0.05756393
-0.11459289
-0.032706685
-0.0020705196
-0.04675286
-0.022465438
-0.09468096
-0.10214668
-0.064869694
-0.049409658
0.032820288
0.0106813805
-0.07638266
-0.011573602
-0.019031696
-0.061347775
0.009568225
-0.06687877
-0.0198841
0.013962121
0.11895074
0.0051096804
-0.051330514
-0.005192468
-0.022104064
-0.06468604
-0.029996978
0.024946664
0.045780633
0.07153765
0.0055361823
0.013123694
-0.02354264
0.033366956
0.0076626907
-0.011600954
-0.116154745
-0.08919457
-0.0208271
-0.11450436
-0.014739922
0.0033994287
-0.085875094
-0.031942777
0.025065929
-0.044216007
0.051847275
0.039036855
-0.04514935
-0.009045426
0.010945388
-0.093264535
0.024640838
-0.070025094
0.029061848
0.06539423
-0.046268284
-0.07783659
-0.019170096
-0.025301348
-0.060838774
-0.009689144
-0.07159766
-0.07492237
-0.06086742
-0.07063168
-0.090470634
-0.033889826
-0.09429077
0.007879658
-0.05031935
-0.038469978
-0.008075372
-0.016149404
0.08928845
-0.029521069
-0.0025492387
0.1141599
-0.065897755
-0.006441265
-0.049337413
-0.015584749
-0.07211257
0.04674776
-0.031135002
-0.013499021
-0.10178832
-0.101944104
-0.11294735
-0.049105365
-0.0058054756
0.045337215
-0.026704932
0.005952802
-0.023281123
0.0021053809
0.03475118
-0.0013983089
-0.02276196
-0.019872645
-0.11638537
0.007364604
0.003989128
-0.014182103
-0.07226506
-0.028257368
-0.11638089
-0.070238754
-0.09902216
-0.03418134
-0.056946624
-0.060331214
-0.08076652
-0.0069679604
-0.012625814
-0.012742101
0.007192533
-0.07064537
-0.1024588
-0.07561627
-0.036169272
-0.016514383
-0.032260865
0.0036878851
-0.026912186
-0.07007334
-0.05523523
0.009795487
0.025252115
-0.087288044
-0.079246305
0.062358115
-0.087905355
-0.016969375
-0.0016573025
-0.0079204105
-0.08297729
-0.021386363
0.0043189577
-0.06981777
-0.04051231
-0.084480375
-0.0442304
-0.05391477
-0.0065826615
0.04990402
-0.06063057
-0.059715275
-0.008889403
0.0012912963
-0.05824677
0.047523014
0.043833364
-0.10488572
0.08631971
-0.040453985
-0.019079952
-0.010939697
-0.034549173
0.0053877383
-0.039711427
-0.0315631
-0.025811858
-0.114161044
-0.053174976
-0.04121606
-0.079581216
0.017670767
-0.05166125
-0.02087135
-0.0038563742
-0.11031141
-0.0551783
-0.002453091
-0.042247556
-0.070622094
-0.07362003
-0.08153085
-0.0063584056
-0.0016658041
0.0019412943
0.07356977
-0.040018648
-0.10061074
-0.06712242
-0.07297692
-0.0064914487
-0.0834136
-0.03799657
-0.008363569
-0.11632681
-0.07308802
-0.021214483
-0.026495816
-0.09582078
-0.039401576
-0.10932367
-0.009040454
-0.008363842
-0.0015426707
-0.039030276
-0.017842878
-0.07279958
0.116187066
-0.03269147
-0.07375406
-0.045074355
-0.11520333
-0.092656784
-0.061898928
0.004413084
-0.046701472
-0.039499458
-0.05199246
0.009555509
0.07113743
-0.10304832
-0.113386855
-0.06605568
0.0007670512
-0.095196344
-0.08172277
-0.029230425
-0.101769015
-0.094779275
-0.11207493
-0.06144142
-0.023657937
-0.0396888
-0.08755836
-0.09399768
-0.06456492
-0.06719775
-0.008531603
0.01672713
0.08152748
0.052977983
0.07771408
-0.02234395
0.046433456
0.0033321613
0.013626541
0.013907418
0.09021558
0.007684118
0.08250113
-0.07430358
-0.06142251
0.025319874
-0.07270091
0.0038138218
0.037534527
0.02839016
-0.010889372
-0.040899426
0.039709385
-0.047129225
-0.034982573
0.055477075
0.04065959
-0.05374343
-0.069588244
0.010796685
-0.033184543
-0.13194016
0.0030052173
0.035511486
-0.10224304
-0.012702816
-0.12849182
0.08635844
0.05945317
0.026044838
0.05648403
0.004452861
0.013818389
0.08946694
0.017576762
-0.03869638
-0.008417901
0.012141525
0.010890666
0.0064954753
0.07789123
0.04200847
-0.016449034
-0.017269699
-0.060644697
0.02974003
0.017274821
-0.037898093
-0.03461286
0.032431014
-0.049824808
-0.00933328
-0.095730975
0.04730782
0.018979223
-0.019255165
0.024380976
-0.10444242
0.028133305
-0.06944017
-0.115625195
-0.014450732
0.02586792
-0.16932094
-0.104354925
-0.03019222
-0.115939416
-0.19152123
-0.0127328
-0.115536235
-0.04853947
-0.09246387
0.09383662
0.094195895
0.064205006
0.07297603
0.0071214135
0.065763645
-0.010053928
-0.0029595022
-0.0073699225
0.09840447
0.020319028
0.03130345
0.014243904
0.010817867
0.034513947
-0.007276112
-0.08538991
-0.05539294
0.046821494
-0.028257236
0.0010135017
0.017461762
0.059245564
-0.0076936875
0.012306953
-0.02450089
0.062507406
-0.03591837
0.011372322
-0.019100871
-0.023774253
-0.019622141
0.006949145
0.018386783
0.00024555568
0.023053283
-0.019243732
0.13496967
-0.0054868194
0.008350566
-0.007939073
0.10628313
0.06008212
0.009765172
-0.08327569
0.11215639
0.16938724
0.123238795
-0.1836576
-0.1827709
-0.039138053
-0.029247526
0.05384768
-0.020816863
-0.029298713
0.07419363
-0.03840441
0.0673882
0.09483729
-0.02823799
0.06703187
-0.020942967
-0.00959879
0.12340086
0.08659397
0.029784145
0.063551866
0.007422237
0.010458341
0.07007628
-0.0052006785
0.016238721
-0.044677064
-0.06147308
-0.041135397
-0.058756433
-0.01821127
-0.08300923
-0.064658746
-0.09783408
-0.030259674
0.049843393
0.016078906
-0.06781494
-0.007999933
0.017829372
0.030143376
-0.013858666
-0.0022688252
-0.012499273
0.032839388
0.13499087
0.009275075
0.080052614
0.070221804
0.13652712
0.12547028
0.022445058
0.052619237
0.04474913
0.07952247
0.022766491
-0.009741987
-0.00652649
0.021083707
-0.050272282
-0.06907503
0.0010138472
-0.047334153
0.023096114
0.030937675
-0.018620186
0.03261665
-0.012205244
0.009556067
0.026114507
-0.06804228
0.008842633
-0.043677814
-0.07705822
-0.050384257
0.0067535024
-0.044954214
0.03403811
-0.079834394
-0.0220075
-0.032748017
0.095040835
0.025716383
0.065864824
-0.017151251
-0.013537611
0.07522311
0.09903755
-0.036870927
-0.026112232
-0.025033252
0.030420914
0.059779026
0.0063031013
-0.058614973
0.04156949
-0.09185085
0.004321387
0.039660286
0.056655724
0.0015791921
0.0050872318
0.031427555
0.09360235
0.08698781
-0.0580095
0.044256687
0.088323124
0.06249285
0.07329757
-0.0076537365
-0.06630079
0.01900828
-0.04835179
-0.024689805
0.010876994
0.10096751
-0.00474116
0.03645128
-0.02122123
0.048023988
0.027883146
-0.025400661
0.029890297
-0.044352517
0.03751943
0.10055765
0.023072664
0.022625053
0.019811677
0.07993271
0.019607913
0.02778562
-0.013282429
-0.08442037
-0.0052232947
-0.12174235
-0.029452989
-0.053797625
-0.10009199
-0.051877547
-0.07675471
-0.02808849
0.11098294
0.10791303
-0.062692076
0.056530595
0.032387227
0.07254722
0.08819965
0.10789659
0.05636258
0.10016844
0.0059192185
0.054532718
0.1099628
0.052115593
0.055109203
0.079056166
-0.077463046
-0.06686865
0.063547604
0.0703044
0.052446697
-0.013672506
0.019440565
0.028962348
0.043500893
0.074562095
0.05610801
0.048192725
-0.0199423
-0.0021378342
-0.05223412
-0.051855046
0.0045482297
-0.02288847
-0.050268754
0.0077661267
0.021944042
0.12568873
0.0748757
0.08516477
0.05168743
0.0245687
0.06821379
-0.0057633854
-0.038769107
0.06709424
0.032004077
0.060590275
-0.0017145299
-0.011467534
-0.020383846
0.07300829
-0.024878327
-0.05530755
-0.0003124168
0.11030447
0.03469919
-0.027484372
0.044697475
-0.017064702
0.04157517
0.045400236
-0.022881232
-0.116245024
0.14411853
0.03325114
-0.14930294
-0.12960714
-0.18082339
-0.06369736
0.006416543
-0.022383012
0.1296935
0.038853195
0.10709309
-0.028915005
-0.050193034
0.034578104
0.00014546413
-0.024389416
-0.0516612
-0.060269933
-0.017900256
0.06672696
0.028454207
-0.03906777
0.0928329
0.059382163
-0.042217616
-0.021601332
0.10672942
0.111578375
0.04086978
-0.015824756
0.011694129
-0.009751748
-0.026224775
0.08284523
-0.027276296
0.03446537
-0.02013088
0.054398064
0.03430468
0.03886972
-0.031927522
-0.030603347
-0.018465111
-0.042284418
0.033095084
0.11615879
0.021545317
0.042863257
-0.0028561098
0.058838997
-0.018616922
0.056665417
0.05503172
0.12517963
0.037332788
0.049453698
-0.027430907
-0.1002028
-0.015211828
0.06098327
0.0024414924
-0.0056685354
0.05961033
0.0049824454
0.05546575
-0.02224553
0.017097004
0.094192475
0.047040273
-0.017693928
0.010795081
0.019648727
0.021680985
0.051960025
0.052973658
0.0634696
0.09487723
0.067766644
0.055465482
0.069258906
0.08327007
0.04383927
0.010331218
-0.00072388985
0.06898896
0.009216078
0.085202426
0.050576814
0.029105227
0.046539996
0.12027648
0.017936395
0.019079031
-0.012968142
0.06423654
0.05729303
-0.013662577
-0.00754628
0.032876894
-0.02941469
-0.020525105
-0.113167726
-0.027731825
0.007005157
-0.08659791
-0.07512177
-0.020174535
0.101088606
0.019127099
0.116809465
-0.0071324813
0.057965994
0.06552133
0.092784785
-0.0015651502
-0.024613857
0.031123979
0.040869165
0.029093316
0.019740406
-0.052200142
0.02803831
-0.008646826
-0.0056427424
0.050437406
0.063823976
0.00030507648
0.016414098
0.020271523
0.024225812
-0.00014168692
0.08737818
0.013971744
0.0009357946
-0.021865847
0.018056333
-0.04770428
0.09629649
0.0790315
-0.00485694
0.01622799
-0.044951018
0.043879285
0.062596284
0.06592213
0.13619097
-0.05373648
0.020226553
0.057068497
0.010601382
0.0133573115
0.0065423204
0.21521977
0.22181267
0.19789833
-0.06737154
-0.103170335
0.19649214
0.06142633
0.05852156
0.12641585
0.056866918
0.080570675
0.07814416
0.057946615
0.05645691
-0.03156914
0.023694852
-0.001532182
-0.0280228
0.07298992
0.06356741
0.08925211
-0.079347014
-0.07103827
-0.00763273
-0.049019113
0.058644146
0.025640871
0.057891734
0.08397099
0.026972469
0.04394016
0.02292248
-0.026905937
0.015266227
-0.024854094
0.04724642
0.073985755
0.11031489
0.02738543
0.068051234
0.114860445
0.060218558
-0.009818404
0.018811537
-0.017627705
0.08206463
0.07181994
0.019777255
-0.0071499133
-0.02793072
0.06597741
-0.023564631
-0.06038117
0.068912394
0.097435564
0.009479014
0.117685355
0.025628278
0.035322312
0.042859375
0.028840264
0.07271547
0.033806104
0.04559023
0.069280095
0.017710978
-0.046985816
-0.014317078
-0.0020552138
0.021647926
0.08209751
-0.00050698535
0.06943976
0.019944934
0.03654828
0.07034487
0.041924924
0.06433173
0.108748466
0.061256494
0.06722397
0.0006350415
0.11210243
0.0030781557
-0.011074611
0.009749257
0.09713113
0.00022655091
-0.008053817
0.0681394
0.37471065
0.32445472
0.29149294
0.027966615
-0.029562932
-0.029653426
0.023843605
-0.08374323
-0.15934786
0.40220118
0.26508865
0.16564624
0.09200033
-0.003484099
-0.09693954
0.03001574
-0.046139486
-0.14936979
0.03303743
0.008822315
-0.029796757
0.034657367
0.06036169
-0.025749667
-0.02258804
-0.04396703
0.0024523898
-0.049214095
-0.056676243
-0.0996397
-0.18569341
-0.10293211
-0.23689868
-0.15688357
-0.23490919
-0.30853805
0.4957029
0.2787365
0.25766614
0.07635816
-0.029966054
-0.04854696
0.037473843
-0.0471756
-0.12753542
-0.031716265
0.009322352
-0.057481337
0.0373777
-0.006937032
0.05655338
0.050974123
0.00684256
0.006243203
-0.08135146
-0.049876202
-0.06817052
0.011845579
-0.04039412
0.021458447
-0.044970356
0.03867309
-0.051692314
0.084766746
0.058354847
-0.08933694
-0.05533184
-0.13284642
-0.08857035
-0.13482016
-0.13558246
-0.20935135
0.018665906
-0.17946462
-0.22762299
-0.2034783
-0.2919377
-0.22592695
-0.2449762
-0.28261775
-0.19167827
0.38885924
0.2779061
0.2844995
0.043084584
-0.035536204
-0.098012455
0.031690292
-0.11340812
-0.15187994
0.447529
0.27740383
0.14935724
0.030116651
-0.05800368
-0.039301384
-0.043445498
-0.08861262
-0.053937998
-0.10100602
-0.07969691
-0.0006652234
0.017298434
-0.091207035
-0.0059620505
0.0008334742
-0.025664417
0.108698234
0.013306932
0.09170719
