Key: /conv2d_22/conv2d_22/bias:0, Shape: (20,)
0.0029387318
-0.0068786684
-0.004239578
0.0062499074
0.011626274
0.0013654984
-0.022987412
-0.0015304296
-0.044235088
0.0042641386
0.030711215
-0.033394076
0.011583098
0.0047742976
-0.0046398407
-0.00014704271
-0.00062461523
-0.017233962
0.019524485
0.025659721

Key: /conv2d_22/conv2d_22/kernel:0, Shape: (20, 3, 3, 3)
-0.09143354
-0.05836679
-0.15124886
-0.020778872
-0.11987895
0.017081104
0.05285376
0.12037232
-0.05854455
-0.12724748
-0.17334397
0.063894525
0.16725913
-0.12926677
0.050581653
0.18141006
0.11530539
0.104934335
0.1469352
0.040377893
-0.08526331
0.004964762
0.11123705
0.1832507
-0.06649762
0.07325677
-0.15345499
0.16853875
-0.15384856
0.05070265
-0.04599639
-0.10652875
0.18202974
0.0036929843
-0.12782401
-0.057561133
0.10230704
0.058307216
-0.13847747
-0.07680175
0.004691905
-0.13408418
-0.1371452
0.14314112
-0.06798235
0.022849165
0.16129977
0.036885366
0.007142258
-0.0036224052
-0.055840112
-0.15296876
0.09756257
0.14119437
0.16250053
0.009291774
-0.012755809
0.045856338
0.021632576
-0.0036375795
-0.04538994
0.07080841
0.08726821
-0.1103711
-0.12680757
0.06426574
-0.1939954
-0.07386503
-0.0052594705
-0.031370603
-0.11665603
0.15273553
0.1375952
-0.08848795
0.05465793
-0.10085298
0.12759617
-0.032380603
0.12194374
-0.03439445
-0.13107426
-0.108714804
0.13956705
0.10623426
0.07658795
-0.036752455
0.058534414
0.09409042
-0.2160947
-0.13830222
0.14112179
0.12200198
-0.044713218
0.15065172
0.10528827
0.07690046
-0.19128872
0.07073264
0.012435157
0.14648527
0.15805885
-0.015045386
0.072316684
0.013003259
-0.06955496
0.08672048
-0.09936631
-0.16512886
-0.14833327
0.15390927
0.17858648
-0.15807503
0.02154471
-0.080406845
0.10440225
0.0488206
-0.032754023
-0.12329775
0.108281955
0.10176598
-0.15779984
0.020587206
0.151943
-0.009060504
0.050891288
-0.052333575
0.06272088
0.009156141
0.033572208
0.046937633
0.04391483
-0.077911824
-0.10562802
-0.18080464
0.0019445468
0.15236494
-0.11576128
0.012092774
-0.14893982
-0.016970169
0.18421756
0.033246182
0.12764151
0.017724607
0.029915165
0.19724087
0.04858242
0.047095455
0.14199045
0.031499047
-0.14291587
-0.10339865
-0.026987154
-0.084219456
0.033776816
7.6612836e-05
-0.19228418
-0.14600977
0.0051121726
0.07128682
0.04876903
-0.06302862
0.06952227
-0.089447886
0.0060757375
0.08776549
-0.18000387
0.12369056
0.12526903
-0.08381236
0.13133577
-0.0685521
0.16023697
0.02253476
-0.10900197
0.123595886
0.08964883
0.083741575
-0.08512812
-0.021972828
0.0663235
0.019413186
-0.044097945
0.019002063
-0.14434244
-0.08620879
0.08992234
-0.040469695
0.038943015
-0.16345888
0.063724406
0.19429839
-0.1209538
0.14380041
0.006350907
-0.07683979
0.0862477
-0.009019187
0.104491115
-0.14452206
0.04515326
-0.044534452
-0.129243
0.00751895
0.12234345
-0.075251356
-0.13530289
-0.0016432197
-0.05544098
0.1498409
0.028682822
-0.15646291
-0.16631973
0.154757
0.14247616
-0.09629164
-0.009764226
-0.17329729
-0.037340015
-0.107439965
-0.0003811607
-0.00941361
0.0917667
0.07555764
-0.06924989
-0.1544459
-0.06669445
0.05620068
0.08801488
-0.09389023
0.044770263
0.073079154
-0.13667497
0.1020966
-0.0022884195
-0.00097896
0.06352813
-0.14383611
0.10048621
-0.15852065
-0.16296512
0.004791318
0.040258273
-0.17622852
0.07736572
-0.105603546
0.054738346
-0.084383756
-0.11182297
0.114221975
-0.04071286
-0.10289993
-0.17445874
0.05178918
-0.025134496
-0.124505095
-0.14961778
-0.11047203
0.17014895
0.060494516
0.1979863
-0.12476832
0.14512496
-0.06744242
0.14459649
0.04582298
-0.09909632
0.06974113
0.08139968
0.13425563
0.11570364
0.12234468
-0.042424664
0.008135377
0.010261561
0.15193838
0.011914661
0.18847172
0.018232228
-0.13399011
-0.032991447
-0.101562224
-0.015088723
-0.0767993
0.05777723
-0.11940299
0.016256211
0.16799533
0.06866799
-0.01133002
-0.1107399
0.01014004
-0.080711715
-0.0023338604
-0.15586668
-0.05636573
0.08943359
0.051667575
-0.12841782
-0.15671563
-0.06520015
0.14732695
-0.058565013
0.009743595
0.031787895
-0.02990663
0.039353866
-0.100520976
0.050061647
0.114950694
0.046015196
0.08766334
0.10532807
0.12406871
0.156667
-0.06123892
0.052949384
-0.02217202
-0.14368208
0.13255098
-0.097902656
-0.1630261
0.12302465
0.13726327
0.01760414
0.093289256
-0.015481492
0.122140065
-0.036999173
0.18254043
0.17182009
-0.020014511
-0.06848296
0.060150612
-0.108350754
-0.046246383
-0.10476395
0.06382598
0.104691386
-0.042599376
-0.026758766
-0.080052234
-0.15193398
0.04809279
0.09298703
0.06563859
-0.04011955
0.08881536
-0.16105056
-0.15229952
-0.0005823504
0.030960983
-0.12608145
-0.13072662
-0.16488862
0.0854421
0.14109442
0.15607928
0.05106728
0.16547851
-0.0030948776
-0.048203718
-0.015579976
-0.020081494
0.0042437254
0.12622601
0.04524058
-0.10004829
-0.14552934
-0.052841865
0.031509634
0.062304787
-0.07978558
0.156768
-0.13278872
0.065181606
-0.1199169
-0.120807804
0.07810461
0.12867066
0.08266822
0.004328936
-0.042701796
-0.08498976
-0.11012672
-0.16530253
-0.029714199
0.003886376
0.12660258
-0.07325662
0.085846156
0.051343136
-0.16530897
-0.15878743
0.097786255
0.120068446
-0.10640719
-0.021064766
-0.014906753
0.18054084
-0.010024254
0.06757258
-0.06767518
-0.18189016
0.11871783
-0.12570208
-0.1854436
0.017722823
0.026048826
0.18823384
-0.093027726
0.049800042
0.10426651
0.048676174
0.086771674
-0.11194255
-0.14096068
-0.10385557
-0.05043036
0.11722593
-0.04958232
0.11718134
0.015177273
-0.119464435
-0.13248958
0.10025715
0.05891113
-0.006777099
-0.010804055
0.19696571
-0.07202801
-0.07079121
0.021192187
0.0063131093
0.045856383
-0.11931055
0.11568753
0.067480095
0.17587817
0.07249289
0.07697435
-0.09707347
-0.0987567
0.012108135
0.0089939125
0.05617514
0.09770298
0.112002105
0.19464098
0.018658351
-0.16274537
-0.08458269
-0.08040984
0.03828085
-0.048180293
-0.1095707
-0.033908572
0.09704332
-0.071027264
-0.10739067
0.030233912
0.02956015
0.04169065
0.05877286
-0.068696864
0.045673463
0.13930134
-0.17110303
0.086419694
-0.042643283
-0.14614195
-0.15603667
-0.10325616
0.103146516
-0.013911564
0.06339994
0.14047427
-0.10551252
-0.058060337
0.020976255
0.08729882
-0.038476918
-0.07213405
-0.050018337
-0.18369262
-0.16000612
-0.11756058
-0.13818835
-0.112702385
-0.09472824
-0.0750256
-0.00614603
-9.448164e-05
0.027891751
0.0013612116
0.032047305
0.06764568
-0.114744484
-0.040934842
0.19124891
-0.13922638
0.01788144
0.13467985
0.06913904
-0.020542648
0.036004554
0.08968343
0.032918587
0.10488893
0.046296086
-0.101309106
0.13507701
-0.14713165
-0.036068045
-0.048970655
-0.022757081
0.067592874
-0.015818974
-0.02606686
0.015480306
-0.00012974105
-0.0788326
0.050947383
-0.059940748
0.0049684257
-0.053542692
-0.087103225
0.0762895
-0.035885505
-0.089711
-0.13312949
0.18526682
0.0113912355
-0.0969006
0.18828279
-0.021489222
-0.075645655
0.039074127
-0.1532704
0.08897187

Key: /conv2d_23/conv2d_23/bias:0, Shape: (10,)
0.0022180902
-0.017595824
0.05724145
-0.0048687784
-0.018735114
-0.0017914465
-0.016095694
0.01863685
-0.020359214
-0.001269509

Key: /conv2d_23/conv2d_23/kernel:0, Shape: (10, 20, 3, 3)
0.057329334
0.07744151
0.15315767
0.023144178
-0.048190277
-0.005632907
-0.0626499
-0.1607263
0.01753114
-0.0294377
0.09217686
0.09741754
0.080339395
0.037300877
0.04191053
0.14553538
0.13114573
0.06526346
0.039819527
-0.12903227
0.09364118
0.013774019
-0.03967743
0.10071234
-0.002734959
0.049242914
0.071928
-0.14749783
-0.03653798
-0.08502815
0.13345657
0.11749434
-0.045773346
0.13052131
0.09623785
-0.04368815
-0.20484729
0.04273912
0.06239149
-0.030499617
0.039101936
-0.12253151
0.15261024
-0.057816535
-0.1445035
-0.13544306
-0.085749276
-0.0111269755
0.0016091748
0.14231472
-0.12131559
0.09586369
0.12260383
-0.124055415
-0.10058556
-0.045142833
-0.053475406
-0.09379105
-0.13327165
-0.06482042
0.02095712
0.10998546
-0.107823394
-0.1371231
0.09145888
0.17804861
0.098075554
-0.12522976
-0.08865549
0.17352691
-0.059873015
0.10034138
0.037576936
-0.09142308
0.04176227
0.12725326
-0.03139593
-0.12328758
0.13124123
-0.020418547
0.08865048
-0.1121431
-0.087445736
-0.08252995
-0.06842808
-0.10682077
0.04987365
0.053197112
-0.08341282
-0.18619002
0.05993025
0.124683686
-0.11562072
-0.07154402
-0.052094515
0.054230116
-0.1018356
0.11227549
-0.0032406773
0.07106274
-0.108373895
0.048427932
-0.07788766
-0.061339065
0.04847371
-0.08487244
0.07738853
0.07100517
-0.1038973
0.06580616
0.14471315
0.16099478
0.103753656
-0.073325835
-0.064419396
0.067012645
0.074706525
-0.024977421
0.0064728796
0.1994157
0.14355014
-0.003432107
-0.065341294
0.042556163
0.2138556
0.13404289
-0.019825272
-0.079951555
-0.11623949
0.19390395
0.18049829
-0.025606995
-0.041061085
-0.0033771605
0.108822815
0.033836212
-0.0511989
0.07383316
-0.08471183
0.080800146
0.14769265
-0.0689714
0.015995573
-0.037399486
0.12976171
0.13315785
0.120432876
0.08104152
-0.086197965
-0.06811946
-0.15842699
-0.085691035
-0.16395235
0.1416831
0.081066415
-0.09926522
-0.1090347
-0.028774934
-0.12689622
-0.06206347
-0.07960144
-0.031115057
0.07828716
0.034309134
-0.0088911615
0.0058767274
-0.005075286
-0.12394074
0.020424102
0.043060422
-0.08607906
0.015387768
-0.11601741
-0.08398645
-0.08474091
-0.087374024
-0.13999802
0.05263419
-0.11663665
-0.22065337
0.122165084
0.108811766
0.051359344
0.02690341
0.030804506
-0.05480744
-0.1328591
-0.04279283
0.03344916
-0.11845876
-0.065360285
0.1140785
0.096756406
0.056613646
0.062862284
0.082324676
-0.07666925
-0.0013146033
-0.031991165
0.05880158
-0.11971368
0.001235957
-0.026887568
0.0019217816
0.123558626
0.031052217
-0.10214763
0.07067562
0.06548739
0.12252427
0.112159446
-0.03353759
0.13209361
-0.16277032
-0.02100507
-0.006134498
0.10770393
0.16994306
-0.056857765
0.022856265
-0.0849117
-0.029767023
-0.03875027
-0.037842695
-0.06627888
0.07182341
-0.10679557
0.137179
-0.08754543
0.15654215
0.024017029
0.06338415
-0.1262757
-0.01121982
0.04074272
-0.026844794
-0.11685218
0.068552576
0.13345179
-0.042001538
-0.034560334
-0.08543281
0.025056824
0.08382405
0.17567633
0.0826006
0.017711742
-0.018049195
0.21875803
0.07333476
0.17420386
0.09345417
0.0027238796
-0.15338698
-0.04886751
0.028074067
0.12985075
-0.12179009
-0.02015185
0.10980676
-0.11695441
-0.10997917
-0.123427026
-0.05214353
0.065835044
-0.0057940725
-0.06755731
0.0018986043
0.19827934
0.10471157
-0.09077598
-0.04907666
0.12337417
0.049493846
-0.07948044
-0.13850273
0.001600796
-0.09947876
-0.007458836
0.0512634
-0.09860444
0.12850565
-0.02005077
-0.120225064
-0.109188944
0.0740437
0.004399155
-0.15703179
-0.0029431768
0.16759995
0.019375347
-0.07937306
0.11418013
0.0056267045
0.022458348
-0.15621091
-0.015105202
0.105356134
0.15858644
0.19468468
-0.006839355
-0.042786043
-0.053582247
0.012162139
-0.050491676
-0.009157503
0.15395649
0.13376184
0.14062265
0.15074839
0.12763287
0.06850557
0.12642398
0.14818981
-0.04412421
0.11619268
-0.096251026
0.15921855
-0.0803186
-0.12812027
0.07443698
0.111062676
0.10162752
0.03705397
-0.017959412
-0.07176058
-0.011972152
0.043774106
-0.12071695
-0.0093982145
-0.08708868
-0.054275513
-0.0061961925
0.062392782
0.04486479
0.013967966
-0.1555966
0.11346187
0.03871044
0.07545342
-0.104934074
0.073854156
0.032939468
-0.08113735
-0.04106875
-0.09037827
0.012986627
0.043082945
0.010117991
-0.022033272
0.05993688
-0.14356352
-0.010277538
-0.07795682
-0.2122718
-0.048207443
-0.015241077
0.03913986
-0.01559333
-0.051432516
0.018803103
0.07868248
0.08539981
0.092179395
0.014063313
-0.0075317463
0.16216856
0.082656205
-0.076023035
0.0035932963
-0.11540336
-0.15164883
-0.07874862
-0.13888751
0.08131808
-0.095284745
-0.10561483
-0.037534643
-0.12452886
-0.044870585
-0.11420805
-0.10296306
-0.09231235
0.05815579
0.009095808
0.03591668
-0.073252894
0.13193731
0.1187147
0.1200259
0.14229944
0.096810855
-0.17912357
0.185311
0.09969288
0.13829099
-0.010346009
-0.17540444
0.0770261
-0.08047523
-0.12419763
0.102192126
-0.090606384
0.035705753
-0.038285814
0.038928363
-0.015959581
0.07523948
-0.05383334
-0.10236629
-0.06678896
0.10395727
-0.015313984
-0.13436848
0.16427927
-0.09407926
-0.14208525
0.12400146
-0.060776543
-0.043409392
-0.08427887
-0.047518365
-0.042550474
0.080037996
-0.11182884
0.13877888
0.0896135
0.028378272
-0.12107903
0.07294339
-0.07959959
-0.13356109
-0.06252145
-0.04688669
0.1122525
-0.08613293
0.097021244
0.08803796
0.124977365
-0.09029392
-0.048573114
0.107730694
0.10628189
-0.07357976
0.052828766
0.12785268
0.07252961
-0.05714435
-0.08334708
-0.123562984
-0.021724135
-0.026438685
0.08716547
-0.10430962
-0.115337394
0.12612155
-0.119192526
-0.025348682
-0.11084582
-0.026227767
-0.10533088
-0.11073869
-0.01604813
0.008893989
-0.11487721
-0.041348204
0.0566041
-0.052231584
-0.12770413
0.086037464
-0.13330123
-0.16626582
0.00035599215
0.07195691
0.055391807
-0.012845946
-0.041472618
0.09820439
-0.12755287
0.046771877
0.12648998
-0.09964657
0.08772835
0.11933701
0.043703232
-0.04479989
-0.1376151
0.0038493995
-0.13703206
-0.15224357
0.063437
-0.18975247
-0.040687725
-0.061676342
-0.008997898
0.0056275707
0.13012548
0.11584071
0.021773538
0.20764528
-0.05466921
0.08269582
-0.028359018
0.06257346
-0.09421978
-0.14669006
-0.079993926
0.029482167
0.03551044
0.016273445
-0.07803169
-0.11656417
0.09289047
-0.035932273
-0.010040758
0.09776995
0.01581033
-0.072192505
-0.0191965
-0.0072980216
0.04075467
-0.08489774
-0.035540458
0.038741287
0.110339925
0.04151556
0.02950352
0.27845347
0.07245983
-0.017579032
0.02217576
0.2597593
0.080117285
0.054789145
0.03290911
0.043903615
0.045295075
0.22314537
0.08311393
-0.058479257
0.00029063644
0.04783595
-0.06896913
-0.11142824
-0.059445523
-0.1093606
-0.10525785
-0.0052526016
0.07994406
0.1645595
-0.04727762
-0.08484466
-0.064260274
-0.062015202
0.18767314
0.13383101
0.05901007
-0.05442918
0.05408928
-0.10123302
0.07704138
0.012658098
-0.012436758
0.042259406
0.033053137
-0.022282515
0.14370485
0.14653546
0.01811782
0.018558541
0.14365067
-0.0038436565
0.09491633
-0.1854651
-0.13731271
0.10130991
-0.038796935
0.0018295519
0.03644037
0.101506226
-0.07885832
-0.082974575
-0.032686956
0.057813045
0.16463873
0.02873444
-0.09780553
-0.09678226
-0.09657224
0.015303543
0.108161986
0.01025395
0.07795653
0.12716924
0.028054494
-0.016799076
0.12482695
-0.15841118
0.06542042
-0.051218964
-0.059606556
-0.12872267
0.10872536
0.05789181
0.07614211
-0.01618926
0.024736496
0.036546547
0.07754162
0.120071605
0.10693475
-0.013481372
0.14902885
0.011326522
-0.08807414
-0.10265679
0.00018609858
-0.02494543
-0.041769706
-0.014101916
0.023341771
-0.045278482
-0.05896613
-0.09004982
-0.008564539
0.08616578
-0.101924576
0.180113
0.1835604
-0.05931421
0.0027670027
0.076901406
0.06847101
-0.1287079
0.15449432
0.11686638
-0.05289626
-0.06318924
0.13158974
-0.08617287
0.14967258
0.08998023
-0.11598916
0.049670912
0.1641028
-0.1639118
-0.0043256045
0.14006571
0.062557824
-0.056304052
-0.107024744
0.15116356
-0.102354124
-0.024884274
-0.14171085
0.0715974
0.12967812
-0.13089761
-0.17264386
0.021875849
0.04226303
-0.19149782
0.05118058
0.0007906732
-0.048116777
0.073435366
-0.00011716333
-0.010492233
-0.100297734
0.21631804
0.2278242
0.20739521
-0.040613577
-0.19706777
-0.0006512311
-0.13862118
-0.057502143
-0.08201823
-0.13873452
-0.13029465
0.11921071
-0.07244888
0.046505712
-0.0019526066
0.11048197
0.121402256
0.07369798
-0.08588637
-0.14872406
0.11976348
-0.016631702
-0.10596328
0.007179192
-0.010731268
-0.05801089
0.14340135
-0.04297571
0.05081916
-0.12937924
-0.0901135
-0.0048151957
0.03350223
-0.09490939
-0.10432957
-0.05751078
-0.114699915
0.021382555
-0.07989686
-0.12572728
0.06692986
0.009983223
-0.04323535
-0.1292494
-0.109348044
-0.058536615
-0.09679696
0.13502416
0.12142201
0.12615605
0.11954828
-0.022207454
-0.0490442
-0.018350547
-0.05724151
-0.04600918
-0.07779077
0.11751192
0.1390758
0.0654238
-0.07312648
0.1462485
0.17532209
-0.10454083
0.16750892
-0.0760444
0.07099697
0.06266043
0.00787894
-0.017856037
0.092081636
0.122313246
0.05654736
0.06800719
-0.0025391998
0.103980735
0.1331546
-0.09154814
0.13489652
0.12716962
0.15711911
0.07554493
-0.023622546
-0.012914977
-0.048009086
-0.122654125
-0.1338239
0.11534668
0.018740594
-0.035797227
0.13089041
0.10891885
-0.025336305
0.07745624
-0.03664023
0.06937904
-0.011788781
-0.07311113
0.004806309
-0.14001784
0.024980154
0.01990194
-0.0016826041
0.059268333
-0.12756737
-0.12346813
-0.09334468
-0.11479308
0.055097904
-0.051264763
0.00875786
0.059823845
-0.016365264
0.07871168
0.19568914
0.025099533
-0.06279896
-0.036257822
0.06620671
0.05455235
0.14288141
-0.01934667
0.1622701
0.011840363
0.042669337
0.08459994
0.10048063
-0.063250214
0.09467059
0.056641158
-0.12596081
0.11522046
0.040556125
0.12891999
0.06011417
0.058213808
-0.00010519034
0.07685913
-0.08223501
-0.055734724
0.03354952
-0.09087368
-0.08875238
-0.09879966
0.112079404
-0.048269145
0.00038607273
0.11006027
0.059668913
0.12567395
0.015927417
-0.023772791
-0.08065978
-0.104799315
0.038838584
-0.1027562
-0.13368972
0.14614569
-0.024526319
-0.071084924
-0.016926503
0.08956875
0.095655255
0.049038827
0.009486949
-0.067783765
-0.1282603
0.10766638
-0.0370186
0.14567873
-0.03509684
-0.049505785
0.00040677187
-0.024920005
0.08345375
0.20427437
0.10741605
-0.03161909
0.22407627
0.104402155
0.20174286
-0.023833968
0.122864
0.2013652
0.14265601
0.07180613
0.16923511
-0.04324826
0.11639035
0.003516049
-0.097366534
-0.030051982
-0.013639707
0.035421062
0.027996432
0.03210405
-0.16706403
0.06552016
-0.051469788
-0.15197974
0.074931145
0.050553508
0.044641804
0.0208963
-0.054028854
-0.07084359
-0.11329827
0.10551327
-0.13193645
-0.06625891
-0.050434485
0.14626382
0.13806622
-0.1324916
-0.2093807
0.062353287
-0.092942946
0.0135349445
-0.13018799
0.08844228
0.061180227
0.14673519
-0.018095803
0.058979157
0.08248382
-0.04428542
-0.11741542
-0.004786792
-0.1366542
-0.18984857
-0.17544703
0.13820432
0.0053981203
0.013301013
-0.06833807
0.0013271235
0.09239783
0.03187825
-0.070576765
-0.021262486
-0.13127464
0.059079245
-0.11417813
-0.12373161
0.06962744
-0.048902728
0.0073270393
-0.02538689
-0.044825926
-0.08375151
-0.05371179
-0.13858923
0.04325347
-0.02584927
-0.05017921
-0.03415126
-0.032451164
-0.050121356
-0.14248498
0.11625742
-0.045617804
-0.08774049
-0.0011368454
-0.002413507
0.12828378
-0.100146905
0.033040732
-0.10322754
-0.115033805
0.085398
-0.16113308
-0.029596953
0.052850943
-0.12972362
-0.077422224
-0.119046524
0.0016683417
-0.14130162
-0.07527485
0.116443135
0.03846601
-0.10388861
0.06758825
-0.0673235
0.15294313
0.02734417
-0.08052252
-0.018198045
-0.064439796
0.101691164
-0.043201007
0.00796195
0.10026842
0.054077115
-0.0024224909
0.0010362864
0.11879813
0.07673865
-0.12769392
0.013242011
-0.062558234
-0.0848392
-0.12438815
0.0959929
0.021989204
-0.070880115
-0.11829249
-0.09612767
0.09811267
0.037157044
-0.043723222
0.09883511
0.10904109
0.10111629
0.14351438
0.107350186
0.107147194
0.16717191
-0.001031505
-0.15971442
0.09726313
0.05473733
0.0025002537
-0.03918245
0.140231
0.043519735
-0.10124101
-0.10309625
0.04697799
-0.100069135
0.12994897
0.023311375
-0.13957709
-0.1067118
-0.019102903
0.008123757
0.012970686
0.1184372
0.12767172
-0.061332736
-0.083313026
0.07969323
0.048095748
-0.004592131
0.08091461
-0.010541654
0.108528346
0.020113202
0.13843478
0.2186857
0.11128667
0.057879746
0.14428464
0.15067407
0.025046818
-0.0336503
0.017401433
0.1557899
-0.13094519
-0.00984315
0.053424235
0.034667548
-0.053295027
0.04229468
0.088862486
0.036588654
0.04317868
0.14812434
0.14134179
0.072394684
-0.02953583
0.14867091
0.09903364
-0.09338849
-0.0053638923
0.12385009
0.093178086
0.13984767
0.114402466
-0.11930963
0.095135115
-0.12389923
-0.07004446
-0.08355511
-0.11147058
0.109549545
0.035884857
-0.09720078
0.012015761
0.13937818
0.05513946
0.010784505
0.12697928
-0.14445426
0.054413512
-0.06555052
-0.10657232
-0.036913738
-0.008958942
-0.17252092
-0.18062364
-0.11107456
0.05272864
-0.0875986
-0.1433412
-0.07444698
-0.10681775
0.059023697
-0.013962216
-0.106241085
-0.21999887
0.13615872
-0.039874624
-0.0033180106
-0.11893585
-0.16540946
0.079195045
-0.14659414
0.057694856
-0.122596025
-0.080027476
-0.12992908
0.12471493
-0.13424845
0.077814154
-0.06557907
0.1228005
0.06996622
-0.043269202
0.10944831
0.12431825
-0.044830043
-0.10259531
-0.14583986
-0.0006772167
0.0036418897
0.10476913
-0.18453877
0.13522597
-0.04605173
-0.052875243
-0.07241527
0.07035536
0.06382934
0.08775655
0.07908762
0.12066303
-0.0057304734
-0.049837872
0.09630457
-0.10772325
0.12556519
0.11766997
-0.041495595
0.06734023
-0.039139554
0.14665902
0.008029948
0.044947583
0.041205153
-0.02240504
0.09239813
-0.061197974
-0.068420626
0.02242274
-0.0976421
-0.06616397
-0.09166796
-0.091454245
-0.15919085
-0.051712267
-0.08703366
-0.012645612
0.112588555
0.21388374
0.026452549
-0.15334927
0.1372213
0.22687544
-0.009075664
0.07092772
-0.08867025
0.16294086
0.12928437
0.012330196
-0.09158719
-0.0519698
-0.0066822083
-0.086355895
-0.022323681
-0.14997675
-0.057185262
0.15106691
0.069055445
-0.03582386
-0.010663035
0.07705015
-0.12282275
-0.061157804
0.064482436
-0.007623895
-0.01367849
0.107888564
0.04909052
0.04929858
-0.1291951
0.06359507
0.026403505
-0.030865172
-0.12499158
0.00038298193
-0.13494699
0.15138702
0.054868333
-0.026175717
-0.16772634
-0.12299077
0.021388067
0.052900735
0.13974243
-0.06950519
0.022123123
-0.15547863
0.054966617
-0.035458747
-0.053089887
-0.14743975
-0.06524695
0.051818024
-0.019391127
-0.051713288
0.013241648
-0.1545642
-0.048835006
0.12943162
0.15232544
0.10591363
-0.058626927
0.044028617
-0.042529505
0.12591243
0.008009427
-0.1287513
-0.032144606
0.040230572
0.06395772
-0.08500123
0.14403206
0.075678386
-0.09095225
-0.035233248
0.08771581
-0.040834215
0.048500773
0.04530553
-0.10668561
0.019495474
-0.071709454
0.094803005
0.024617935
-0.051249556
0.09347379
-0.1332014
-0.03840347
0.050016884
-0.009212876
0.06312219
0.12838845
-0.14431049
0.038535565
-0.029073756
-0.11684928
-0.12663256
-0.16103862
0.117575064
0.06018275
-0.011451724
0.084041424
0.045035694
0.034512054
0.053306255
-0.16201772
-0.029401677
0.021163866
-0.082813315
-0.04900564
-0.1968124
-0.057996336
-0.07777397
-0.10069451
-0.019170344
0.16184142
0.14315313
-0.10803671
0.16237889
0.0131658185
0.11802297
-0.05108603
-0.014061722
0.034507617
0.13415702
0.07146446
-0.14456353
0.13119537
-0.16814405
0.13729246
-0.017880714
0.15184428
-0.023071917
0.09242665
0.12804198
-0.15342441
-0.054085452
-0.023819232
-0.09857462
-0.10800143
-0.12399462
-0.039205488
0.057135273
-0.058464542
0.025490519
0.038438316
0.0008892852
-0.0028014083
-0.010587716
0.14977771
-0.05302193
0.0069048437
-0.16409132
0.11845197
-0.1451399
0.11901605
0.11361707
0.070302874
0.059623603
-0.11282311
-0.0906718
-0.022595318
0.11576921
0.023454575
-0.02395802
0.02500323
-0.038962815
-0.07939208
0.017880447
0.112737656
0.043919858
0.078854434
0.056496643
-0.019880163
0.008848966
0.056730885
0.009517176
0.105936855
-0.15104075
-0.10055642
-0.105553366
0.05500357
-0.18299894
0.05878926
-0.071128055
-0.058020458
-0.19214706
0.0020687468
-0.11505512
-0.03246862
0.05841788
-0.12591451
-0.048512124
0.03763061
0.08766468
0.12304923
-0.056977674
-0.16064881
0.010398722
0.12202519
0.019888612
-0.04722002
0.118364215
0.02303175
-0.03215237
-0.0821924
0.055020396
0.14468898
-0.06865056
0.054726668
0.19751145
-0.07409141
0.1443503
-0.07457232
-0.11851601
0.061674975
-0.0021698177
0.040232703
0.072437085
0.1151144
0.011062458
-0.13990918
-0.071218245
0.11583724
0.08397624
-0.051446896
0.11182681
0.119010374
0.16284417
-0.11864957
0.07882519
0.086914875
-0.083220355
0.019854026
0.1305215
-0.121372126
0.14483967
-0.08990632
0.029661926
-0.13946427
-0.042464938
-0.025203794
0.13601999
-0.10121235
-0.15984398
0.069828466
-0.06304728
-0.0741265
-0.022505783
-0.12387756
0.08419878
0.042346783
0.16565241
-0.026218439
0.08550572
-0.08903729
0.14119455
-0.038546544
0.119579084
-0.11565291
0.12743017
0.16452771
0.034899555
0.07065568
0.072427295
0.12188365
0.020215737
0.13397197
0.04332187
-0.06965267
0.14104234
0.05743765
-0.12003499
0.0042869574
0.11764826
0.03859019
-0.1375087
-0.053834017
-0.16447006
-0.18438871
-0.1199557
-0.019192092
0.04457639
-0.13498724
-0.13183859
-0.21598582
0.021238709
0.008754332
-0.013760069
-0.07813253
0.07031815
-0.03866344
-0.06976182
0.018493928
0.06006918
-0.13976975
-0.16753936
-0.098001845
-0.15238585
0.0263826
-0.12633602
0.035494156
-0.02841876
0.11739653
0.16120267
-0.07479606
-0.009172912
-0.08708631
0.05458459
0.12718278
0.15780026
0.15691245
-0.15303725
0.023046007
-0.13238667
-0.03291032
-0.02234979
0.11282858
0.021817965
-0.14938167
0.086677246
-0.13425113
0.08454446
-0.08369243
0.14786334
0.116769254
0.060193527
0.062257186
-0.015067514
-0.004289256
-0.050359316
-0.069169976
0.04444969
-0.10578032
-0.047435373
-0.018518103
-0.08286589
-0.15790242
0.07114741
0.155696
-0.109049074
-0.018614491
-0.028153986
0.075810365
-0.035693325
0.05940517
-0.046431098
-0.03437403
-0.081435926
-0.030362602
-0.059722994
0.063110396
0.13040197
-0.017249603
-0.010750162
-0.10250302
0.068327814
0.084199846
0.096932374
0.122092165
0.07668947
0.11598442
0.038414136
-0.06765317
0.17073534
0.1579355
0.10379968
0.015211769
0.07533484
0.043104254
-0.01861981
-0.055016097
-0.032763723
0.09319291
-0.049688317
0.002347597
0.017104656
0.10840099
0.16564792
0.02546217
0.12168589
-0.024250483
0.051977586
0.10667292
0.16768393
-0.100865796
0.02619395
-0.038476158
-0.12621891
0.1398202
0.059887394
0.16868582
-0.11742556
-0.049585596
-0.094577394
-0.0063929562
0.06769667
-0.008396711
-0.15797418
0.12101505
-0.06806383
0.10706869
0.073888436
-0.059417233
0.046739046
-0.03195764
0.06369545
-0.1521498
0.03683107
-0.012396345
0.08487112
0.03797224
0.1341771
0.07173837
0.039167833
0.025992291
0.13573186
-0.081414476
-0.08731405
0.20996155
0.1934582
0.0044756643
-0.046096638
0.23769273
0.06017012
0.14229363
-0.044377614
0.18901332
-0.06611865
0.0248645
-0.13566148
0.065693595
-0.12711658
0.035363916
-0.06021443
0.0018284936
0.006581457
0.069334544
0.018879887
-0.13372794
-0.0130033735
-0.011104284
-0.07977587
-0.0061695785
-0.11385233
0.0036352545
0.114618264
0.046591356
0.106418595
-0.09186785
-0.08445625
-0.057409763
0.0071696364
0.05742218
0.034920026
0.04313546
-0.0021561848
0.06937457
0.026756251
0.1487357
0.12062837
0.060707096
0.011485157
0.119404
0.050770573
-0.03383656
0.00760862
-0.0020274888
-0.19313678
0.038691834
0.037716545
-0.0061139795
0.08105915
-0.18092741
-0.082316056
-0.03300165
-0.021017162
0.08285102
-0.023176368
-0.08973046
-0.118499056
0.12357369
-0.0073086396
-0.07502146
0.12219577
0.03530635
0.122752026
0.16913904
-0.0728084
0.09925332
-0.0007825552
0.15084252
-0.11239803
-0.008783285
-0.12163798
0.07121956
-0.024546586
-0.078404985
0.066331446
0.110006265
0.13024725
-0.13593358
-0.04736758
0.15165089
-0.02556513
0.039072283
0.005711375
0.063366756
-0.11328655
-0.06633936
-0.10075439
0.19775008
0.13639584
-0.11450159
0.076384954
0.05882695
0.14731555
0.049641207
-0.08122779
0.052370153
0.15568861
0.022349002
0.10638129
-0.1411878
0.035393585
0.14227785
-0.07373116
-0.08644673
-0.19584146
0.062318824
0.1469643
0.08812458
-0.032443117
-0.052501183
0.04621509
0.030441353
-0.11801933
-0.10023627
-0.020480584
0.09756668
-0.015631927
-0.036029615
-0.06337653
-0.033111904
0.08571692
0.04814426
0.20054434
0.059558224
-0.05956667
0.016670346
0.113603756
-0.07632175
-0.07157978
0.03609129
-0.032287948
-0.016141498
0.057648517
-0.023581428
-0.13200404
0.06305835
0.17555404
0.17874356
-0.08503149
-0.07723674
-0.0470077
-0.112813115
-0.12034859
0.16176619
-0.039169602
-0.11976766
0.097535454
-0.12715973
-0.057596985
-0.06617453
-0.05473122
-0.101506166
-0.069839396
-0.05742206
0.086290486
-0.16479424
-0.08076452
0.08657673
0.04966639
-0.011752294
-0.0045477743
0.04801913
0.0055254167
-0.028703827
-0.03604096
-0.10506598
0.11316787
-0.1319512
0.14788167
0.054878846
0.08431524
0.01385188
0.14679918
0.09357586
0.13789564
0.057035606
-0.11271024
-0.037351713
-0.030140867
0.16991183
-0.030862356
0.23747072
-0.1009241
0.05747007
-0.092082605
0.16852024
0.069955796
0.047061797
-0.17638357
0.0027772537
-0.03054274
-0.04627972
0.10843416
0.2098122
0.14347482
0.08737792
0.055429384
-0.051111314
-0.11273814
0.06156544
0.02318702
-0.022635192
0.14977574
0.020597383
-0.14996064
0.10024477
0.13339996
0.041293815
0.059587635
0.116137356
0.039660137
-0.08550687
-0.13120092
-0.18301603
-0.17406173
0.017326625
-0.009213219
-0.10096375
-0.12177897
0.13116015
0.1110385
0.094580784
-0.14856549
-0.062150974
-0.18116185
-0.1376097
0.0065984996
0.07224957
-0.18641056
0.020889476
-0.16765845

Key: /conv2d_24/conv2d_24/bias:0, Shape: (5,)
-0.02419028
-0.0077929646
0.008625035
-0.020241348
-0.03792662

Key: /conv2d_24/conv2d_24/kernel:0, Shape: (5, 10, 3, 3)
0.22106594
0.10179253
0.08164109
0.15834965
0.11420841
0.22378166
0.0064866226
0.05049197
-0.18099932
-0.100109115
0.22155303
0.17120357
0.22825617
-0.19222489
0.14666326
0.15012927
0.220793
-0.13052586
-0.25160667
-0.2858299
-0.2296602
-0.2913644
0.09812761
0.089226626
0.057203118
-0.113809004
-0.06903109
-0.15996122
0.09013064
0.19450487
-0.05467396
0.13231115
-0.1947345
-0.16293852
0.07886481
0.12376932
0.17397586
0.1067632
0.19878592
0.109532475
0.098137654
-0.029930517
-0.03485539
0.028261857
0.24405752
0.12122872
-0.12600105
0.1718567
0.05203497
0.2257284
0.038912747
0.12371581
0.13737078
-2.37684e-05
0.13181007
0.04568061
0.055283677
0.064122096
-0.0871449
0.19686157
-0.03602769
0.12200974
-0.04491526
0.19383414
-0.1254256
-0.0016742486
0.20452993
-0.06031573
-0.11455793
0.13672957
-0.045251574
-0.21796885
-0.21674296
-0.021319563
0.06317075
0.027278682
-0.07905908
0.044277735
0.18192324
0.041517753
0.11762774
-0.06513511
-0.13025449
0.1283266
0.26460433
0.16406679
0.2088837
0.07200231
0.11093511
0.16879185
0.14456311
0.13530317
-0.13761191
-0.035703354
0.11506211
0.1474765
0.16765033
0.13936298
-0.1476236
0.080823176
0.15861249
0.04675812
0.1262272
0.15231246
-0.0040532127
-0.038753077
-0.07351838
-0.12303065
0.12395852
-0.13926168
0.08634859
0.07527428
-0.12014624
-0.17398857
0.025695851
-0.15033714
0.070928484
0.079155564
-0.14663357
-0.196309
0.16383356
0.06931752
0.033564895
0.118825264
0.14098407
-0.23440588
-0.069508575
-0.07317337
-0.10369845
-0.08671534
-0.028647427
-0.19935323
-0.14323248
-0.05038759
-0.10707196
-0.028416397
-0.010609312
-0.19774345
-0.13593385
0.14370508
0.1283051
0.21650568
0.23758312
0.1306388
0.010120705
0.17228338
0.024981577
-0.1293819
-0.057153136
-0.044073146
-0.19017747
-0.2048617
-0.1207725
-0.20841685
-0.18308982
0.15455146
-0.19401594
-0.18163332
-0.031539753
-0.11884679
-0.09155203
-0.0060717706
0.043116067
-0.13992594
-0.20837183
-0.07195654
0.2121906
0.16823973
0.15825082
0.24325046
-0.124553554
-0.14563747
-0.07910069
0.16971153
0.1522164
-0.21400093
0.012225855
0.028488118
-0.1502092
-0.11851218
0.07302074
0.07288695
-0.21308729
0.1259091
0.083005376
-0.19447073
0.0631071
0.11682678
0.20427579
0.07937593
-0.13420066
-0.15085012
-0.07125896
-0.18601565
0.086498104
-0.06458943
0.031553406
0.053657904
0.102283135
0.11011146
-0.12123974
0.13306536
-0.05716924
0.12350139
-0.18586436
-0.17621368
-0.042091392
0.09784042
-0.038968794
0.041399688
0.0009924077
-0.21581195
-0.19930388
0.0921376
0.21410786
-0.03396038
-0.0144376885
-0.028528396
0.18106149
-0.15033837
-0.13491075
-0.2308121
0.02157406
0.00560366
0.20106111
-0.02721294
0.11263798
0.0007167185
0.20459887
0.17327912
0.023688398
0.12191273
0.2042177
-0.083078735
-0.118316054
0.065080956
0.008978599
0.014317844
0.045277648
-0.12911402
-0.031229302
-0.13091405
0.02900523
0.11670435
-0.13020393
-0.16892228
0.10979433
-0.16257286
0.07011977
0.09700509
-0.09332933
-0.08587501
-0.04442874
0.16482915
0.04851258
-0.0372111
0.1296354
-0.13825521
-0.221718
0.041785438
-0.04535752
-0.16678315
0.11192529
-0.012942465
0.1618141
-0.13799615
-0.15123476
-0.117505126
-0.05111469
0.16972202
0.16519292
-0.12349092
0.1330141
0.12475278
0.033409446
0.083777614
-0.030110095
0.2821961
0.123174496
0.10812646
0.07807214
0.13706467
-0.07834829
-0.10650477
0.19211845
0.24301533
0.12624183
-0.02471938
-0.059718482
0.12472098
0.07257001
0.08262364
-0.0872945
0.0143351415
-0.034712676
-0.11718025
-0.059275262
0.049041376
-0.1881508
-0.2170221
-0.10480605
-0.07689379
-0.21232285
-0.1565086
0.17553806
0.16935652
0.17740811
0.06324355
-0.0942597
-0.18098706
0.0013042891
0.18094435
-0.034894653
-0.04517478
-0.069223076
0.11383139
-0.132964
0.045073017
0.20362246
0.24702193
0.15430066
-0.14337306
-0.011138669
-0.12617336
0.019714668
-0.029462956
0.16171747
-0.07566322
0.119420104
-0.08775037
0.10177087
0.14506179
0.073964804
-0.13381258
-0.036366325
0.20127974
-0.003112174
-0.016318917
0.033749394
-0.15542024
0.09423444
0.020174364
0.1651297
0.08814198
-0.063110724
0.06957603
-0.17066258
-0.13286439
0.11316296
-0.19244425
0.02820044
-0.14547554
0.054433372
0.122819744
0.0026246842
-0.10576075
-0.09421721
0.24020563
0.17586935
0.050939344
-0.100490205
0.0020036297
-0.22932118
0.17505792
-0.02440854
-0.06480857
-0.03973359
-0.0539418
-0.19620335
0.05184495
-0.12799168
-0.06305844
-0.06552886
0.13465413
0.15913098
0.11640162
0.14170448
-0.027880922
-0.20948783
0.12253208
0.03307557
0.116260245
-0.09566927
0.08974893
0.13667215
0.004585488
-0.16145137
-0.04402302
0.017605629
-0.04942207
0.03593457
0.07583947
0.055267967
0.01852107
0.1478748
-0.21819791
0.03129118
0.09744703
0.16535349
-0.079362
-0.17402297
0.01752103
0.024748445
0.05586777
-0.048988
0.14597467
-0.17823832
-0.06245359
-0.12258991
-0.11352827
-0.07971001
-0.08978752
0.14850889
-0.047871392
-0.017510073
0.031050874
-0.11805478
-0.06345953
-0.16944025
-0.14060384
0.038037457
-0.025959898
0.06828036
-0.1939935
-0.12201634
0.041181535
-0.12461575
-0.23309246
-0.08413708
-0.17792013
0.14214367
0.034856394
-0.03889174
0.08429277
0.10472803
-0.20524642
-0.010228256
-0.06904879
-0.19729456
0.09002673
-0.029706609
-0.042545777
-0.14776309
0.17824075
0.2099995
0.012473955
-0.13785875
-0.019593261
0.06024395
0.14180294

Key: /conv2d_25/conv2d_25/bias:0, Shape: (1,)
-0.045048423

Key: /conv2d_25/conv2d_25/kernel:0, Shape: (1, 5, 3, 3)
-0.10910981
0.33748668
0.16938294
0.21876357
0.14802542
0.22861443
-0.24540026
0.3542865
0.031205708
-0.27275392
-0.08289728
0.041899316
-0.16705705
-0.38907754
0.2203602
-0.2045726
0.13256598
0.2682838
-0.14275508
0.26453173
0.3014574
-0.15137511
-0.2145622
0.009515636
0.14107226
0.025583891
-0.093518324
0.07666007
0.2693935
0.0063682613
0.2830086
0.21372926
-0.10355765
-0.03098716
-0.07154589
0.09998743
-0.3512082
0.25227946
0.2661689
-0.2558624
0.025840491
0.18108778
-0.23422654
0.27520797
0.1996947

Key: /dense_15/dense_15/bias:0, Shape: (100,)
0.08099974
-0.0085221995
-0.045558054
0.0738308
-0.022524966
0.06578488
-0.011977434
0.06904655
-0.012419857
-0.017141208
-0.007353517
0.059740752
-0.009539352
-0.0070106722
-0.00863077
-0.008999915
0.0023943682
-0.050853055
0.036624946
0.025201056
-0.013644254
0.009721303
0.038662948
-0.07456721
0.006028094
-0.052903563
0.053546563
-0.06489152
-0.011170957
0.08090633
-0.018451154
-0.0153429145
0.10173645
0.09048988
0.08627367
0.060799193
-0.0025099672
-0.011022786
-0.046906248
0.06711626
-0.013037591
0.014336502
-0.019101689
-0.01090904
0.061396006
0.07711456
-0.010748416
0.05036264
0.020588271
-0.037031427
0.0770676
-0.053350363
0.053918727
-0.007909514
-0.0127127
-0.014354087
-0.00055388134
0.04657204
-0.06582406
-0.0638359
-0.0038049568
0.015520336
0.09079612
-0.01991109
-0.00487376
0.015205246
0.07222233
-0.010118904
-0.016813954
-0.014499815
0.0023093098
-0.014659792
-0.010450264
0.067012705
0.06576664
-0.041124817
-0.051458485
-0.016880967
-0.06253893
-0.01059855
0.062126495
0.0055017592
-0.049713884
-0.016514584
-0.033893764
0.032054994
0.0041340627
0.041937474
0.071128495
0.035303462
-0.022202296
-0.020140093
-0.0052942834
-0.017706074
0.09790515
0.07318829
-0.061539154
0.043529294
0.058532428
-0.0039295144

Key: /dense_15/dense_15/kernel:0, Shape: (400, 100)
0.0020103753
-0.08372891
0.041179743
0.0972876
-0.10617064
-0.04193741
0.076399684
0.03054624
-0.08431035
-0.038632274
0.025416153
0.005654353
-0.018193927
0.0017469146
0.02398923
-0.05246107
-0.085300796
0.048413385
0.06667493
-0.02487896
0.046086658
-0.041476853
0.044625424
0.021257592
-0.040131547
-0.09386329
-0.0130857155
0.004636014
-0.1096592
-0.016775992
0.033341125
-0.111863606
-0.008098474
-0.0045799217
-0.015762083
-0.031871643
0.050032686
-0.022808703
-0.005119826
0.08252136
-0.021707827
-0.0073787407
-0.07279491
-0.09465587
0.116625234
0.027877739
-0.05128888
-0.0122426925
-0.015409602
-0.041446146
0.0104764
-0.00952402
0.11737536
0.044842735
-0.048437614
-0.1249595
0.102877565
0.010586623
0.019478342
0.006202292
0.08085811
-0.012416972
-0.0063161305
-0.00037212964
0.089163065
-0.0010903559
0.08334776
-0.003920761
0.043710537
0.039437804
-0.107656844
0.009641101
0.0033288551
0.04782686
0.006154173
-0.013804628
-0.009719269
0.0037542658
-0.063576706
-0.094104454
0.008798978
-0.005960031
0.0068529495
-0.023863342
-0.08507301
0.09026188
-0.08450942
-0.074957564
0.0014056669
0.08890513
-0.09354444
-0.045567796
0.06496702
0.05408629
-0.02387446
-0.06177949
-0.06380805
0.041389942
-0.053902663
-0.030493284
-0.060070544
-0.06453408
0.095552616
0.09201185
0.033383712
0.029655373
-0.07900808
0.10431764
0.025356047
0.0778648
0.07912792
-0.05041749
0.082035586
0.02839158
-0.014128632
0.0984416
0.10691215
0.07813742
0.07884318
-0.094203226
-0.001405496
0.08208418
0.035156757
-0.11334729
0.043549415
0.013060936
0.019677415
-0.020516627
0.021490958
-0.08812674
-0.12868737
-0.06488394
0.020257557
-0.008912878
-0.042498115
0.05704557
0.0053566564
0.045784358
0.04478846
-0.07766994
0.06896491
0.025605978
0.04672823
-0.09767015
0.017647926
0.04261832
0.025611443
-0.05874573
0.0048497785
0.029565958
-0.030181497
-0.04681782
0.0047810962
-0.090116516
-0.042247076
0.05067277
0.026880467
-0.01599071
0.02459995
-0.071500264
-0.03425772
0.063756935
-0.050002366
-0.096585646
0.020240597
-0.025826111
-0.076942325
0.07549243
0.04079897
0.0156625
-0.02097277
-0.045314815
-0.033313584
-0.05953734
0.07434221
-0.11173352
-0.050563954
-0.10061664
0.040647287
-0.107757814
0.055155613
-0.013886598
0.061641257
0.08418491
0.059779808
0.041839033
-0.08700166
-0.100027576
0.010505928
-0.021543385
-0.052467816
-0.05028275
-0.052029736
-0.0061925068
0.0072732186
0.07874319
-0.015459743
-0.07012493
-0.051329978
0.0032375825
-0.13793923
-0.035097983
0.078489
-0.030210054
0.074635
0.06949193
0.08774789
-0.018967701
-0.09092284
-0.055262703
-0.021110667
0.06657086
0.0014598905
-0.12149989
-0.022853121
-0.05944903
-0.024715483
0.10595976
0.00045278852
-0.041483972
-0.038474128
-0.11278209
-0.08689581
-0.03493673
0.00592785
-0.06798456
0.028930575
-0.042220414
-0.08093644
-0.09354373
-0.12851496
0.07315956
-0.00343269
-0.07873836
0.11413735
-0.03092298
0.04409079
-0.0694337
-0.10117352
-0.08132259
0.014767811
0.024845824
0.062263846
-0.07673951
0.007771693
0.01088193
-0.025298268
-0.113828525
-0.10156284
-0.10921572
-0.020209646
0.079725236
0.07012252
-0.078729056
0.05999355
-0.046905547
0.037396755
0.006329911
0.057379916
-0.018310511
0.081479676
-0.024187109
0.019118996
0.0017614318
0.048072927
-0.08316453
-0.071117535
0.033819955
-0.027476558
0.0033461335
0.008825242
0.07156537
0.012575751
0.057654716
-0.04573345
-0.052855883
0.016066542
-0.0363524
-0.057334427
-0.03955327
-0.019829845
-0.0009473548
0.0860389
-0.0055185384
0.0654462
0.01659511
-0.013020357
-0.100832015
0.11007133
0.06288922
-0.025685413
-0.10362011
0.09276909
0.0893574
-0.09839739
0.06714514
0.014302239
-0.0811102
0.05988737
-0.11027042
0.012555759
-0.023347564
0.014459317
-0.051944967
0.07981026
0.011816796
-0.04819138
-0.010146986
-0.053006187
0.02434057
0.034818105
0.11417473
0.09710974
-0.062118564
0.08052688
0.022495167
-0.07427555
0.07103046
-0.027567148
-0.01005049
0.040184017
-0.06757906
-0.06445706
-0.07138181
-0.004576191
-0.06221968
-0.04762704
0.017372068
-0.059162438
-0.07154398
0.07367087
-0.014434159
-0.021382293
-0.09199614
-0.067878716
0.11826722
0.024137318
0.06946705
-0.03692178
0.00471556
0.014026518
-0.11520258
-0.08915344
-0.08063022
0.0032059685
0.05457937
0.028930943
0.01578493
0.043599468
0.09552856
0.04858794
-0.042933606
0.058727443
-0.061894275
0.09739122
0.08813893
0.018043246
-0.024843683
-0.06311351
-0.012931028
0.08703639
0.0348981
0.08134698
0.0007206645
0.06553392
-0.061710883
0.06732278
-0.09574456
0.062043656
-0.0003119882
-0.10014053
0.09718446
0.025108064
-0.015027224
0.02701334
-0.119374074
-0.031287108
-0.022529284
0.045761734
-0.06296534
-0.08221611
0.012456126
0.030216105
-0.059646353
0.039025772
0.07431926
-0.020794272
-0.10493979
0.08847152
-0.10223108
0.07914874
0.06737372
-0.08069268
0.052921467
0.03446576
0.032148406
-0.06660828
-0.011687262
-0.0469488
0.074648134
-0.14159682
0.013447485
0.080680326
-0.048568167
-0.0033859946
-0.06123736
-0.0036423078
-0.049007103
0.08094553
0.0067698476
0.009307841
0.08583407
-0.058038354
0.08622227
0.021380266
-0.02522543
-0.067200735
-0.0045440695
-0.12436115
-0.014346697
0.014755553
-0.12641104
-0.11246866
-0.09202682
-0.09249999
-0.09759744
-0.11117744
0.007137772
-0.003948203
-0.048562232
0.04055796
-0.10291453
-0.056001615
0.0602694
0.02296172
0.025047338
-0.054435447
-0.043729424
-0.12235614
0.09532654
0.05723307
0.0010456748
0.065239735
0.016956402
0.059415292
-0.00078422384
0.03401457
0.04141014
-0.07816082
0.043035682
0.114851564
0.08049897
-0.0564049
-0.09690855
0.08930887
-0.058542006
-0.09009852
0.053067237
-0.06237776
0.031025788
-0.08493296
-0.036519546
-0.043978512
-0.029388733
0.10037849
0.054027867
0.055162787
0.06910193
-0.13017374
-0.08955581
0.05227192
0.032875046
-0.014538601
0.06769594
0.0739124
-0.059353013
0.08346349
-0.062579565
-0.06542361
0.04616316
0.025194298
-0.0192357
-0.019869303
-0.095628306
-0.034721017
-0.068519965
0.016049247
-0.13378596
0.100732915
-0.013902234
0.048305854
0.0075028716
-0.10728424
-0.010143903
-0.07020133
-0.018645309
-0.0028257365
-0.11349244
0.03300239
0.038532745
0.0099974
0.0082245795
-0.049391255
0.07573925
-0.05674092
0.08759052
-0.10191939
0.039909504
-0.09362239
0.048085857
0.06907988
0.058281515
0.018336369
-0.06021849
-0.005805533
-0.11550382
-0.021873739
0.009988993
0.07022728
-0.010578068
-0.12045464
-0.10362276
0.04587756
-0.018390872
-0.019668529
0.00022967186
0.04083698
-0.08657803
-0.05342752
-0.015116703
-0.07693776
-0.014024731
0.07466448
0.10449482
0.122578174
0.05652231
-0.010344276
-0.027984776
-0.041274186
0.036892157
-0.036895733
-0.026683467
-0.033290304
0.032941673
-0.021057114
0.052581683
0.0059878174
0.011464836
0.08251447
0.08078137
-0.057679087
-0.060086887
-0.082865424
0.051113658
0.051907733
-0.046497907
0.088059604
-0.12508434
0.035060227
0.008771629
0.052573223
0.075035535
0.12708044
-0.11084723
0.025393613
-0.058225438
-0.077602424
-0.03441768
-0.061025023
-0.09486756
0.039716333
0.07991489
0.06503193
0.07210492
-0.068140075
0.052821845
0.06294184
0.09323641
-0.107177936
0.044620056
-0.051795684
-0.025833156
-0.01700963
0.017988866
0.019245353
0.05962646
0.0777501
-0.050139792
-0.035994217
-0.057076607
-0.038108062
-0.036339767
-0.041212097
-0.10926605
-0.041459307
-0.08187352
-0.11614229
0.06755014
-0.07824418
-0.08197794
-0.10998783
0.045298602
-0.057421587
0.041372474
0.05759223
-0.02020223
-0.042077
0.077521935
0.062120926
-0.0019187323
0.019604117
-0.061369482
-0.07679729
-0.12787037
-0.049786083
-0.09163021
0.0009319991
-0.039605487
-0.022190312
0.06558816
0.077147074
-0.07234432
-0.12784237
-0.0022737614
-0.015464577
0.04695965
0.01737841
0.07302881
0.0066069076
0.079477526
0.09186037
0.084896736
-0.015052
-0.07924744
0.08058209
0.093001306
-0.040544305
-0.02506692
-0.09978411
-0.03143533
0.06562571
0.11629042
-0.048954293
-0.044179298
-0.027411513
-0.035231825
-0.09484346
-0.0644698
0.0073555754
-0.0897354
-0.07286735
-0.043941222
-0.016825637
-0.028083706
-0.0569283
0.07781284
0.05050086
-0.03876052
0.043348137
0.0025665557
0.057550702
0.07009087
0.105467185
-0.047729947
0.0148008615
0.07079688
-0.046891704
-0.01778555
0.0851903
-0.038852267
0.045106422
-0.049438935
-0.008205762
-0.043272316
-0.007761804
0.014007658
0.07371546
-0.11240905
0.08336661
0.07596609
0.03216147
0.05335925
0.09318565
0.08876392
-0.08845907
-0.010156264
-0.10320067
-0.11008508
-0.06269786
-0.0715973
-0.09759676
-0.09117415
-0.073432915
-0.095940776
-0.0681116
0.08643965
-0.0845264
-0.06995127
0.042689566
0.04455235
0.04549406
-0.04143462
-0.046399556
0.056358792
0.1004605
-0.07387948
-0.0868298
0.06120311
0.035179745
-0.030934019
-0.021761654
0.008741228
-0.024968984
-0.07486988
-0.062213305
0.09541822
-0.08572025
0.08445667
-0.10456909
-0.0399887
0.07383173
0.041246377
-0.03281637
-0.05166015
-0.07296508
-0.099048294
-0.05319244
-0.08555696
-0.11104448
-0.056619745
-0.10063056
0.07991197
-0.07198756
0.10502131
0.06133011
0.024667045
-0.07422006
0.06704209
-0.07999352
0.014921304
-0.051778737
-0.05320094
0.10506558
0.058415193
0.024451958
0.10306959
-0.10055266
0.11887913
-0.04379983
0.028097577
0.11085731
-0.020826707
-0.009299143
0.0039363345
-0.10953666
0.036394056
0.05634507
-0.016174968
0.07234654
-0.100701965
0.07959342
0.10493469
0.09724689
-0.055753466
-0.08746399
-0.0665365
0.08137385
-0.055736113
0.034686327
0.041259322
0.056020714
-0.00066267455
0.034051217
-0.0055229957
0.057956614
0.051397845
0.077039994
-0.0061371885
-0.0010767143
0.03087549
0.11607741
0.022303617
0.048790287
0.048200116
-0.022064827
0.033210117
0.028190909
-0.0675617
-0.031160982
0.09745455
0.065096945
-0.025547532
0.006862454
-0.096457206
-0.034224816
0.0024746503
0.018092316
0.07040657
-0.016229408
-0.044466052
-0.076146945
0.05238551
-0.011916937
0.058871932
-0.051376075
-0.026848476
0.095555484
0.008577795
0.0839232
-0.07479616
0.04529783
0.01868411
0.03556729
0.09203639
0.017467072
0.10756558
-0.031392366
-0.014685592
-0.09749592
0.0413511
-0.074314915
-0.07528272
-0.014477172
0.0026596154
-0.003797872
0.071467735
0.08419468
-0.075147584
0.0462953
-0.037536968
-0.033166848
-0.0069873217
0.059996795
-0.044411223
0.10444711
-0.06145929
0.06280645
-0.058505353
-0.0007032723
0.015696295
-0.09239166
-0.049876027
-0.08879468
-0.11016389
-0.037345827
-0.02663538
-0.014386841
-0.061144967
0.046130896
-0.09236047
0.07053532
0.031308096
0.096728526
0.0064394306
0.096368596
0.020906925
0.09875452
-0.07748243
0.06949258
-0.01147379
-0.0716063
0.10382982
-0.020600025
-0.0037164453
0.07854187
-0.0025259731
0.043330226
-0.11407759
-0.10551065
-0.033076495
-0.05978461
0.09766832
-0.1010883
-0.09909611
0.11732914
0.040250663
0.010275597
0.0833222
-0.036730867
0.010765036
0.052497387
-0.014482211
0.018888455
-0.11965904
-0.12205096
-0.033644423
-0.04701249
-0.11124897
0.057861302
-0.08417705
-0.031825647
-0.09654033
0.008466714
-0.0661924
-0.038796138
0.070840046
-0.056008298
0.076276146
0.05915094
0.045971837
-0.1123089
-0.03514133
0.087621465
0.11299941
0.057432797
-0.030549148
-0.02033728
0.121130675
-0.037744205
0.01906545
0.10648157
-0.019859836
0.09088945
-0.07576748
0.08398876
-0.051125266
0.017758638
-0.0168441
-0.056485392
-0.06495183
-0.008494293
0.06874539
-0.043363687
-0.08778226
-0.019877858
0.030448651
0.02770538
0.068303265
0.05562731
0.075109005
0.07487912
0.057833314
0.042145304
0.12208138
-0.031368144
7.94253e-05
-0.0049463306
-0.09036888
-0.023727762
-0.03477966
0.06616053
-0.027884299
0.0070362166
-0.07680313
0.031412948
-0.057962283
0.058287833
-0.012431382
0.013057895
0.08107428
-0.07385601
-0.10931999
0.13025136
-0.023832222
-0.117017396
0.06961784
0.042850673
0.061062116
-0.11702415
-0.09158075
-0.055634327
-0.10199626
-0.034049522
0.007254378
0.059982367
0.002840314
-0.056398187
0.09485989
-0.03628938
-0.10439859
-0.019545801
0.014137348
-0.052972194
-0.07159112
0.12472298
-0.00040875873
0.033983316
-0.091072984
0.0279345
0.078206316
-0.02732089
-0.0035432302
-0.012277731
-0.025695097
-0.064068526
-0.087578595
0.0017878704
-0.1344709
0.13466182
-0.0050808694
0.050160542
0.0712466
0.032849178
-0.02665867
-0.033286333
0.020095762
0.059904546
0.06801636
-0.054208282
-0.04933503
-0.08575141
0.0064014657
-0.03300834
0.023608582
-0.022518784
0.09811483
-0.09465146
0.031938065
-0.019330079
-0.016186884
0.032959428
0.09197714
0.022318425
0.022695018
-0.058655255
0.09637754
-0.09185117
-0.08912239
0.035751864
0.06172644
-0.07587271
-0.0008339829
0.022860743
-0.09439058
-0.09733274
0.052017868
0.004842697
0.08001779
0.011194865
-0.024308259
-0.06848605
-0.08448812
-0.010248627
0.061202668
-0.046427157
0.010801108
0.102243334
0.09697203
0.06689533
-0.08560303
-0.1152699
-0.04264444
-0.09270886
-0.021332463
0.10646773
0.07426125
-0.073533036
0.043579664
0.116326414
-0.12734522
0.07917369
-0.027265314
0.0367881
0.029888984
0.083162226
-0.088485785
-0.015984792
0.080306634
-0.058542132
-0.07043049
-0.017405728
0.0015854591
-0.029500993
-0.023708599
-0.035938468
-0.03451489
0.015903188
0.016891036
0.057765644
0.00028374034
0.08719825
-0.09261374
-0.0056302045
0.06200072
0.06973408
-0.12715334
-0.028094873
0.08293246
0.054389652
0.06909527
0.03469756
-0.023131965
0.06406235
0.06464118
0.056637943
-0.052946065
-0.10408564
0.04192703
-0.06701502
-0.020009417
-0.01704797
-0.09766901
-0.046010938
0.029598271
0.13136306
0.062010407
0.019279685
0.019727862
0.024834376
0.043163314
0.07499783
0.087123275
0.01250916
0.08499425
-0.011802724
0.033012245
0.007909754
-0.04358528
0.036893334
-0.06467636
0.0025882218
-0.025538608
0.08120501
-0.004843579
0.030164517
0.10789194
0.086843446
0.05278943
0.078033574
0.05618565
0.0068473574
-0.0024570387
-0.012764375
0.009729265
-0.10994418
-0.040507156
-0.07490137
0.06688572
-0.07012995
-0.06415416
-0.075389706
0.110576935
0.0206784
0.033114765
0.11731625
0.046773702
-0.106562436
0.0559599
-0.069509044
0.05394697
-0.040887497
0.017297138
0.038793415
0.07431785
-0.012369067
0.101115294
0.072285734
-0.052518502
0.008011297
0.029016608
0.11426847
0.08626848
0.0037811305
-0.05487225
-0.12249631
0.09241381
-0.016261663
0.0176143
0.06998464
0.0466153
0.0072524357
0.011668818
-0.06487321
0.051060215
0.075811855
0.056337107
0.00446113
0.061826453
0.042632416
0.030352937
-0.09965527
-0.045080718
0.073107116
-0.03773225
-0.013886188
0.047858886
-0.04671135
-0.083457835
0.10047116
-0.070727974
0.06492027
0.049461883
-0.038692843
0.09582329
0.050423857
-0.022649718
0.08332802
-0.070788294
-0.026496273
-0.035507776
-0.019012498
0.021478994
0.06474822
-0.08349169
0.094869524
-0.09249272
0.037305724
-0.06754926
-0.117655955
-0.03019793
0.0041174293
0.041022312
-0.001711483
0.03437356
-0.09753236
0.07810368
0.045993477
0.043243837
-0.09024659
-0.0082678655
-0.031790826
0.045584965
-0.09934717
0.05695805
0.059142362
0.08681336
-0.025713453
-0.03616402
0.05219178
-0.01601758
0.075949825
-0.025909638
-0.012915247
0.06455079
-0.029594915
0.076377444
-0.12730311
0.028145233
0.1011917
0.05291814
0.022111356
0.006105872
-0.10844228
-0.08116968
-0.032213494
-0.034159984
-0.054592945
-0.09309266
-0.009592039
0.031738725
0.09426047
-0.086912796
0.07684025
0.06214254
0.023579882
-0.007811902
0.045837265
0.08484301
-0.005648529
0.10323551
-0.09070252
-0.069086865
0.11096775
-0.015943268
-0.040449705
0.061420064
-0.05678937
0.08555779
0.06826729
-0.088601165
-0.10648626
0.07180378
-0.08883375
-0.09708612
0.059797037
0.10567275
0.03683461
-0.040155083
-0.093921944
-0.030182714
-0.028664887
0.009817327
-0.10611437
0.062640935
-0.035007484
0.035062242
0.024477607
0.073852174
0.06716991
-0.032699548
0.063744105
-0.057160366
0.07798569
0.00936792
0.015912762
0.12524664
-0.05422835
-0.13383487
-0.047302406
-0.00039449727
-0.010185477
-0.034940477
-0.09769905
0.044190254
0.07347263
-0.09571538
0.07003484
0.023045732
-0.09008559
0.030507557
-0.059481073
0.053929366
-0.10514771
-0.032358017
0.01800145
0.029027633
-0.07767451
0.004617952
-0.07498549
0.011215365
0.008756853
0.03101366
-0.010539536
0.08388263
0.080500394
0.01299881
-0.11581488
-0.103219986
0.03310246
0.0149096595
-0.10427166
-0.09390477
-0.110046834
-0.06447462
0.014951191
0.018407349
0.05248305
0.0337822
-0.047359295
-0.056932554
0.028912732
-0.0060808496
0.0672008
-0.049820248
-0.007932523
-0.07936255
0.04895168
-0.09167743
-0.07468137
-0.042665053
0.007421162
-0.06419719
-0.10194154
0.058946606
0.035930254
0.10330779
0.09020838
0.048717707
-0.02311074
0.085819066
0.1035888
-0.07836904
0.083049774
-0.079139225
0.060975667
-0.041561887
0.10180419
-0.030359013
-0.027475553
0.06389934
-0.09651208
0.01698941
-0.012644663
-0.073974125
0.101159394
-0.066064924
0.110112086
0.043285344
0.04432769
0.035446502
-0.06474965
0.09244366
-0.015639836
-0.02102713
0.037325926
-0.11902244
0.0218136
0.09758284
-0.087896846
-0.09616876
-0.045110136
0.036712546
-0.0050698784
0.059321083
0.014214344
-0.00016019258
-0.04256592
-0.03394378
0.01390573
-0.0008736161
-0.07749272
0.0031054353
-0.007773095
0.09142224
-0.032380816
0.08927146
0.020203471
-0.06542793
0.04764731
-0.00088104757
0.061730135
0.040057726
-0.033313774
0.098648325
0.01953024
0.047313955
-0.09878228
0.115843445
0.026010778
-0.0070106774
-0.10968182
-0.011527216
0.057437986
0.04732404
-0.070844285
-0.09663057
-0.022716984
-0.045990292
-0.09792231
-0.030560836
-0.0036614446
-0.033758387
-0.086120166
-0.0037970766
-0.09567344
-0.036991004
0.0954485
-0.108122304
-0.09870509
0.07253934
-0.038636565
-0.034930658
-0.0059243706
-0.015699742
0.08701853
0.0023626455
-0.0008009737
0.05273239
-0.0022536113
-0.022911556
0.0033227517
-0.031502787
0.07860659
-0.08614704
0.042673193
-0.018861448
-0.028206505
0.06105924
0.11059828
0.030014636
-0.012306957
0.031334084
-0.015072939
0.04531537
0.011754235
-0.05548248
0.019019768
-0.090080395
-0.0013295187
0.020980105
-0.063072875
0.08538015
0.113666624
0.03637091
-0.0012896543
-0.011044013
0.04561581
-0.075614624
-0.09466876
0.089362405
0.023394866
-0.029375901
-0.10852459
0.012315553
0.09495332
-0.047763288
-0.059966903
-0.038106386
-0.038551856
0.042921703
-0.08802728
0.07822572
0.10065756
-0.02159558
0.06434412
0.054630354
-0.09099182
-0.016613837
-0.09162731
0.10447508
-0.024384288
-0.010564679
-0.052899163
0.08951861
0.06849473
-0.043656457
-0.069050066
-0.034796633
0.031583592
-0.06024
0.0857904
-0.089762084
-0.087111644
0.010577612
0.036271278
-0.073035166
0.08986531
-0.021976376
-0.024084961
-0.08383791
-0.10146972
-0.09054175
-0.105253786
-0.12890162
0.06995603
0.08386018
-0.106724456
0.0865925
0.03733193
0.105347745
0.08399639
0.07103342
0.023640323
-0.046929967
-0.10691003
0.10399855
0.036481533
-0.018717771
0.09586206
-0.08313191
0.010733096
0.01705535
-0.06523565
0.05737227
-0.027234944
0.039067384
0.07653368
0.010655859
-0.018143995
0.09126426
-0.032166716
0.023782063
-0.091883175
0.0010473247
-0.033474233
-0.01620039
-0.10608875
-0.06350222
-0.04124223
0.06667418
-0.04324293
0.07996499
-0.08332263
0.06309362
-0.10082778
0.05185177
0.08347808
-0.064068876
-0.035612382
0.100871764
0.004137082
0.012217875
-0.07388423
-0.039906684
0.067498825
0.05545006
0.0878152
0.06649479
0.04766757
-0.04616752
-0.090010986
-0.048184607
0.073502444
0.055632923
-0.06854515
-0.051133435
-0.0021278728
0.086208776
-0.041781005
0.030506436
-0.025771432
-0.01156179
-0.04698126
-0.112313904
-0.029124817
0.1156162
-0.035580568
-0.10938471
0.041858125
-0.072808266
0.016480736
-0.00020404399
0.05070686
0.025524948
0.014546541
0.022085823
-0.07221488
0.009891953
-0.0014732841
-0.03699337
0.0662527
0.06448068
0.025822379
-0.070459686
-0.028991712
0.0014589651
-0.06663767
0.059769474
-0.10955548
-0.06983656
0.029176185
0.05316246
-0.08330342
-0.022632796
-0.005099214
0.08780964
-0.09488725
-0.033352304
0.046651814
0.049041573
0.08919762
-0.0915268
-0.05043718
-0.031510983
-0.013213245
0.0059610633
0.0070283692
0.005528938
-0.02418871
0.06590598
0.087379344
-0.08660964
-0.090496354
-0.030809654
-0.0066181864
-0.09681864
-0.05583138
-0.065847985
-0.07259303
-0.083236136
-0.04813483
-0.023529435
-0.06400308
-0.050705533
0.08864813
0.099528015
0.0031283174
0.01636788
0.090713486
-0.004476264
0.015666919
-0.099788666
0.07280134
0.0006497565
-0.014673576
0.06766778
0.044139426
-0.07559646
-0.09569358
0.049503736
0.10952973
0.010378643
-0.041807037
-0.038401023
0.075848244
0.061311696
0.031070147
-0.044111177
0.0794224
0.030126309
-0.0460384
-0.014998829
-0.008520123
0.06940811
0.071113974
-0.12005682
-0.044234887
-0.0425473
0.042713385
-0.089712836
0.033846956
0.06758414
-0.05706063
0.011337882
0.1085553
0.02276307
0.025565742
-0.020185597
-0.08779163
0.013266756
-0.10912194
-0.021176025
-0.0836604
0.036716178
-0.00096076826
-0.040047053
-0.054960873
0.09146567
0.014358554
-0.00019380832
-0.05124523
-0.0906458
-0.05207166
-0.05845183
0.02116517
-0.019587606
-0.022491278
0.10035654
0.03296437
-0.05111242
-0.017124023
-0.019964084
-0.05163998
-0.0559538
0.07788228
0.017981099
-0.10289304
0.021610612
-0.10085412
-0.025520522
-0.081354946
-0.10672326
-0.07693339
0.017642949
-0.0721584
0.007009901
-0.022540497
-0.078443214
-0.09983658
0.022621995
-0.06324444
-0.097895116
-0.033753596
-0.047001507
0.015550622
0.063704826
0.0076631466
-0.0641835
-0.0044314675
0.059897956
-0.06564221
-0.10198021
0.0799558
-0.11110745
-0.10233965
-0.04430201
-0.03127368
0.07203116
-0.0010536719
-0.024330452
0.077748224
-0.026109494
0.097143896
0.101887174
-0.08785027
0.024670083
0.10281474
-0.030782854
0.07876969
-0.04539132
0.076305225
0.007208217
-0.0028374624
-0.027049957
0.08137634
-0.09792723
0.042035796
0.02817873
-0.0914363
-0.021826882
0.022912798
-0.10066595
-0.1040537
-0.02398722
0.06113704
-0.0145153
0.044617582
-0.09739598
0.11696778
-0.09610344
-0.09058219
0.09429679
0.03398311
-0.10862847
-0.10360007
0.0017855414
0.0022488323
0.034791213
0.060189813
0.04980893
-0.041764636
0.018950315
-0.0037978643
-0.0011026721
-0.009247558
-0.079923905
0.031010248
0.021019833
0.042562883
-0.013894598
-0.06665
-0.008754641
-0.018820103
0.07356055
-0.016902082
0.056546777
0.026769917
0.10387186
-0.05388717
-0.051926326
-0.09399785
0.025839334
-0.075048745
-0.035703897
-0.12858386
-0.0861725
0.0013874996
-0.058036894
-0.051016252
-0.08058156
0.057753522
-0.076094896
0.036377903
0.045913022
-0.08266684
-0.032509916
-0.08785493
-0.1013566
0.035706144
0.07567144
0.00334334
0.087319955
-0.09324329
0.02797144
0.07126912
0.059235193
0.05651474
-0.004121298
0.049222436
-0.03132903
0.042697903
-0.08444447
-0.013265762
0.045561507
-0.051560868
-0.01719084
-0.031686716
0.051710222
-0.03980445
-0.05551651
-0.075487554
0.015893377
0.0960809
-0.10935998
0.09282663
0.050605368
0.10047836
-0.065594755
-0.08124717
-0.022499902
-0.019582286
0.061037067
0.05118276
0.072539285
0.07333639
-0.07616355
0.02065342
0.082224056
-0.033225086
0.01606297
-0.04927341
-0.05048257
0.081193104
-0.08606764
0.0061200024
0.038527098
-0.019494053
-0.058119584
-0.07682374
-0.034366645
-0.06258636
-0.09129137
0.07012788
0.018797357
0.07915036
0.124600165
0.035730623
-0.086949185
0.053294137
0.05649474
-0.003717776
0.0525296
-0.09844152
0.041862275
0.04523917
0.08311529
0.05861506
-0.08117888
0.07863388
0.0045031924
-0.13058543
-0.053558804
-0.050798934
0.09916073
0.024085859
0.11065073
0.06391219
-0.05080205
-0.065707974
-0.113024175
0.019107595
-0.06676113
0.060766768
0.04021836
-0.09139004
-0.03479591
0.037087567
-0.04992389
-0.077824675
-0.079332344
-0.059164155
-0.04537084
-0.008339324
0.014498062
0.04080226
-0.032555792
-0.017096404
-0.027443688
-0.1151732
0.086592905
0.03235725
-0.022404805
-0.07609913
0.081892714
-0.0032892898
-0.0044715293
0.0051938016
0.09618264
-0.0045447703
0.081826106
-0.026258115
0.02762461
0.043121208
-0.029319787
0.04260555
0.06811753
-0.064561315
-0.018351177
0.046405632
0.060709257
0.041159533
0.09039559
-0.03382966
-0.09458649
0.038403768
-0.018445604
-0.0065923496
-0.06806704
-0.03412918
0.04689381
0.006954717
0.059240624
0.041199055
0.030322012
-0.06029579
-0.05652933
0.09543734
0.0050419243
0.0722922
-0.027381847
0.07774022
-0.09427447
0.011417474
-0.07934056
-0.041322622
-0.07668666
0.015065704
0.03735923
-0.083758794
-0.06592863
0.02087063
0.04744258
-0.034357473
-0.06641257
-0.03921617
0.016935186
-0.0024981739
0.0052383062
0.07444845
0.08815475
-0.024656167
0.06941773
0.035013776
0.039756976
0.024603223
0.047303624
0.09249859
0.110521555
-0.09998229
0.06990325
0.01782211
-0.046272643
-0.07589921
-0.03394832
-0.01362638
0.086289555
0.07683102
-0.065418966
0.028013673
-0.0911187
-0.116686605
0.1012209
0.06241133
0.068428494
-0.0034063158
-0.03663278
0.09339245
-0.111742646
0.06793544
0.08026389
0.021050349
-0.035701156
-0.057742413
-0.010248938
0.034293376
0.024817888
-0.062280245
-0.022216821
-0.021357113
0.010152823
0.0022452327
-0.023423975
0.0016435945
-0.04873602
-0.0104442425
0.12073823
-0.033719722
0.032006864
0.08500067
-0.049261406
-0.04588598
0.004080212
0.04070209
0.0025723514
0.061622936
-0.063308835
-0.07058698
-0.07934932
0.02410381
-0.09110326
-0.03365501
0.050846647
0.0015467047
-0.109964274
-0.0014235325
0.080868
-0.077749886
0.005808575
0.05226383
-0.05658326
0.022769235
-0.079112254
0.048924975
-0.035577353
-0.013275221
-0.022438651
-0.08136113
0.028519439
-0.026910022
0.03340288
0.081298195
0.06872343
-0.047775082
-0.015580614
-0.018334078
-0.07945871
0.026508467
0.078552626
0.07631428
-0.10233858
0.10376865
0.0801248
-0.041342016
-0.006139039
0.047307827
0.052594453
-0.040150147
-0.12604152
-0.053091906
0.08596021
-0.024492664
-0.11232348
-0.08190158
-0.063356645
0.121464446
0.07936341
0.036343373
0.08163848
0.018339824
-0.086059555
-0.042941537
0.037115626
0.03982441
-0.05446484
0.08105844
0.046431385
0.072451666
0.027097609
0.08498411
0.07412516
-0.08146977
0.0060446034
-0.018373175
-0.05648323
0.092491776
0.01572002
0.08444016
0.0029957327
0.013661195
0.002683703
-0.0367109
0.05371013
0.059705418
0.012796237
0.04151886
0.060235135
-0.022594213
-0.035921067
-0.028102648
0.09778699
-0.103856444
0.06896826
0.063053235
0.11954072
0.12250084
0.10696358
0.10648633
-0.08804583
-0.0733768
-0.06335901
-0.028530778
0.06820836
-0.03304102
0.012084329
0.051354166
0.042487748
0.027606089
0.04740502
0.05883801
0.033499487
0.0621926
0.06098294
0.11703947
-0.065551095
-0.0702643
-0.045837518
0.03567457
0.065697156
-0.022622302
-0.082323626
0.00068598974
0.041832156
-0.009337027
0.05408302
0.09825966
0.049642283
0.105977595
-0.056031615
-0.021166235
-0.114396535
-0.082919754
-0.10239773
-0.02923567
-0.14085732
-0.039889593
-0.07265346
0.081313685
-0.06470692
0.011078312
0.057119146
-0.035707667
-0.105870664
-0.09374915
0.06445394
-0.10166655
0.11816011
-0.06439134
-0.12095743
-0.013202529
0.097666
0.013315771
0.044508584
-0.025581481
0.061715342
0.020733118
0.0912212
-0.013976717
-0.06858518
-0.08299909
-0.027597062
-0.034169585
0.07974381
-0.05286004
0.07906678
-0.037887555
0.07476078
0.048297796
0.04558587
0.012750647
-0.008837427
-0.086578965
0.054136846
-0.100571364
-0.0011489079
0.06005478
0.08572845
-0.015691098
-0.040823642
0.070843354
0.04594715
-0.038842443
0.0036584712
-0.10181073
0.028736928
0.020713348
0.072492115
-0.10511979
-0.11276431
-0.07830757
0.039380927
0.02902846
0.036640674
0.08190303
-0.070615664
0.100452594
-0.043252755
0.10289474
-0.098422326
0.025515009
-0.08128114
0.035216257
0.04546387
0.07421195
0.0023170912
-0.08709838
0.05034599
-0.06510469
0.06869944
-0.045888375
-0.1316561
0.10644845
-0.061062615
0.087398835
-0.10495157
-0.04772586
-0.03866462
0.0947911
-0.039210726
-0.013626493
-0.044371903
-0.07047187
0.10186231
0.04480597
-0.094508596
0.09719901
-0.0019386592
0.10982718
0.097464904
0.05307988
-0.05611611
-0.07508756
0.0038207425
0.0011923015
0.023389455
0.09625973
0.048388552
0.09278591
0.019993454
-0.09967745
-0.10141033
-0.046892058
-0.058728583
0.084696434
0.03401456
-0.0661629
-0.05607166
0.0007865448
0.0845365
0.060757853
-0.09231911
-0.043473873
-0.11089356
-0.03414776
0.08031001
-0.011711145
0.101929784
-0.0046560634
0.026758319
-0.060888134
-0.037634175
0.04726388
-0.015655043
-0.062430862
0.046724036
-0.035792902
0.0030011751
0.07995806
-0.038462255
-0.048842102
-0.006347966
0.011349476
0.077109315
0.06242737
-0.12978573
0.06978887
0.05985594
0.0040770043
0.030822981
0.08104317
-0.10177915
-0.06190506
0.047477804
-0.025787318
-0.10777724
-0.05582676
-0.030598782
0.057592154
-0.10713294
0.070527606
0.0056789774
-0.045516193
-0.047672983
-0.0438361
0.016569728
0.038677335
0.13327777
-0.045668397
-0.10506405
-0.052620508
0.007478669
-0.045211084
-0.018627172
0.001908436
0.09963562
-0.0017504258
0.12190789
0.011685674
-0.049482733
0.085792564
-0.08550635
0.10760904
0.07542488
0.0050698556
0.08953469
-0.06723703
-0.06030348
0.03299178
0.034558054
0.067422286
0.085948884
-0.05495089
-0.05058042
0.06172995
0.08196933
-0.111158624
0.08191715
-0.054882266
-0.00065544475
-0.08099577
0.08038601
0.0014437467
0.013684702
-0.009357877
0.09578873
0.041228093
0.033824287
-0.11012234
0.075109795
-0.11066721
-0.09031536
-0.078544825
0.060572598
-0.075782634
-0.07458355
-0.057977818
0.10133502
-0.0043247347
-0.102922924
-0.013695216
0.093986824
-0.05870562
-0.08295043
0.03738691
0.059249032
-0.061898585
-0.022524316
-0.082432084
-0.061666965
0.045989804
0.0023054143
0.04621059
-0.034190904
0.03770901
0.099829726
-0.00757333
0.037439074
0.091535375
-0.08794193
-0.10519199
-0.089426026
0.0052124895
-0.049149547
-0.053445783
-0.06343755
0.039144848
-0.06440821
0.05653304
0.04817204
0.025247743
0.039113365
-0.102666564
-0.056069143
0.05793274
-0.10033213
-0.058546916
0.0040253163
-0.072755985
-0.05237476
-0.058509912
-0.03348441
-0.08976549
-0.0112956045
0.09108503
-0.046798952
-0.026705708
0.06830201
0.06858348
-0.09512282
-0.11430055
0.0688889
-0.051531814
-0.059486415
-0.060043786
0.011306265
0.07404264
-0.03021632
-0.060642734
0.0015045193
0.09551385
-0.12089969
-0.0674765
0.015685916
-0.08072022
0.045327332
-0.08929829
0.01892587
0.076804884
-0.112398
-0.07552916
0.09850787
0.100076154
0.030297693
0.019961521
-0.038697924
0.027736515
0.011173529
0.13844112
0.05581056
-0.003087619
-0.08138571
-0.0025020845
0.048078455
0.032133415
0.0796358
0.09986719
-0.0033469049
-0.07469304
-0.08442592
-0.07665681
-0.0313651
-0.07900059
0.03485763
0.07508427
-0.11151813
-0.043318238
-0.072726496
0.07267463
-0.0032657278
-0.0603041
0.10988306
-0.08184236
-0.010465437
0.03290539
0.022051703
-0.06706893
-0.025178293
0.08583559
-0.08458116
-0.07141305
0.045768876
-0.05645419
0.05585091
0.0015178203
-0.025896156
-0.026513856
-0.07061225
-0.09551822
-0.059080623
0.06672054
0.041926198
0.050196283
0.047203496
-0.06073508
0.07289341
0.05970638
-0.04149327
-0.022860175
-0.00086045894
0.06319781
-0.109891884
0.021728335
-0.04605734
-0.025006864
-0.067951955
-0.015354078
-0.06325334
-0.02361641
-0.11272313
-0.09506172
0.09330982
-0.06729825
-0.096477695
0.07957749
0.09769664
0.028210428
-0.019421056
0.040717706
0.0054792836
-0.11887192
-0.047831673
0.034794953
0.059674706
0.0012900733
0.015754111
-0.10369952
0.035855755
0.029504677
-0.07313584
0.013016714
-0.1055202
-0.040391974
-0.12009202
0.04698141
0.0840258
0.012307541
-0.05730009
0.008046338
-0.06969083
-0.1035863
0.095517494
-0.09640672
0.005342551
0.015679615
0.024526244
0.09598417
-0.001079676
0.031175407
-0.06374434
-0.099310525
-0.054031625
0.007171317
0.0024572907
-0.10085973
0.00468521
-0.032646384
-0.059243448
-0.0113118775
0.06682992
-0.02932515
0.023892928
0.11463274
-0.027936257
0.045165747
0.04302265
0.08351623
0.13619927
0.03177322
0.082456
-0.0004014689
0.07840869
-0.06758179
-0.080694504
0.036900237
-0.05809813
0.10816649
-0.05958665
-0.11749988
0.051957633
0.0125025185
-0.08347432
-0.016236082
-0.038631406
0.006013647
-0.074582554
-0.07821158
-0.024805412
-0.10880445
0.03196161
-0.09878016
-0.0057410286
-0.004337995
0.048446994
0.10186227
0.0637624
-0.06506914
0.03223126
-0.07623357
0.046948727
0.00894145
8.0970734e-05
0.03462188
-0.10584436
-0.1330247
-0.026700787
-0.088951975
0.090753995
-0.10596154
-0.033025045
0.07043322
-0.04584895
-0.0010825637
-0.064414926
-0.020686185
0.03252169
-0.05363153
0.09078168
-0.06455062
-0.104141645
0.06164311
0.07480201
-0.066113375
0.06291795
0.04987864
0.09172975
0.07355766
0.12724985
0.032666218
0.07316864
0.04331206
-0.104450546
0.023632428
-0.022795394
0.10124307
-0.028378816
-0.04839771
-0.07724445
0.040899668
0.042229548
0.026506472
0.044912122
0.09434593
0.013290181
0.004414199
0.018990928
0.01122514
-0.007975301
-0.060898438
-0.105860636
0.022326473
0.07318197
0.02643034
-0.052859776
-0.061320063
0.061943974
-0.070967756
-0.0093914475
-0.01681489
0.08153749
0.052234817
0.022192849
0.046816427
0.017594174
0.050716765
0.07252889
-0.009356555
-0.069139205
-0.026756866
-0.04828347
-0.03428635
0.062183514
-0.07097979
0.03281297
-0.0009453601
-0.030594079
0.091470666
0.030898001
0.009498488
-0.03835183
-0.12184993
-0.102366515
0.062500946
0.006180243
0.03546419
-0.019373076
0.070504464
0.045324773
0.040744346
-0.06610114
-0.07403014
-0.07054256
0.07113718
-0.08811697
-0.025161855
-0.017792497
-0.033692535
-0.08218234
-0.0742419
0.039677903
-0.076427646
-0.057846103
-0.06486346
0.0015703234
0.037624072
-0.03979501
0.09636744
-0.10151184
-0.103272736
-0.0024438798
-0.05389717
0.1200652
0.017858341
-0.052410837
-0.067572236
-0.049044415
0.024937116
0.055025537
0.021458307
-0.07159513
-0.04013245
0.0081103435
-0.008674814
0.10127615
-0.096142314
-0.024624864
-0.06311526
0.06511002
-0.020482603
0.10011657
0.007293166
0.033932332
0.020214675
-0.084276184
0.079742275
-0.054876667
0.06995451
-0.1131925
0.02787839
0.051201332
-0.080844425
-0.08396417
0.007399995
0.092283465
-0.013355236
-0.011106292
0.095608495
0.04693414
-0.03028078
-0.053833146
-0.04330231
0.052222222
-0.020517329
0.10209295
-0.10117864
-0.0044434047
0.08164121
-0.024985928
0.079291694
0.01741021
0.047337547
-0.02710896
0.037811037
-0.07772892
-0.021745054
0.08284857
-0.040452898
0.03297161
-0.13011906
-0.12498185
0.055216648
0.052751888
0.09009168
0.09908187
0.05779538
-0.05135155
0.08374636
-0.039628994
0.036013924
-0.0423517
0.025669016
-0.007728854
-0.10595806
-0.052482236
-0.05376856
-0.09600653
-0.01143936
-0.016823446
-0.011894079
-0.029325752
0.01472024
0.08397627
0.09802836
-0.1000609
0.042953223
-0.08919698
0.03584741
0.10070263
0.055548508
0.037896365
0.0072709336
-0.05146465
-0.0769914
0.055415213
0.019306976
-0.08192033
-0.06005022
-0.040948562
-0.020080628
-0.005073695
-0.03272555
-0.08388573
0.033803612
-0.08948751
-0.070404
-0.02655846
0.12515351
0.12244945
0.006732994
-0.035958316
0.03937736
0.0053153317
0.030720979
0.1364489
0.06811627
0.024232024
0.11450086
0.10531395
0.03738483
0.022404706
-0.06371235
0.06724377
0.007592887
-0.0752238
-0.017751805
-0.06395545
-0.07781338
0.05040885
-0.09323968
-0.02710973
-0.023099728
0.004769649
0.083244555
-0.06487291
0.019687237
-0.081925
0.07526113
-0.019864226
-0.04945579
0.01463697
-0.09432338
0.04172098
-0.06397273
-0.05981646
-0.050548717
-0.039096706
-0.104538076
-0.04915118
0.055183996
0.017876409
-0.0965465
0.036034837
-0.06602164
0.028854877
-0.032722652
-0.021984858
0.055698454
-0.06057052
-0.019980574
-0.07951693
-0.050268587
-0.07203808
-0.12164802
0.09002662
-0.10547129
-0.039436527
0.032361858
0.08528036
-0.011281949
0.10262391
-0.039184682
-0.024540054
-0.024975257
-0.09580264
0.0047775
0.06485585
-0.052028865
-0.025768327
-0.06509558
0.021964435
0.050051056
-0.11512799
-0.0757359
0.054214947
-0.116227835
-0.023283811
-0.086796254
-0.035769712
0.07980853
0.024361078
-0.047916744
-0.06428768
-0.04958519
0.028062906
0.06690942
-0.025310656
-0.08759648
-0.10136986
0.00652756
0.09035761
-0.0071564717
0.033570055
-0.039327823
0.02964647
-0.08876003
-0.07469221
-0.052402563
-0.0026816446
0.07920762
-0.06720931
0.07842436
0.10735618
0.09443984
0.032260668
-0.018544758
-0.022304542
0.11172865
-0.039101552
0.02028554
-0.044624723
0.06588414
-0.009100809
-0.08337339
0.07062476
0.08239152
0.04212537
0.07996003
0.047114164
0.08054846
-0.0140140215
-0.08234534
0.013509993
-0.022344373
-0.039453
0.017483665
-0.060432956
0.023123056
0.029592136
0.106018394
-0.09068803
0.08714339
-0.08502423
0.09538194
0.09840024
-0.098627776
0.06610773
0.062564276
-0.05280231
-0.08076504
0.066691875
-0.051000617
0.03367719
-0.023093656
-0.0066390038
0.051984616
0.038276765
0.052551325
-0.07741683
-0.099242836
-0.11863277
-0.03355453
-0.08421054
-0.06779819
-0.07055284
0.08418048
0.013886084
0.03268898
0.10348993
-0.105813496
0.06811896
0.031387884
-0.058401767
-0.013463983
0.03417728
-0.086725704
0.053822912
-0.04230414
0.091656454
0.069824904
-0.04758338
0.031735793
0.038566727
0.0042553055
0.0479794
-0.021735983
-0.083417065
0.08276023
-0.052917834
-0.060778093
0.07658773
0.026070429
0.10790568
-0.08370695
-0.14062501
0.00042933223
-0.0014403086
-0.02404021
0.0014350528
-0.08868637
-0.098532066
0.08890174
-0.01953899
0.065168545
0.09024315
0.10843803
0.07924634
0.12547554
0.057810396
-0.05898998
-0.048745282
-0.017967906
-0.084026515
-0.02920548
0.02149588
-0.0848344
-0.021981616
-0.094240434
0.0032087895
-0.014796508
0.086768016
-0.07918841
-0.007949406
0.09385498
0.06695619
0.02234971
0.061144542
-0.121462956
-0.09935457
-0.026347646
0.106955975
0.09735278
0.0230893
-0.07868059
0.07587855
0.06881068
-0.054805815
-0.06448234
-0.013701361
0.056758575
0.005851036
-0.118098766
0.0881852
0.02017891
0.049392506
-0.06823486
0.120122164
0.049904432
-0.059147075
-0.05546606
0.06284669
0.03191604
-0.039430775
0.05852253
-0.075037085
-0.032177273
-0.06917971
-0.03800409
0.07753518
-0.024395913
0.059380215
0.11213564
0.08171919
0.028674923
-0.095112875
-0.039522767
0.011682666
0.055633258
0.014576296
-0.046326727
-0.011705451
0.034240827
-0.034937497
-0.10314344
0.027719945
0.061585058
0.05213219
-0.03516809
-0.029241893
-0.04949789
-0.01811535
-0.0515237
0.022784574
-0.070661485
-0.107597746
0.08454033
0.0022189647
0.092742845
-0.058400996
-0.046016295
-0.067583255
0.040404953
-0.0577288
-0.109576516
-0.010028521
-0.07464438
0.10349166
0.07791426
0.097395174
-0.04626876
0.0047349636
-0.032380313
0.038313232
-0.11123756
0.110597245
-0.07702756
0.09863755
-0.07494369
0.053152036
-0.043495577
0.097480446
0.062287245
-0.015637157
-0.018215925
-0.060315613
-0.028708389
-0.0049056946
0.019784307
0.058577888
-0.043908734
-0.09683807
-0.033347778
0.020480637
-0.03884067
-0.108921625
-0.060350526
-0.08566709
0.028173657
0.06228504
-0.109232
0.07176537
-0.046955653
0.10298279
-0.07540792
0.08919471
-0.028779764
-0.04407081
0.09479447
0.020971838
0.06117602
0.06897644
-0.102396294
0.06056555
-0.10320242
-0.10425155
-0.077905804
0.05875905
0.09183986
-0.079158686
0.04936235
-0.028181836
-0.05767301
0.009313678
0.028193528
0.012485241
-0.08088558
0.015002774
-0.1146397
0.025952261
0.014273633
-0.031208979
-0.01875193
0.026442857
-0.048520364
0.059480157
-0.10207515
-0.08384125
-0.007267655
0.109251074
-0.040425662
-0.008485842
-0.059080962
-0.0033271355
-0.043972157
-0.046708398
-0.010673124
0.026516419
0.09068397
0.08915955
-0.10907404
-0.004151646
0.007991345
-0.050626792
-0.0037154448
-0.017941972
-0.10341766
-0.07214991
-0.062178507
-0.020191757
-0.0132795125
0.09408849
0.081332445
0.11209745
-0.10299894
-0.043438673
-0.02565898
0.04249073
-0.04359533
0.049922273
-0.107274465
0.018749867
-0.085653715
0.038826514
0.03169667
0.030059882
-0.08693239
0.11700259
0.034482017
-0.053559523
0.02943369
-0.08107513
-0.06958802
-0.05356553
0.00534707
0.10219994
0.05966752
-0.048520043
-0.03396924
-0.06729731
0.08498593
-0.022367675
0.012890681
-0.0981514
0.062419936
-0.06329754
0.10793348
-0.03938711
-0.05601055
-0.0074277446
-0.06765199
0.0010027725
-0.10835084
-0.0820549
-0.05939969
-0.08790036
-0.053201735
0.059815504
0.011891218
0.06181918
0.12941661
0.011388594
0.0946591
-0.080816455
-0.07126689
-0.06105394
-0.02559879
0.11452559
-0.076617375
0.08905106
0.0890694
0.022255443
0.035333842
0.019088382
-0.06104128
-0.11432554
0.038415655
-0.11038383
0.0648146
-0.076401666
-0.09173429
0.0005326558
-0.030914024
0.07803546
-0.014164552
-0.022653714
-0.083425835
-0.108470194
0.1268529
0.1017476
0.103429444
-0.014449309
0.023480097
0.062525325
-0.04239989
-0.0053108917
0.052761395
0.020656193
-0.098884106
-0.037494723
0.022942023
-0.07933935
0.09683403
0.0819194
-0.09842926
-0.0768789
0.02756177
-0.07088732
-0.092998095
0.076038435
-0.116219416
0.054574464
-0.021861255
-0.029513424
-0.044598505
-0.029222393
-0.109413065
-0.055265706
-0.088757336
0.0012712524
-0.011198502
0.024059782
-0.04772836
0.0018608607
-0.06993329
-0.009484259
0.025914486
-0.01008395
0.0033777785
-0.080269545
-0.10470169
0.009776654
-0.044143453
0.03196358
-0.048131842
0.089371175
-0.108460724
-0.11631773
-0.038736425
0.100681044
0.10541389
0.008808557
0.077073224
0.07622363
0.07011398
-0.05179763
0.06280954
-0.02830461
-0.088201135
-0.020475488
-0.10018508
0.029870903
-0.04854041
0.030615201
-0.10053817
0.103744775
-0.029226413
0.024390344
0.104397714
-0.10713821
-0.07312646
-0.081569225
-0.015883977
-0.07567328
0.08082478
0.021444453
-0.091889195
0.071276434
-0.07157906
0.060283247
0.02881919
0.022691136
0.0012502526
-0.07673943
0.06477482
-0.069668196
0.027594863
-0.0610011
0.024625074
0.06223877
0.07785436
0.03402713
0.08036547
-0.090096526
-0.041096974
0.08705132
0.07830161
0.013438712
0.09791938
0.07232672
-0.055383336
-0.0492887
0.06167539
0.091212764
0.023612529
0.0027679566
-0.025277976
0.10172028
0.05373979
0.02253386
-0.03419674
-0.03150924
-0.059533313
-0.09918395
-0.044162445
-0.016090773
0.0728347
-0.051230393
-0.11089072
0.049480084
0.07097767
0.052671473
-0.098492645
-0.029761974
-0.05458576
-0.11521791
0.044093855
0.062040046
-0.029319357
0.048599157
-0.10020839
0.037263695
0.07258828
-0.02291825
-0.0736195
-0.0023537683
0.07928261
0.11964329
-0.06904296
0.05544538
0.020785427
-0.009577196
-0.08562612
-0.043466065
0.013771034
0.05746689
0.031984594
-0.0020770978
0.038049687
0.030175516
-0.029453535
-0.10186073
-0.030698787
-0.060057137
-0.0076471334
-0.04204081
-0.0425853
0.08732456
0.09984696
-0.094392665
-0.0501866
-0.043950208
0.07318028
-0.06920949
-0.022873318
-0.027493527
0.107929826
-0.0494932
-0.07985893
0.06621634
0.115612395
0.049308803
-0.045401074
0.07609552
-0.026022071
0.024030328
0.0040290114
0.07679549
-0.085985936
-0.119593784
-0.0948525
0.06551311
0.03258467
0.014729031
-0.06759244
0.08712363
0.00790685
-0.10545134
-0.056847345
-0.039670393
0.076192655
-0.1275608
0.053905554
-0.09050081
-0.02364484
-0.094364524
-0.009053158
-0.0282631
0.08302907
0.086965516
-0.08121144
-0.040446226
-0.068964
-0.07887252
-0.048706774
-0.023370331
-0.09614828
-0.08531421
-0.05110943
-0.07765768
-0.10442964
0.064094596
-0.004540253
-0.042429533
0.038514454
-0.017132264
-0.0852436
-0.06401287
-0.047703847
-0.10001284
0.015495711
-0.0058584344
-0.10152134
0.05300353
-0.09372215
-0.09777602
0.04752871
0.09490016
0.04002619
0.046894733
-0.02456799
0.04180679
0.029323477
0.030159853
-0.007825785
0.06873206
0.033147343
-0.03743257
0.069861576
-0.07972502
-0.07368694
-0.083935134
-0.08388973
-0.06740389
-0.09256187
0.08295101
0.051554732
-0.036777608
-0.057399575
0.10988816
-0.024116307
0.045205534
0.0024826732
0.05248328
0.023822078
0.08911012
0.10918001
-0.077152126
-0.025742378
-0.09760098
-0.09848029
-0.07385401
0.061437063
0.005730701
0.03423965
0.102376364
0.08907682
0.009427403
-0.059663367
-0.03821537
0.0010246189
-0.091478914
-0.0282818
0.05321087
-0.013592156
-0.06833818
-0.087861024
0.07227233
-0.012546934
-0.04997588
-0.054349683
-0.10130284
0.10599801
0.08303729
-0.025753709
0.033885244
-0.10416873
-0.031919595
0.04079247
0.11749062
0.076054156
-0.11336177
0.11155586
0.015350749
-0.052424397
-0.008267282
-0.09425225
-0.11922075
0.05174596
-0.0004914586
0.032020587
0.019187715
-0.0035244133
0.077481605
-0.06287921
0.09242748
0.087778516
0.06878495
-0.048468523
-0.110553406
0.03500199
0.07033374
0.038802315
0.013367951
0.08267356
-0.024281008
-0.105165936
-0.040096063
-0.13043438
-0.06295426
-0.010229458
0.10516674
-0.05620794
0.0029159135
-0.064343356
-0.025114758
-0.1520539
0.032954633
-0.10584462
-0.008497649
-0.044277236
0.056346286
0.099606246
-0.035925724
-0.058631696
0.05923558
-0.0013842639
0.06321969
0.0692437
0.02216428
-0.030094832
-0.062206335
-0.035919428
-0.020516817
-0.09238346
0.0356539
0.036615927
0.062551044
-0.048269834
-0.0851
-0.0472375
-0.014015401
0.057172783
0.014226026
0.038447294
0.088308305
0.03515768
-0.07872468
-0.07707975
-0.0012928863
-0.04510427
0.022644388
-0.10515086
-0.03175864
0.06854073
0.023993643
-0.087927625
-0.08548565
0.019939799
-0.005255464
0.045288645
0.09707923
-0.0019602354
-0.026326355
0.009730408
0.021459166
0.08075297
0.011317123
-0.012972296
0.08565458
-0.016371712
-0.1187972
-0.01741993
0.07697592
0.051061027
0.03957963
0.10789836
-0.002244985
0.06481471
0.06990623
-0.0011292865
0.013574138
0.0859924
0.029671697
-0.110990904
0.076074064
-0.017376816
0.08457358
-0.08315245
0.07071659
-0.015073426
0.025883943
-0.09366616
-0.046131205
-0.020527702
-0.08974888
0.10376444
0.08417272
0.059041884
0.024985133
0.0057637813
0.027243404
0.07530301
0.09534381
0.007907445
-0.026349485
0.07155028
-0.05532647
0.03608983
-0.045802895
-0.021162665
0.053138684
-0.01193766
0.047618825
-0.01668277
-0.051384673
-0.1330329
-0.053284924
0.011295862
0.056175824
-0.10201199
-0.0530268
0.0015107131
0.0017234716
0.04832636
-0.040836364
-0.11058029
0.0076132943
-0.015486523
-0.03761979
0.019826194
0.017386671
-0.056386396
-0.08187869
0.07286997
-0.10477201
-0.057440776
-0.1107894
-0.08385034
0.032041144
-0.024033656
0.0015274831
-0.009940651
-0.050219867
0.0051062475
0.023292096
0.05741482
0.005522011
0.01747776
0.008919253
0.03463271
0.048232593
0.048241932
0.041399706
0.094972976
-0.03437394
-0.056472328
0.07901979
0.07556837
0.042042848
0.020209037
-0.10702388
0.024566023
-7.685124e-05
-0.062657796
-0.020686908
0.08645901
-0.033899322
-0.012689096
-0.107507296
0.10268504
-0.10402608
-0.01618621
0.029327855
0.011082401
0.026698807
-0.022180894
0.07441126
-0.061181597
0.010880543
0.03329348
-0.01923225
-0.076032884
-0.0019572524
0.08404785
0.07189814
-0.0056848116
-0.08991836
-0.0032880385
0.11436587
-0.051991593
-0.058271736
0.04200368
0.057300106
0.01371322
0.025663668
-0.012009312
0.035058167
-0.09270558
-0.01794434
0.045429304
0.08137516
-0.04627158
-0.11400335
-0.10879328
0.0037114648
-0.018379595
-0.043052472
-0.1046009
0.08038408
-0.00074299326
-0.039460175
-0.0069505665
0.09957316
-0.08195908
-0.046898752
-0.024235709
0.022460636
-0.0026233937
-0.016152872
-0.044581603
-0.06347319
0.06138656
0.108457714
0.00076290284
-0.0750504
0.06561075
-0.042898193
-0.018286403
0.0823679
-0.089708835
-0.062696174
0.0627205
-0.02997239
-0.0065849526
0.027161427
0.076756746
-0.059744347
0.10079594
0.049466833
-0.08101712
-0.08852593
0.010911916
0.09393743
-0.08886767
0.07194632
0.043243006
-0.054515395
0.02844757
-0.08546532
0.012246859
0.09716509
0.002758688
0.044821348
-0.08652761
0.00637144
0.040091522
0.067795485
0.08969146
-0.060784437
0.011800069
0.09763201
-0.016194815
0.0108976215
-0.04509269
-0.07839449
-0.026369456
-0.10737405
-0.029124632
-0.075431146
0.0027642727
0.03778198
-0.093230106
-0.04856092
0.12957078
0.05888368
0.026810024
-0.08972675
0.018849598
0.108292215
-0.021193316
0.060164325
-0.05185651
-0.077958606
0.0737572
0.029421695
-0.02163552
-0.026564263
0.08849362
-0.04245519
0.029601853
0.06760984
-0.002420946
0.021568876
0.026140325
-0.046313427
-0.06559399
0.058356695
0.07214622
0.07793698
0.04408191
-0.058324162
0.05563144
-0.02533567
0.051583353
-0.06455048
-0.047755245
0.011578989
0.0551846
-0.007962531
-0.09537822
0.10978016
0.029604187
-0.016696414
0.016669614
0.062472176
-0.07698693
0.055278443
0.020261148
-0.02094159
-0.07725428
0.09845845
-0.048687052
-0.025881806
-0.124492384
-0.065469064
-0.09759907
0.0040946845
0.11963252
0.06991705
-0.024747988
0.014040593
-0.04080624
-0.059918135
-0.01835484
-0.10666117
-0.03359129
-0.013471704
-0.04181714
0.1046015
0.000104939994
-0.021540606
-0.054097775
0.0015909995
-0.035879903
-0.03784123
0.08476078
-0.11225123
-0.024198867
-0.05029279
-0.087922275
0.05089972
-0.021297727
-0.08952104
-0.005533468
-0.014960706
0.016071253
-0.029537607
0.02900715
0.079183064
0.102335244
-0.018957913
-0.10385136
0.10308227
-0.027917119
-0.032820985
-0.007248108
0.0067667775
0.09514707
0.031822305
0.061516456
-0.029778685
-0.08436854
-0.0068514277
0.0003472317
0.058615167
-0.012079899
0.00887067
-0.033151716
0.05324378
0.058668282
0.019645784
0.032944262
0.07725791
-0.094191715
-0.07948352
0.03431559
-0.056426052
-0.08564142
-0.08849295
-0.07351363
0.10989012
0.089642145
0.021101614
-0.039404627
0.013837909
-0.0159006
0.0037029556
0.052190997
0.081834584
0.0014394067
0.021821948
-0.05787095
0.063675344
0.087617956
0.034013923
0.006841312
0.03141506
-0.12173849
0.014756957
0.04137409
-0.07787929
0.04473529
-0.046151467
0.006248625
-0.016207214
0.05744055
0.065303735
-0.01695818
-0.095089726
-0.015108573
0.012897192
0.07886924
0.04881817
0.0056846286
-0.1037195
0.045022618
0.040573083
-0.04171552
-0.05561307
0.020855226
-0.028464874
-0.05924516
0.018332284
-0.04639521
-0.09235954
-0.010653887
-0.029352387
0.10259249
0.10928991
-0.049906533
-0.03957286
-0.088966966
0.013710955
-0.077949695
-0.07158158
0.08135451
-0.008518395
0.024907557
0.04018248
0.00855316
0.0011939659
-0.063074596
0.012565982
0.08366371
-0.045238756
0.13846889
-0.06494894
-0.045551494
0.0032705541
0.08051627
-0.02520793
-0.09308765
0.08563724
0.010641914
-0.09348175
-0.09931908
0.0444993
-0.08497566
0.06737258
-0.031459745
-0.073000826
-0.04232464
-0.029108454
0.14565521
-0.083539665
-0.014518563
0.0144247245
-0.07077809
0.0762128
-0.025303705
0.061306108
-0.040555757
-0.005841533
-0.051389586
0.05939962
-0.056393724
0.07588847
-0.03999014
0.059706062
0.03103518
-0.014261665
-0.08791155
-0.045334853
-0.078132
-0.044555523
0.0035921254
0.019829474
-0.036882564
0.05716886
-0.09189224
-0.0781672
-0.013635116
0.026576696
0.05010672
0.054271366
-0.060354423
-0.047461443
0.055990327
-0.087770365
0.10897952
-0.111020885
0.06428652
-0.08821656
-0.085509114
0.037903063
0.016442796
-0.052869145
0.10164773
-0.08277154
-0.07837674
-0.097361386
0.07160074
0.1310874
-0.11653814
0.030673977
0.034765832
0.059523687
0.06686559
0.04263192
-0.008968726
0.047999464
0.031812005
-0.083652884
0.09048501
0.024921713
-0.043824114
0.023417203
-0.082561776
0.0923141
-0.007958064
-0.12666073
0.08747404
0.039462917
0.07314792
-0.009486695
0.06398667
-0.022411494
0.032643884
-0.0092535885
-0.06297558
-0.05250706
0.0060021193
-0.099370755
0.10915778
0.023386927
0.09420345
0.0057870816
-0.05032405
0.09667658
0.029829985
0.024884257
0.0024515663
0.021031726
0.06823216
-0.09235075
-0.02681022
-0.041254792
-0.006915243
-0.021652775
0.055587687
0.058241032
0.013231439
0.025292978
0.012416588
-0.060721725
-0.091832235
0.09130619
-0.114027634
0.011307293
0.04682135
0.012941003
0.01669043
-0.03999998
0.10219836
0.08527288
0.005253763
-0.11807873
0.03263118
0.069268495
0.08076635
0.015836677
0.0026871157
0.062130947
0.05887736
-0.029353345
0.09436735
-0.018206844
-0.06807555
-0.08391536
0.035259165
-0.042586837
-0.01560913
-0.116455525
0.037265148
-0.06665958
-0.07053168
-0.07983389
0.0082951095
-0.0111640645
-0.020968039
0.03640472
-0.11368188
-0.035476647
0.056455508
-0.042061307
0.014636548
0.054207705
0.06746281
-0.062236134
-0.039202075
-0.050484102
0.09096256
0.095368184
0.057630144
0.061119393
0.089841016
0.04645574
0.0892789
-0.0037954394
-0.020720625
-0.055642467
-0.111193165
0.014882646
0.10472688
-0.002969138
0.07051055
-0.07728985
0.00559433
-0.030283818
0.05970691
0.05423016
-0.032559674
0.044209726
-0.039508622
0.07551712
0.0758971
-0.08546093
0.028141912
-0.11268384
-0.033964984
0.040820476
-0.092553146
0.035563964
0.022080027
0.0077257957
0.10343284
-0.07790573
-0.07804383
-0.07528842
0.05167974
0.074341655
0.060306564
0.07770507
-0.109151304
0.06383039
0.006394862
0.056553014
-0.1024585
-0.0052891322
0.074492216
0.00080437114
0.032174457
-0.09793701
-0.058126364
0.009707259
0.074982345
0.096108444
0.073289454
-0.057953622
-0.1218964
0.06701244
0.105745815
0.048105177
0.09817399
-0.08181972
0.046704367
0.03209253
0.0906016
0.059197687
-0.022208469
0.0746274
-0.019077098
-0.12048633
-0.096995056
0.09110536
-0.10605942
-0.072270215
0.062457796
-0.049512908
-0.09434669
-0.022966456
0.077936575
-0.06060141
0.03086607
-0.034012455
-0.044836942
0.048267175
0.07491309
-0.025601383
0.030625746
-0.054893695
0.053938825
-0.079593554
-0.12004445
-0.026428094
-0.09926882
-0.079890765
0.0011180969
-0.06584854
-0.028165055
0.066551894
-0.054717146
-0.013269432
0.035161544
0.09351588
-0.06737159
0.08423926
-0.029607661
-0.055062667
-0.06717207
0.07249837
-0.006387725
-0.07387372
0.04188693
0.11419328
0.06904325
-0.069505796
-0.009170406
0.07273421
-0.05681851
0.06502825
-0.07060865
-0.12471175
-0.06957277
0.008491026
-0.05977522
-0.024055995
0.020771865
-0.08364833
0.010654953
0.047360957
-0.043196674
0.05151611
-0.022591088
0.10921072
0.054677237
0.089869276
0.023415055
0.047069296
0.089917995
-0.00533368
0.031133184
-0.035191156
-0.09595783
0.07378554
0.06557371
0.057566717
0.053085417
-0.062426
0.075173706
-0.021529797
-0.082217515
0.05224362
0.030154563
-0.048603203
0.076912254
-0.07504512
0.027984839
0.11857603
-0.08716585
0.076905675
-0.06892095
-0.0008998044
0.08359368
0.063855805
0.03226549
0.060531147
-0.021603266
-0.07739269
-0.11359375
0.07985357
0.06538031
0.09328881
-0.09207314
0.09396468
0.035319746
0.06393368
0.0870071
0.07118072
0.07259063
-0.04376472
0.020913268
0.070934385
0.07008022
-0.08627715
0.021205215
0.04088518
-0.103475496
0.076704815
-0.09011901
0.097897284
-0.00047578485
0.035939533
0.065353855
0.0030253006
0.03224625
0.03417027
-0.029588066
-0.09945688
0.034985255
-0.026896661
0.058966085
-0.05704067
0.07071716
-0.099349156
-0.033463776
-0.059675988
0.029834168
0.044431087
-0.08724745
0.07799088
-0.07211499
-0.06143035
0.057033766
0.050162014
-0.11096059
0.044830848
-0.03307177
0.08816114
0.09075409
-0.0028604488
-0.031461135
-0.031469952
0.06510177
0.054022033
-0.076260045
-0.030431647
-0.085844375
0.028821215
0.024464527
-0.08914478
-0.07769627
0.069534175
0.083075665
-0.008217014
0.12790328
-0.021304721
-0.059903156
0.08856908
0.08856029
-0.047020327
0.043955136
0.053167835
-0.084168494
-0.08147625
-0.09595934
-0.0058133206
-0.009542573
-0.06845084
-0.032015417
-0.01758362
0.10217636
0.010388706
-0.08292485
-0.05310383
0.08876883
-0.11573102
-0.009500588
0.0512394
0.06510246
-0.020193856
-0.008062675
0.06954521
0.009607072
0.043114994
0.023038981
0.023137646
0.039811034
-0.009000085
-0.09276558
0.05391848
-0.060464457
0.09404937
0.04795981
-0.1054419
0.030687584
0.09848739
-0.11144421
0.055310473
0.06438308
0.10799364
-0.026423255
-0.10870592
-0.09883422
0.10773146
-0.1090011
-0.02230187
0.04502771
-0.0971087
0.05940851
-0.0994444
0.020524157
-0.033591487
0.026373737
0.028825337
-0.124765754
0.0015952255
-0.05280692
-0.06791477
0.06579631
-0.103496455
-0.043359198
0.06979603
-0.029392716
0.07829162
-0.019212509
0.053043567
0.038863003
0.0652121
-0.040219374
-0.084744975
-0.052956145
0.06540642
-0.06639511
-0.04071867
0.09942316
0.023342649
-0.09673216
-0.019657357
0.032610387
0.018636873
-0.052483913
-0.13324457
0.06570832
-0.0115650715
-0.029192373
0.08981832
-0.07951075
-0.010174636
0.018184988
0.03680037
-0.113856636
-0.0662894
0.07864053
-0.03248017
0.12931803
-0.0049303165
-0.06530835
-0.10170287
0.010341982
0.005724455
-0.05855285
0.03541589
-0.10765495
-0.062855996
0.03184016
0.015409167
0.09050348
0.0768553
-0.04314817
-0.021659506
0.044999514
0.02255652
0.03051885
0.05069922
-0.044051163
0.022389084
0.0063667987
0.046114106
0.009064223
0.055714875
0.06322195
-0.06689007
0.11112451
0.04586197
-0.072735354
0.0011982566
-0.0032007995
0.10893171
-0.116050504
0.029191626
0.061921783
0.028103864
0.064793795
-0.06773735
0.015323098
0.048729584
0.08192688
0.014405645
-0.0167359
0.0070403665
0.06854373
-0.016982557
0.04784064
-0.041598592
0.0431346
-0.12343242
0.01154817
-0.058463756
0.047820386
0.08237503
0.020622944
0.054099675
-0.07476788
0.029904798
-0.08198633
-0.019102972
0.10273761
-0.062638685
-0.09273293
0.029948967
-0.095678754
0.08916228
-0.018554937
0.025390105
0.11329797
0.029104706
-0.07154584
0.06633892
-0.03774897
-0.08186599
0.014101839
-0.04055693
-0.07081172
-0.015839094
0.04991468
0.03774511
0.07583722
0.105612665
-0.10697968
0.029614378
-0.045980953
0.08269705
-0.08609134
0.08765413
0.013581131
0.07563505
-0.03573689
-0.034952916
-0.029264031
-0.06869568
-0.08619247
0.08371253
0.0013047148
-0.04578742
0.029414427
-0.07586328
0.05577661
-0.019542977
-0.060921762
0.01973988
-0.091089435
-0.026319675
0.0569722
0.00021589817
0.06158438
0.017067684
0.08245389
-0.12430223
-0.050304048
0.054933544
0.10209336
0.044767234
-0.01512519
0.067405954
-0.108094655
0.007413528
0.072912976
-0.02288586
0.042558365
0.010703049
-0.09398172
-0.08775266
0.05984638
0.07704705
0.05447638
-0.04137897
0.03419324
-0.08364421
-0.050883766
0.10309876
-0.091464184
0.023529975
0.041092437
0.01174557
-0.06540257
-0.023723193
0.015874699
-0.115110956
-0.07004755
0.008131742
-0.06921711
0.037466437
-0.012994188
-0.08681605
0.08459393
0.023238363
0.07888325
0.1085289
-0.08847398
0.02298808
-0.0435027
0.0151459435
0.10287176
-0.118957214
0.019503538
0.030237217
-0.09835675
0.066946685
-0.03465937
-0.017272098
0.07662948
0.07412429
-0.043750968
0.08065241
0.010237246
-0.08477477
0.072526895
-0.041762877
0.06597838
-0.084349595
-0.076187976
-0.10603109
-0.03848224
0.086913906
0.0841785
0.07145821
-0.113280244
-0.08285595
-0.013903672
-0.08175932
-0.041198097
0.028861219
-0.0083173765
-0.06087848
-0.033113774
-0.12361813
0.060113117
-0.085641645
-0.114074275
0.09478839
0.007950964
0.081800774
-0.03831856
-0.069259174
0.10209711
-0.10424037
-0.047850933
0.09278344
0.008900838
-0.11232028
0.026174592
0.06876401
0.036381125
-0.11088288
-0.01216173
0.10286661
-0.002544336
-0.02864112
-0.034593254
-0.025263473
-0.038279727
-0.08447664
0.04083241
-0.09149723
-0.08631801
-0.07251254
0.08579259
-0.05515901
0.04712384
0.07194297
0.0008725665
-0.062425464
0.054712005
-0.05188894
0.08927204
0.042761635
-0.046603724
-0.07288791
-0.08803604
-0.08521096
-0.041871626
0.03584912
0.07651476
-0.05762209
0.10533325
-0.0758187
-0.060373202
-0.08164884
0.08500488
0.071310915
0.0017848337
-0.099410765
0.018510608
-0.05255402
0.041080076
-0.10274298
-0.08028766
-0.07016499
0.04306118
0.043793786
0.059544105
-0.09308935
0.06224874
-0.0021926186
-0.04806407
0.033643417
-0.06449331
0.018603098
-0.09449677
0.006369909
0.06788028
-0.040677786
-0.009048925
0.09512312
-0.023190478
-0.07696796
-0.023371967
-0.036516063
-0.033227492
-0.06538856
-0.031330764
-0.057800736
0.011062245
0.048900485
0.08364095
-0.041945707
-0.00019013144
0.101111315
0.016199173
0.00027380761
0.024957415
-0.0074635893
0.025471788
0.012405296
0.06822243
0.058717538
0.046435796
-0.014204506
-0.08162063
0.06854118
0.08740256
0.021331988
-0.049369708
0.012893314
0.03345827
0.03491368
-0.03342977
0.04119673
0.06731348
-0.020601932
0.031161064
-0.0071024746
0.047286756
-0.0897311
-0.09346064
-0.023994282
-0.10295761
0.051372252
0.085063204
0.001350272
0.06675686
0.064455695
-0.026235353
-0.05666264
-0.06785453
-0.11897273
-0.09640384
0.10086379
0.09308519
0.037649248
0.07129302
0.055521343
-0.025956923
-0.021971485
-0.010298117
0.056896776
0.011583482
0.058982003
0.042445574
-0.04624001
-0.022118786
0.054418642
0.040010132
-0.104442805
0.10495519
0.09188632
-0.028857144
-0.007152673
-0.09045533
-0.037367783
-0.010392274
-0.09058505
0.034536667
0.014245473
-0.1133537
-0.08877081
0.045969456
0.0031983508
0.08599135
-0.093833275
-0.07721695
-0.025675924
-0.045094915
-0.10828658
0.059103593
0.024834603
-0.017940836
-0.07718083
-0.095869884
0.10355896
0.0064689107
0.025319695
0.026281785
-0.057006754
-0.041578908
0.044415947
0.008641867
0.0024073056
0.063159384
-0.0694406
-0.021521261
-0.020554472
-0.0018269771
0.01014988
-0.051319174
-0.06679078
-0.020540034
0.02922229
0.07004936
0.0830601
0.10076813
-0.038849503
-0.06847646
-0.03027076
0.10403247
0.047551394
0.054619517
-0.06554607
0.08847059
-0.055206437
-0.09305483
-0.0054369615
-0.09857559
-0.066848256
-0.037284184
0.068328656
-0.07639947
0.052754533
0.04097148
-0.0012818149
-0.016561685
0.0039233644
-0.07393666
-0.07850911
0.057752006
0.042647216
-0.06646442
0.053509668
0.09315647
0.013165744
0.025421694
0.056148056
0.09043081
-0.067058064
0.08495346
-0.08606934
-0.054219313
-0.010048875
-0.008693771
-0.0800653
0.077872835
0.040647745
0.06826455
-0.044113576
-0.11916721
-0.02174045
0.028117621
-0.008966666
0.122279525
-0.041591037
-0.05478278
0.034072783
0.020650242
0.066848874
0.03848389
0.07620465
0.08137427
-0.092420384
-0.039801337
-0.022007931
-0.07398111
0.027224774
-0.04088518
-0.020059483
0.06462179
0.061703674
0.046781376
0.07435278
-0.04402758
0.023118703
-0.0060003693
0.119900055
-0.10078519
-0.050851736
0.08244213
-0.006383174
0.025731064
-0.008770261
-0.07028145
-0.057854794
0.037691556
-0.07311593
-0.08845244
-0.09613224
-0.11002266
-0.057869002
-0.072478846
-0.010226134
0.08816066
-0.009887558
0.07356169
-0.10044492
-0.06651491
0.049509108
-0.06335337
0.010996803
-0.05396296
-0.026485428
-0.039545406
0.08129092
0.05799186
-0.06041652
-0.026102725
0.09274582
0.08391571
-0.091753766
0.055156957
-0.031036822
0.035282236
0.032994717
-0.011941524
0.0883211
0.024786593
0.087500565
-0.052450202
-0.010853122
-0.10977043
0.009324998
0.036218453
0.0847281
-0.07575796
-0.07219815
-0.113978155
0.05721487
0.05723028
-0.07441764
0.037092358
-0.0767932
0.038103964
0.08568763
0.035521366
0.090248995
-0.06710889
0.0574117
0.090404116
0.058420725
0.053637322
0.020512326
0.019784305
0.07368152
-0.11042304
-0.0045818645
-0.13722934
-0.060025517
0.06290929
0.08552278
-0.070513844
0.030414868
-0.075255886
-0.008518643
-0.0022224372
-0.06524472
0.033187624
-0.08062497
-0.027779141
0.035743453
0.06855856
0.008454436
0.08087157
-0.08825737
0.069355525
0.00025959997
0.08270041
0.076868296
-0.08047583
0.054606274
-0.095025666
-0.0734421
-0.11233228
-0.0060173133
0.053207587
-0.05085656
0.07133496
0.0024080526
-0.046703205
-0.08810166
0.019917091
0.05204494
-0.048510443
0.09815175
-0.058882855
0.01270445
0.1000168
0.023651473
0.062346507
0.04708766
0.06473015
0.10968641
0.041305404
-0.10643613
-0.008323428
-0.08032374
0.058151893
0.088140875
-0.088791855
-0.087703526
-0.107521564
0.029584672
0.0012538305
0.04713698
-0.00094715215
0.055524573
0.033361915
0.059699956
0.06535272
0.00048132197
-0.07747452
-0.069659635
0.09032624
-0.047851067
0.1291353
0.07750907
-0.0013012096
0.0047950987
0.0036572712
-0.06449257
0.03548054
-0.017804692
-0.056794282
0.0036936265
0.01136727
0.010902575
0.04703892
0.0061530266
-0.11250724
0.08626353
-0.0730032
-0.012446305
-0.026902338
-0.038932428
0.07595986
0.035951473
-0.09321712
0.0014911263
0.11133306
0.044221677
-0.0697383
0.14024924
0.052432172
-0.1047553
0.033493422
0.0505228
0.06969977
-0.10115123
-0.0870939
-0.037325196
-0.050594054
0.07055914
-0.03810179
-0.0019210903
-0.121241055
0.02927943
-0.054930903
0.08147337
0.039421074
0.057011
0.02349067
-0.07532312
0.09647644
-0.026350455
-0.046975788
0.06295582
0.05260947
0.04205719
0.023350721
-0.09224384
0.08032765
0.006626111
0.06589748
-0.014506827
-0.037953727
-0.08946959
0.032377347
0.05109496
-0.11467547
0.004038975
0.014953877
0.09818218
-0.077941366
-0.01179729
-0.025395948
0.034587607
-0.032533824
0.022686029
0.042564683
0.093424514
0.09004313
-0.079370335
0.101123996
-0.020364359
-0.02252045
0.012934485
-0.019574238
0.094298385
-0.06564414
0.06649101
-0.041648887
-0.01006646
-0.017196838
-0.046799183
-0.10460862
-0.058586035
-0.10463692
0.04923671
-0.040497936
-0.029486965
-0.11157401
0.10072539
0.016233433
-0.00034688172
0.07635492
0.041438106
0.054521665
0.056077633
-0.06483747
-0.1253448
0.039851576
-0.08761173
0.021150501
-0.0809737
-0.02010541
0.04958882
0.032909553
0.047162365
-0.11398874
-0.009241822
-0.019480629
-0.02101341
0.095082395
-0.0862997
0.06658133
-0.065464586
-0.024534037
-0.023207283
-0.0021513933
-0.08477648
-0.10587113
0.0432678
0.10553269
-0.031833973
0.07357355
0.028037878
0.07352167
-0.0664491
0.08440158
-0.109084636
-0.013022113
0.052760117
0.07400458
0.019564174
-0.10870237
-0.023151703
-0.055782158
-0.053945705
-0.04261506
-0.07368219
0.0860494
0.07945365
0.016110694
0.07913829
-0.05836081
-0.028924061
-0.03398737
0.05832211
-0.02262241
-0.004473043
0.0016753634
-0.067663066
-0.10160352
-0.0044449954
0.017228954
-0.035825737
0.03168594
-0.056346904
0.06458309
0.09179578
