Key: /conv2d_24/conv2d_24/bias:0, Shape: (64,)
0.20425807
-0.09742234
-0.08885596
-0.0071720164
-0.09712343
-0.0962583
-0.08620477
-0.0751744
0.0036462722
0.0664178
-0.04567647
-0.10619198
-0.0886723
-0.09993192
0.18474025
-0.06757847
-0.089217946
0.18891557
-0.08334084
0.09382077
0.0012645149
-0.06816936
-0.057217002
-0.061289646
0.10489372
-0.0631544
-0.08005728
-0.1093414
-0.08282349
-0.047409605
-0.08935284
-0.07842384
-0.08688719
-0.06336949
-0.051867258
-0.09513313
-0.07204411
-0.07155024
0.10042642
-0.09129393
-0.05746766
0.08961232
0.19051541
-0.09858133
-0.061550494
-0.10800523
-0.07122454
0.18403864
-0.08150556
-0.08746392
-0.08666039
-0.0774043
-0.058485843
-0.07869944
-0.056094646
-0.02061449
-0.07144388
-0.09336906
0.1872822
-0.110514104
-0.110176414
-0.095277086
-0.06716878
-0.06012191
Key: /conv2d_24/conv2d_24/kernel:0, Shape: (64, 3, 3, 3)
0.27218378
0.26506972
0.14830673
0.1752011
0.23036224
0.031673387
0.14739509
0.084436595
0.09300918
0.12578087
0.012375342
0.06930202
-0.011875136
0.121926785
0.025230188
-0.021179838
0.09500463
0.033105507
-0.008958195
0.056629084
0.10418075
-0.08984652
-0.01489984
-0.005959822
0.026940318
0.122894175
0.0032791803
-0.011111167
-0.06692229
0.0021392822
-0.055257127
-0.111440554
-0.0006659312
-0.059006628
-0.1182794
-0.12299283
-0.027756678
-0.061273713
-0.079834715
-0.05239876
-0.14302966
-0.053323057
-0.021704832
-0.10527597
0.015565862
-0.047158763
-0.12898985
-0.039009053
-0.004040636
-0.09666223
0.053989176
-0.10116453
-0.098426536
0.007223994
-0.0052262843
-0.068832695
-0.12039883
-0.009793812
-0.1575292
-0.13151278
0.037765097
0.022168696
-0.13477068
-0.042703733
0.056749534
-0.046443272
-0.110105455
-0.007293642
-0.07607913
0.059351966
0.05613333
-0.020420318
-0.12681308
-0.11284629
0.05776197
-0.077761814
-0.0096596675
-0.047316164
-0.020152822
-0.105842836
0.024272952
-0.07928929
-0.03622887
0.11416973
-0.07747739
-0.016127253
0.056516316
0.036525227
0.054233428
-0.0040222933
-0.03086727
0.10228282
0.017864492
-0.022787668
0.0385988
0.11636494
-0.052624863
0.042470433
-0.06143247
-0.03446458
0.08201111
0.112829134
-0.029701572
0.036268707
0.043481678
-0.07767594
-0.12463357
-0.10836417
-0.1024605
0.0009973192
-0.06553249
-0.068139344
-0.00018568797
-0.12576196
-0.09981634
0.014402208
-0.067987315
0.020673696
0.019469097
0.034891292
-0.112968795
-0.116174184
0.0588458
-0.06622887
0.06660547
-0.12830211
-0.020761613
0.020219084
-0.005017524
-0.05979939
-0.08399359
-0.027693143
-0.12611099
0.028355021
0.05224023
-0.16808873
-0.06859725
0.009265492
0.013918204
0.024576137
-0.13593231
-0.15518226
-0.064844094
-0.054485537
-0.073361315
-0.020072874
-0.067344226
-0.044924945
-0.030457115
0.041987784
0.031670734
0.029514588
-0.09827268
0.00350692
0.19352542
0.031007264
-0.08840275
-0.024136031
-0.065713376
-0.06195747
-0.05864131
0.038807187
-0.10319503
-0.08945497
-0.13829243
-0.008566182
-0.095023565
0.050149567
-0.10575239
-0.051396437
-0.09399682
0.038106803
-0.11097585
-0.07405393
-0.012472655
0.021929087
-0.08041933
0.019782815
0.023050534
0.03684007
-0.08391734
0.046412025
-0.020581042
-0.13037992
0.01768178
0.04773192
0.0419426
0.07229888
-0.026988648
-0.006217022
-0.1133836
0.015198467
-0.045434378
-0.07865415
-0.12205927
0.00013665747
-0.06920391
-0.028892817
-0.0137883695
-0.08578279
0.06468571
0.020279642
-0.1499107
-0.083871156
-0.09951402
-0.12674946
0.015835395
-0.012477808
-0.05170273
0.02932292
-0.09112338
-0.080590054
0.047854967
0.027025532
-0.016055549
0.039548755
-0.090921186
-0.04839675
-0.060405754
-0.006849818
-0.022926304
-0.12047914
-0.0034370467
-0.056893416
-0.016482228
-0.064367585
-0.1514272
-0.1568127
-0.047640566
-0.095665485
-0.10481855
-0.014547942
-0.032656472
-0.14751448
0.02924471
-0.020818306
-0.11113735
-0.14060082
0.022863919
-0.1103183
-0.0004152032
-0.06610318
0.02585272
0.08190185
0.15444577
0.090152465
0.06114049
0.16832905
0.17313872
0.11089324
0.06692465
0.1293863
0.06400123
0.086353816
0.09316765
0.09409877
0.1991348
0.2170749
0.17644802
0.04784479
0.1843127
0.04720161
0.12646393
0.064513125
0.17071009
0.06387575
0.20185333
0.051737938
0.114456005
0.12265895
0.03275954
-0.094282344
-0.14494441
0.042446624
-0.13073672
-0.0919643
-0.037798785
-0.036523793
-0.081951454
-0.20816495
-0.080015935
-0.1401124
-0.19252531
-0.16586955
-0.1344356
-0.17091335
-0.11194499
-0.12480576
-0.041050985
-0.031050587
-0.016763622
-0.045001183
-0.11984593
-0.103840776
-0.11374007
-0.09388038
-0.06567173
-0.01345409
-0.13812333
0.010247688
-0.14086264
-0.13283952
0.012885525
0.010447865
-0.12725651
-0.04756455
-0.05089331
0.01644839
-0.009286219
-0.054538235
-0.029530287
-0.08386481
-0.07779864
0.012826224
0.025079845
-0.09358434
0.018554544
-0.09143445
-0.123214014
0.029377483
-0.018941771
0.020492572
-0.12886183
-0.023758002
0.0010952603
-0.0048361137
-0.07700266
-0.14622343
-0.10541851
0.011720797
0.016186545
-0.14528431
-0.069321916
0.052972406
0.049851753
-0.117504284
-0.02665922
-0.036462564
-0.0017612688
0.058799192
0.0076283608
-0.03905633
-0.064029105
-0.106195435
-0.05216623
-0.007866853
0.034508515
-0.11006603
-0.12427993
0.003250444
0.03656588
-0.031943195
-0.027617
-0.14076164
-0.025925495
-0.11908628
-0.10411182
-0.07285977
-0.1649601
-0.046573017
-0.114019714
-0.08407822
-0.056271527
-0.1547354
-0.049624115
-0.052814003
0.008960107
-0.07260356
-0.04173067
-0.122067556
-0.06951363
-0.08129986
-0.03672088
-0.11493273
0.019797303
-0.042714078
-0.11268497
-0.05209659
0.18960977
0.15106352
0.07574916
0.19156063
0.079994574
0.15451428
0.1878255
0.25163192
0.12483187
0.08284617
0.08714522
0.22997938
0.1151808
0.19211125
0.11826524
0.14050606
0.25700945
0.1927319
0.02548846
-0.03911346
-0.005987209
-0.051824287
-0.06384508
0.09015057
0.039779093
-0.010151129
0.07284013
-0.08710759
-0.061763052
-0.011802326
-0.028821293
-0.15219226
0.030400805
-0.116656445
0.032351963
0.014178063
0.07785103
-0.021600056
0.0059029274
0.041493475
-0.020874023
0.0053923433
-0.038271084
-0.061397724
0.06691189
-0.014289655
0.025104964
0.06548899
-0.028979382
-0.08257481
0.0035838136
0.053949263
0.016011493
0.031996723
-0.021672204
-0.117033586
-0.1336414
-0.046496145
-0.08908407
-0.041426644
-0.1094074
-0.12360865
0.018119192
0.026403569
-0.08626019
0.01666594
0.00312158
-0.007235125
-0.07279379
0.006139473
-0.12166563
-0.022424998
0.10569411
0.01784436
0.028346974
-0.14781943
0.024993217
0.04399282
-0.071254365
0.040013455
-0.13962619
0.11224426
0.117755026
0.1394813
0.101966366
0.24964975
0.106496155
0.21209748
0.10733736
0.1888219
0.19145119
0.11410123
0.10701507
0.17841996
0.09829252
0.26777285
0.16219753
0.10474869
0.20564498
0.02335679
0.014304524
-0.044094015
0.012752551
-0.009467828
0.07897725
0.18206166
-0.030521914
0.05161672
-0.10018931
-0.077416986
-0.09419215
-0.008524547
-0.13319455
-0.15884265
-0.06762672
-0.11430088
-0.019064002
-0.015343424
-0.102468714
-0.15655693
-0.11596573
-0.040795878
-0.08461088
0.01226032
-0.08564799
-0.14740062
-0.06361281
-0.089840844
-0.16759138
-0.16871417
-0.065678634
-0.13738659
-0.023299223
-0.098355144
-0.057615925
0.17256895
0.10263084
0.08001139
-0.014798474
0.11245015
0.19072017
0.19534849
0.184375
0.07282563
0.20839745
0.14438881
0.06168544
0.06966191
0.046643693
0.10956665
0.23278186
0.16220716
0.066391274
0.16679527
0.028293256
0.04760489
0.029580537
0.12385201
0.09395825
0.052081518
0.081253596
0.119934365
-0.08868696
-0.052737217
-0.035202187
0.09821491
-0.06971626
-0.043170623
-0.052613817
0.023651486
0.09074844
-0.13134551
0.009388925
-0.1577032
-0.040357266
-0.15426941
-0.1652404
-0.017980183
-0.09943098
-0.111310676
-0.13640715
-0.12834677
-0.1239265
-0.032081388
0.04391907
-0.012842417
-0.023489155
-0.1389705
-0.116338596
-0.1611726
-0.034423955
-0.14350174
-0.15467604
-0.035179026
-0.0385838
-0.02712421
-0.09026565
-0.010175292
-0.047057513
-0.056444548
-0.110623956
-0.07856727
-0.058004055
0.0006505177
-0.15066193
-0.16293743
-0.11175178
-0.12184395
-0.016439114
-0.029504709
-0.028463509
-0.16338088
0.0066372515
0.0028649203
-0.09019445
0.011056155
-0.022405041
-0.009450473
-0.07334058
-0.10841871
-0.1618451
-0.036909483
-0.062540606
-0.06439859
0.043502282
0.09595658
-0.06294371
-0.086879015
0.020354299
-0.06327286
-0.1499887
-0.054224912
-0.0010881131
-0.08599922
0.014383305
-0.0032493342
-0.06393368
-0.022589058
-0.15918191
-0.04375643
-0.067037806
-0.07629287
-0.017174195
-0.07927545
0.036180176
0.064066656
0.012541943
0.04101918
-0.1315838
-0.0009638691
-0.06823849
-0.048644394
-0.01539798
-0.05395512
-0.08137692
-0.08662728
-0.098839335
-0.06646587
-0.047577105
-0.0022346082
0.024243085
0.041617803
-0.036099415
-0.12910733
0.047268447
-0.14709103
-0.12821095
0.023376688
-0.051345706
-0.11515674
-0.04055539
0.08565021
0.02724094
0.0018109859
-0.02748624
0.007839687
0.012020344
0.0034934257
0.011810663
0.05677121
0.0017945446
0.0020500165
0.046745624
0.06264938
0.033916637
0.14301416
-0.027026504
0.11479661
0.13819328
-0.010461189
0.02009629
0.13445613
0.1708902
0.09073846
0.13699575
0.13952222
0.15445356
-0.15629737
-0.083296
0.00802113
-0.18673393
0.07953441
-0.038004573
0.009260717
-0.023921128
-0.043738652
-0.06545438
-0.12997855
0.054257043
-0.10783986
0.020341214
-0.03365974
-0.12768939
0.025461812
-0.11591766
-0.07361995
-0.067418866
-0.10378682
-0.044755165
-0.03900615
0.08146365
-0.04542632
-0.025237922
0.016441993
-0.029516172
-0.086406566
-0.16611326
0.005746534
-0.13242999
-0.022809632
-0.1588267
-0.016476793
0.006541636
-0.1544913
-0.108931735
-0.00483494
-0.059545536
-0.1258877
-0.09094125
0.03064014
-0.016639741
-0.1061725
-0.122596465
-0.06133362
0.046036948
-0.16956793
-0.09809649
-0.046271086
-0.13785559
-0.112884216
-0.13176258
0.018094582
-0.11461364
-0.11791123
-0.06316585
-0.14919841
0.03496419
-0.08365513
0.040115193
0.01612435
0.025604276
-0.086225845
-0.0038345295
-0.021152267
-0.09913497
-0.018210309
0.010543196
0.05634707
0.06057435
0.009220688
-0.027304955
0.0074464483
-0.13574986
-0.08853105
-0.032581158
0.0033095577
-0.076809
-0.005280459
-0.01116526
-0.06080678
-0.07494161
-0.075226374
-0.07367438
0.0015598244
-0.060123917
-0.14304754
-0.017339919
-0.1327424
-0.10304683
-0.057939585
-0.14885251
-0.12015526
-0.08804745
-0.11849614
-0.08265455
0.010934113
-0.06931782
-0.045815077
-0.1389047
-0.062272463
-0.09446808
0.04073296
0.016605081
-0.05197755
-0.016651234
0.0047035497
-0.08613106
-0.120932564
-0.121807076
-0.0957305
-0.0919028
-0.027098803
-0.04143277
-0.062102325
-0.097210385
-0.10497754
-0.07830971
0.041024037
0.03559016
-0.07756641
-0.0031781213
0.05874455
0.011819178
-0.11510303
-0.1060136
0.04569623
-0.09278022
0.014391098
-0.086289145
0.060010202
0.021437904
-0.023864964
-0.121323496
-0.10760363
-0.043038346
-0.15273044
-0.068846904
-0.029470952
0.0041066394
-0.07897879
-0.07127822
-0.034490187
0.03933642
0.05751574
0.005538761
-0.00434038
0.040325932
0.037870992
0.06438757
-0.122742124
0.07643573
0.22704002
0.19724087
0.036573935
-0.0706975
-0.10047311
-0.015591003
-0.11170771
-0.060004145
-0.0210282
-0.07492962
0.006057352
-0.03926204
0.042076066
-0.12741704
-0.06122309
0.0024310397
-0.10942957
0.06266084
0.07739211
0.05384639
0.055596583
0.0046852035
0.028453963
0.013503423
0.023166893
0.051831335
0.23717147
0.22871603
0.049253855
-0.11343572
-0.022309951
0.016961006
0.047521614
-0.117848925
-0.0713188
-0.03518064
-0.121544495
-0.026128791
0.008698213
-0.13577682
-0.119305976
-0.088303976
-0.054162603
0.022418676
-0.12215662
0.029908642
0.06646412
0.019044632
0.047441967
0.057249945
0.04865718
-0.08585049
-0.06896772
-0.09714337
-0.025892315
-0.042019244
-0.038401116
0.0053970297
-0.04620171
-0.08545338
0.046283457
-0.046739385
-0.03326858
-0.12585056
-0.13865319
-0.13144572
0.0052476544
-0.12896304
-0.101287976
0.03759366
0.0017134553
-0.003699304
-0.04719168
-0.0071410295
-0.04841581
-0.1327094
0.007627303
-0.145415
-0.10663908
0.041222796
-0.13090628
-0.15561873
-0.04868601
0.021340413
-0.008306587
0.0001758393
-0.14549981
-0.12469494
-0.13002042
-0.14288785
-0.073458366
-0.01572093
-0.09888283
-0.034684576
-0.037459232
0.06758191
-0.06939582
-0.12606174
-0.10616061
-0.08288218
-0.033538383
-0.011526793
0.046166774
-0.12835324
-0.0144308815
-0.09501191
-0.05958618
0.05448528
0.028169276
-0.059412457
-0.01472336
-0.1387834
-0.04581997
-0.07408358
-0.02182993
0.036176298
-0.13799156
-0.017472891
0.04100563
-0.025293687
0.012312373
-0.10395516
-0.02061323
-0.10336211
-0.0961917
-0.050350495
0.04479539
0.03753729
0.061707273
-0.09224696
-0.06949893
0.006958189
-0.096749775
-0.10276025
-0.0457204
-0.029847275
0.064696185
-0.1135188
-0.082695045
-0.060058173
-0.0072528915
0.04221357
0.021910831
-0.15927152
0.015780969
-0.06372952
-0.026496116
-0.07673385
0.005258762
-0.01953191
-0.09716815
0.036721826
0.039465465
0.034912836
-0.032054503
-0.061850596
0.004207377
0.047278266
-0.061761905
-0.094314
0.013044953
-0.15571053
-0.03752334
-0.07661848
-0.035053503
-0.019247293
-0.1391267
-0.075704075
0.0017730879
-0.114753276
-0.012516555
0.0097406255
0.015114483
-0.076248825
-0.14080204
-0.10589941
-0.05065867
-0.0055758213
-0.1500865
-0.08556386
-0.054529738
-0.083648324
-0.008045151
0.056265894
0.05212346
0.023622714
-0.05768399
-0.07452149
-0.03266812
-0.07706872
-0.051038604
-0.1104171
0.0138390055
-0.15840422
-0.10439688
-0.08254857
-0.02675538
0.11761449
0.16210268
0.15996641
0.11066275
0.19514228
0.018949805
0.08354703
0.13601156
0.047073282
0.18117651
0.11009321
0.23883788
0.081143044
0.085965745
0.09467831
0.25041077
0.15791574
0.055611957
0.16354305
0.11929288
-0.041362334
0.16096853
0.046575118
0.09782719
0.058169175
0.08402668
0.07558525
0.023604535
-0.16022053
0.01899539
-0.1539053
-0.042257026
-0.10500915
0.026317278
-0.07764053
-0.106718056
-0.0009300588
-0.087962344
-0.07577379
-0.071131244
-0.1026698
-0.055564076
0.016581759
-0.059764452
-0.01418695
0.01364394
-0.032332003
-0.0021996766
-0.051610276
-0.035712957
-0.17308527
-0.052416828
-0.10293948
-0.019029954
-0.17435211
-0.072415456
-0.15196575
-0.062201742
-0.095455095
-0.1305354
0.007794211
-0.03299294
-0.007948952
-0.07527944
-0.13182937
-0.015451844
-0.05619102
-0.0334393
-0.11595527
-0.0055922642
-0.049219437
-0.0779924
-0.009910077
0.0056181103
-0.043186728
-0.053065382
-0.14504133
-0.14227004
-0.10660556
0.00548269
0.017239042
0.105507426
0.13852069
0.015378368
0.04720465
0.11209708
0.13731578
0.03299306
0.12914184
0.18494277
0.18976799
0.12739272
0.07329372
0.20434046
0.14677526
0.057019036
0.19055824
0.08161496
0.05736773
0.054086834
0.14548703
0.021466125
0.040778562
0.092773154
0.1785843
0.08808126
0.2122266
0.028169563
0.14474669
0.24640444
0.13877104
0.042577155
0.19199283
0.18696544
0.09455367
0.244907
0.03418284
0.0701663
0.13914788
-0.032381766
-0.0015531126
-0.021724354
0.08387106
0.08245907
0.08395056
-0.027362542
-0.009551419
0.024488976
0.042817555
0.076869175
0.114775576
-0.053914174
0.016782958
0.15494047
-0.017609036
-0.12641202
0.026875775
-0.013861156
-0.09605303
-0.15454929
-0.16076396
-0.04047417
-0.033610303
-0.022183627
-0.07584745
-0.1065439
-0.057220764
0.022510013
-0.052151453
-0.11346434
0.002798238
-0.096179724
0.049233537
-0.07034165
-0.024390854
-0.119326375
-0.13585897
0.034657784
-0.0015492699
-0.1589784
0.04605816
-0.034056418
-0.10948826
-0.06450205
-0.06753881
-0.06666157
-0.14719707
-0.044156183
-0.1259212
0.011650552
-0.0093338145
-0.019311294
0.015788918
-0.054858547
-0.018109363
0.0015843036
-0.124818146
-0.11969068
-0.018506566
-0.089087605
-0.14657852
-0.010895314
0.043460634
-0.046619628
-0.05744201
-0.11466347
0.0280441
-0.15584244
-0.09656713
0.0014110691
-0.043701578
-0.0045468076
-0.15996672
-0.103894375
-0.09867885
-0.10130299
-0.009002373
-0.0692406
-0.052734807
0.04533088
-0.02499711
0.045537323
-0.0028117192
-0.12986915
0.04161568
-0.018876452
0.03472711
0.18352725
0.12859482
0.20130453
0.030677598
-0.05029444
-0.065667234
-0.09867735
-0.12466708
0.011995664
-0.008769845
-0.09041418
-0.019644322
-0.032733023
-0.11579481
-0.123239815
-0.13995366
-0.083208404
-0.027531039
-0.1718626
-0.088485755
-0.13044329
-0.05922577
-0.08781988
-0.014142562
-0.14403614
-0.17076021
-0.05284414
-0.18425661
-0.033528294
-0.100737356
-0.15412837
-0.0005459419
-0.16547324
-0.112173766
0.01874268
-0.17815538
0.18398045
0.070917316
0.17746887
0.17536265
0.13759539
0.087395035
0.17010304
0.2289629
0.103350274
0.14034641
0.10003495
0.10792684
0.096329786
0.2166958
0.08558403
0.13110957
0.2990653
0.18532383
0.048189536
-0.060522445
0.0064616785
-0.02822754
0.017733825
0.051241934
-0.075433776
0.02556375
-0.0091974065
-0.1487953
-0.0018544866
-0.1387682
-0.024643546
-0.15794505
-0.15404074
-0.12378891
-0.14690675
-0.009592847
-0.06107418
-0.11609532
0.0062980372
-0.021056881
-0.04491869
-0.00027430133
-0.11266142
-0.15995088
-0.11733701
-0.13210423
-0.099194154
-0.08161033
0.012828724
-0.024633737
-0.03803175
-0.13694546
0.024858166
-0.12622313
0.030217608
-0.103851445
-0.018151103
-0.14194793
0.04125891
-0.011814201
-0.051662274
-0.086439334
-0.05591572
-0.035257645
0.02346829
-0.010140953
-0.053021967
-0.060948063
-0.114877865
-0.052764226
-0.0014029457
-0.07165384
-0.014162947
-0.1195125
-0.08556649
0.00152689
-0.012526155
-0.022866623
-0.012191318
-0.12905733
-0.09355571
-0.010691357
-0.07648503
-0.09289021
-0.033709895
-0.066570446
0.041027304
-0.06281958
-0.086231135
-0.053560663
0.008475111
-0.026032258
0.017498512
-0.043504067
-0.019232703
0.019676981
-0.09585948
-0.045468375
0.072561674
0.08311892
0.11163368
-0.06318297
-0.10894253
0.044581924
-0.002894465
-0.0167602
0.0010816335
0.05985311
-0.11542857
0.05285104
-0.019659322
-0.06879216
-0.074266426
0.023685478
-0.06185476
-0.07497088
0.014495532
-0.05773924
0.08607783
-0.009327976
-0.036115862
-0.035301466
0.01989368
0.028487882
-0.018286442
0.006490418
0.05636836
0.23835474
-0.019737665
-0.09832865
0.05618375
0.06224376
-0.027849073
0.058267266
0.009285245
-0.057275306
-0.050694354
-0.10766065
-0.14864953
-0.13107051
-0.14794925
-0.13906485
-0.06950118
-0.12740786
0.020472743
-0.08920753
0.027669443
-0.08164844
-0.09436299
0.022864351
-0.07439186
-0.08263843
-0.047252275
-0.07242952
-0.08085759
-0.04698727
-0.021995185
0.029673422
-0.052411534
-0.13173334
-0.053751722
-0.0023936636
-0.10267352
-0.01749453
-0.018943368
-0.027933076
0.039242834
-0.02934334
-0.006738179
-0.11037069
-0.096825674
-0.017687213
0.046753976
0.008005691
0.0772217
0.061308436
-0.02054898
-0.003401594
-0.084065974
-0.09174755
0.09197359
0.18546629
0.16410498
0.005476705
-0.1215779
0.06333818
-0.090027906
-0.06355823
-0.09754007
-0.08105062
-0.076870956
-0.046711586
-0.14550486
-0.045967467
-0.022580843
-0.0133106
-0.0877181
-0.106779546
-0.085883826
-0.11598007
0.11528854
-0.09245316
-0.12292277
-0.19051573
-0.08464791
-0.08534148
-0.122217834
-0.15200739
-0.0465216
0.0036263338
-0.13997269
-0.062238377
-0.08717827
0.02507225
-0.16436343
0.019448992
-0.07054828
-0.14307743
-0.013519579
-0.0029644994
-0.13068339
-0.044832993
-0.117621854
-0.08638672
0.012236888
-0.16102917
0.019033073
0.0030828835
-0.06878196
-0.10369465
-0.13119946
-0.08583699
-0.13047218
-0.0076158326
-0.14031291
-0.009260425
-0.015657926
-0.16451745
-0.05331226
-0.1367821
-0.17154574
-0.12979257
-0.05888971
0.039371215
-0.025711544
-0.043266624
-0.08485584
-0.05064901
0.03349578
0.011677126
-0.10011695
0.0262249
0.012740923
0.013895406
0.03698129
-0.0017214471
0.06396527
0.020541385
-0.07623111
-0.017004589
-0.10428287
-0.05069602
0.1956931
0.019764056
-0.06819614
0.008967213
-0.06183423
0.041675642
5.3526048e-05
0.025290169
-0.007950341
-0.03889209
0.0308366
-0.020758692
0.00025980172
-0.14334817
0.026490288
0.024556914
-0.053432442
-0.060258035
-0.054376557
-0.10491435
-0.089896135
0.048108377
0.022461345
0.046128698
-0.083228976
-0.03860908
-0.076275714
-0.07458223
-0.062675305
0.06636809
0.03779879
0.0328725
-0.121021874
-0.07609345
-0.056435782
0.18103068
0.09251779
0.058488477
0.12954758
0.1456167
0.17855583
0.15230125
0.19814955
0.16022749
0.12636513
0.15247437
0.20433192
0.1430673
0.20347238
0.064466804
0.13175383
0.034632422
0.2536983
0.13741097
0.05241869
0.06626042
0.044783723
-0.0156482
0.003396044
0.017170873
-0.014759443
0.21436149
-0.019606808
0.06129408
-0.20644946
0.059024516
0.0023482807
-0.13525274
-0.038823035
-0.015405758
-0.06860212
-0.03416044
-0.049587358
-0.02669082
0.11378106
-0.057317875
0.011518793
-0.026643984
-0.019240495
-0.17497963
0.03970322
-0.050177265
-0.159601
-0.033005457
-0.07081229
-0.095204234
-0.017885787
-0.0667886
-0.12637086
-0.11542414
-0.10281141
-0.042755388
-0.12581277
-0.100235276
0.015023793
0.028542206
-0.16352409
0.0026838188
0.04464714
0.056207947
0.0016512434
-0.07061556
-0.029166656
0.017732576
-0.03628182
-0.1585498
0.033488825
-0.121749215
-0.08694301
0.034135643
0.019235177
-0.12987135
0.011194456
0.01219402
0.012537841
-0.11646464
-0.087170035
-0.161762
-0.16354726
0.025200611
0.020537447
-0.15453903
-0.09764264
-0.104387954
0.03669988
-0.002364101
-0.062386375
0.02282081
-0.005764916
-0.13939685
0.02605
-0.022772057
-0.124385424
-0.10313955
0.030136222
0.009526885
-0.024017084
0.026149675
0.015258363
0.0039054784
-0.059635535
-0.06307475
-0.024868863
0.042797238
-0.13373792
0.011948338
-0.06829371
-0.056372628
0.011219066
-0.025962438
0.04370367
-0.0016994859
0.062654056
0.021266798
0.046846773
-0.03904083
-0.022788191
-0.10007521
-0.05453131
0.048584305
0.07811809
0.15519674
-0.057520352
0.11853109
0.0752946
-0.021100802
-0.11286503
-0.11059634
-0.059073754
0.090462916
-0.004813695
-0.023219414
0.06519601
0.021430725
0.015510674
0.01733867
-0.039914604
0.044117145
0.044726122
-0.10115703
-0.00730351
0.061969727
0.010551835
0.004116233
0.005898289
-0.0065060826
0.081095695
0.025499186
-0.096334666
-0.04617503
-0.035408046
-0.077381864
-0.10676373
-0.0130845355
0.10564976
-0.024363875
0.14406611
Key: /conv2d_25/conv2d_25/bias:0, Shape: (96,)
0.05068319
-0.07246087
-0.05492571
-0.012403956
-0.04465291
-0.080520146
-0.040782746
-0.0033485144
-0.043639116
-0.060138118
0.077960595
-0.051325474
-0.039815195
-0.059850622
-0.05947095
-0.008337418
-0.05031117
-0.06093821
0.19972418
-0.05723838
0.07386674
-0.06523171
-0.060531277
-0.059903964
-0.0871565
-0.035870805
-0.13201514
0.038276102
-0.044243626
-0.121826045
-0.082423456
-0.06427217
0.008385587
-0.028414363
-0.045310933
-0.05835861
-0.059601806
-0.057222445
-0.07331371
-0.088659145
-0.07655441
-0.05463342
-0.015056582
-0.0145578245
-0.08588083
0.011960296
-0.061833266
-0.08376639
0.12448518
0.0519815
-0.08229235
-0.04464306
-0.021209778
-0.07533813
-0.061837558
-0.05975135
-0.05878555
-0.05704539
-0.041978247
-0.013227316
-0.055146396
-0.052370656
-0.058595695
-0.06494031
-0.04854034
-0.059630204
-0.061124668
-0.061759826
-0.059534676
-0.05992129
-0.058829553
-0.1248126
-0.058790397
-0.050527714
-0.04651929
-0.023229223
-0.074914895
-0.06186659
-0.06563264
-0.063503794
-0.059711598
-0.059814174
-0.05999974
-0.061024487
-0.060011804
-0.08327835
-0.08156223
-0.049425784
0.064268865
-0.06503358
-0.05148487
-0.07745405
-0.058957882
-0.060153373
0.07658715
-0.073693305
Key: /conv2d_25/conv2d_25/kernel:0, Shape: (96, 64, 3, 3)
-0.054004315
-0.04276716
0.005304533
-0.092381224
-0.09165612
-0.06891456
-0.06911086
0.013146263
-0.062471483
-0.0722446
-0.049350094
-0.00014461773
-0.0655176
-0.114959225
0.00030513178
-0.05147902
-0.027571814
-0.09611296
0.0050770487
-0.10229666
-0.10789119
0.045369647
-0.04841212
-0.0058501656
-0.0672698
-0.028343651
-0.11117696
0.015628172
0.0053708986
0.012960867
-0.05692971
0.014390737
0.00095246057
-0.095346875
-0.00048277635
0.0973952
-0.1041267
-0.097951986
-0.09915235
0.0036040356
0.018378047
-0.03452209
-0.10647408
-0.027635708
-0.013879445
-0.04689267
0.004731296
-0.06381264
-0.12154567
-0.09231192
-0.053219453
-0.0754195
-0.053545967
-0.003652988
-0.043682333
-0.09336798
0.018714642
-0.07926032
-0.057695765
-0.0729538
0.035719775
0.010760387
0.02219213
-0.1136086
-0.11214675
-0.028945554
-0.10067876
-0.021544745
-0.10906306
-0.0009917264
-0.10987759
-0.045840167
-0.09607783
-0.049401842
-0.018989034
-0.08724385
-0.06318671
-0.107015215
-0.012982557
-0.028052296
-0.10895777
0.09109506
0.0672528
0.10212086
-0.050181307
-0.0070710336
0.08382586
0.0022203845
0.02011885
0.092939496
0.01742208
-0.018459877
-0.013018367
0.055429447
-0.04991226
0.016823223
0.01850642
0.047291107
0.021545112
-0.026971107
-0.041827712
-0.041105624
-0.00647096
-0.015418269
-0.07561013
-0.027714517
-0.089872986
-0.010979403
-0.054555602
-0.095861
0.0061344677
0.01015695
-0.08131122
0.00037005046
0.035045486
-0.070476525
-0.10242034
-0.012420794
0.0049835094
0.0018454872
-0.10079844
-0.06127269
-0.10117361
0.072888404
0.046172395
-0.051798165
-0.08094247
-0.06486294
-0.01144152
-0.048630916
-0.09284549
-0.013117898
-0.083723694
-0.07908896
-0.0701214
-0.0126974275
-0.07574144
-0.081719585
-0.09433095
-0.059718672
-0.026453786
-0.101891324
-0.101743564
-0.027268378
-0.09399225
0.10038249
-0.07520726
-0.11244186
-0.017146362
0.07911069
0.019107828
-0.09728964
-0.0243764
-0.041716058
-0.09196781
-0.041278873
-0.114843205
-0.099239305
-0.08969548
-0.0089657875
-0.028713834
0.0020146887
0.012406018
0.045897614
-0.0054332847
0.029849658
0.027534747
-0.011614454
-0.07126618
0.017239328
-0.0812706
-0.023054775
0.06681179
-0.022708239
0.044330973
-0.005532622
-0.08191747
0.029859176
-0.08339568
-0.092191346
0.048259087
0.07854844
0.028046897
-0.09417536
-0.080268934
-0.03679728
-0.0663362
-0.021024503
0.053846344
-0.060306866
-0.034019377
-0.01741119
-0.09875968
-0.026302833
-0.114719674
-0.020675324
-0.040931173
-0.011605585
-0.037604704
-0.015416341
-0.007872784
0.047198776
-0.03278368
-0.057974238
0.09303041
-0.031999018
0.041819397
0.059099305
-0.079050206
-0.021393223
0.080104165
-0.01283742
0.0070541943
-0.07326495
0.009817053
0.010335931
-0.060216505
-0.051429596
-0.08689218
0.015861878
-0.024618149
-0.01792654
-0.021886354
-0.08052922
-0.04671752
0.04416988
-0.04839492
0.06006601
0.01947869
0.030686311
0.020111008
0.10999776
0.008481176
0.019591644
-9.207697e-05
-0.026167095
0.021163246
-0.012284302
0.018115658
0.02180685
0.044581164
-0.06154325
0.07110758
-0.09465887
-0.0076981136
0.0022399544
-0.036655482
-0.008946933
-0.09168335
-0.026936973
-0.10354541
-0.0487241
0.00081660436
-0.04290746
0.05641181
-0.04248312
-0.08211182
0.023562938
-0.04931972
-0.08864812
0.02914049
-0.015634913
-0.028922673
0.06003022
0.022634696
-0.03798043
0.05113405
0.0873229
0.06985572
-0.040748067
0.031055328
-0.0029434008
-0.036149748
-0.06394359
-0.023195015
-0.09678398
-0.021839293
-0.045503844
-0.011833743
-0.115161605
-0.106302254
-0.04982917
-0.0682179
-0.0064744614
-0.10537324
-0.022104822
-0.089060076
-0.103191845
-0.07980778
-0.10150203
-0.01750947
-0.005526007
-0.06771837
-0.11824224
-0.06407545
-0.008358394
-0.036176812
-0.08164714
0.07087486
0.012314702
-0.011641118
-0.10428155
-0.0013255042
-0.07642319
-0.06999366
0.027157523
-0.010463265
0.046743702
0.054999705
-0.021602489
0.03974739
-0.0170068
-0.031993024
0.030218065
0.044729564
0.1000017
-0.0967292
-0.10809965
-0.035905786
-0.10670091
-0.025372574
-0.07642931
-0.032816574
0.005120177
-0.06984272
-0.04875254
0.005047315
-0.07295226
-0.05541447
-0.041192975
-0.013140435
-0.03877124
-0.03656656
0.080253385
-0.031441383
-0.087384604
-0.102066524
0.06829257
-0.07271474
0.10691322
0.090390265
0.027939808
0.027958145
-0.07390996
-0.02671983
-0.018196696
0.035487346
0.061721895
-0.0659658
-0.10296949
-0.0725033
-0.027145451
-0.028475573
-0.12221739
-0.092830755
-0.08876243
0.004608785
-0.09493013
-0.11847783
-0.105418466
-0.09627567
-0.07965513
0.0019732984
0.019224895
-0.0073293485
0.012021429
0.03993678
0.0064938627
-0.039402984
0.08108415
-0.0015545617
-0.04533508
0.017887345
-0.050317608
-0.027747944
-0.04439047
0.05998835
-0.096609235
-0.06759896
-0.13730496
-0.05344398
0.011002023
0.032097314
-0.043272324
0.05114082
-0.020729568
-0.005330462
-0.00016274104
-0.080171235
-0.021602497
-0.03930663
0.07093001
-0.07430683
-0.053503476
-0.023422703
-0.0028225647
-0.014773228
-0.057944637
-0.017194211
-0.10770478
0.008617937
0.088775285
-0.08035986
-0.083661
-0.0360948
0.008418478
-0.094849475
-0.00021736401
-0.105295256
-0.042112358
-0.050800323
-0.110369585
-0.06677111
-0.02753203
0.054317433
-0.038923264
0.026957886
-0.011801935
-0.010741778
0.062105548
-0.04540716
-0.110873155
-0.03239803
-0.053135164
-0.12486209
-0.01664524
-0.12730898
0.032379836
-0.04519964
-0.0062070475
-0.03826966
-0.045349665
0.032248672
0.045646075
0.024998307
-0.008715825
0.0082285
-0.0903183
0.0027055568
0.026095014
0.042207718
-0.056054413
-0.09785266
-0.029578054
-0.015513031
-0.09342855
-0.07772655
-0.0022396217
-0.04124625
-0.117285185
-0.052759986
-0.033377077
-0.03533605
-0.114502534
-0.08580856
-0.10650594
-0.0428111
0.002192456
-0.12151903
-0.08737979
-0.053373497
-0.018344015
-0.028012257
-0.02305014
-0.09309127
-0.029609747
-0.10213752
-0.11433675
-0.044093624
0.06604898
-0.051968593
-0.07727621
0.04297353
0.057082266
-0.045473427
0.017744688
0.060959175
0.051797148
-0.11176465
-0.018175125
-0.047221635
-0.107363164
-0.009565421
-0.119971514
-0.07977394
-0.013411016
0.03664068
-0.06805387
-0.030871643
0.078075625
-0.023932714
0.08738814
-0.04074593
-0.051901713
0.017139602
-0.08219122
-0.021562895
-0.0069858865
0.008115112
0.047509037
0.010913873
-0.11372529
-0.093672216
0.07995252
-0.014384681
0.005601611
-0.103345014
-0.03690018
-0.033438947
-0.033837993
-0.041715402
-0.014822463
-0.11931754
-0.08165862
-0.036837325
-0.005336394
-0.061451294
-0.057689685
-0.0258605
-0.0136161875
-0.07483845
-0.05072501
-0.12530884
-0.05555565
-0.017785454
-0.060733803
-0.1370731
-0.043470915
-0.07889643
-0.09525915
-0.023294535
0.040661894
0.040567216
-0.04310693
0.08065213
-0.077216335
-0.0053270534
-0.06471099
0.09526749
-0.008077838
-0.07545624
-0.0776983
-0.058525383
-0.059553828
-0.07224237
-0.04333932
-0.078799345
-0.043681998
-0.017884742
-0.0143388845
-0.09756782
0.0061204443
-0.11057986
-0.0814848
-0.025138602
0.011544857
-0.028456049
-0.09815304
0.00495852
-0.03919787
-0.08677937
-0.017561125
-0.06014018
-0.016756764
-0.116448216
-0.021140963
-0.016061911
-0.046598062
0.0035462824
-0.073041074
-0.043107104
-0.10905775
-0.027460985
-0.1046103
-0.027184116
-0.096738376
-0.100516304
-0.061370723
-0.12273163
0.03889184
-0.06285245
-0.11287646
-0.09325076
-0.17094949
-0.09892066
0.0558663
0.0204566
-0.01312855
0.010685439
0.094272
-0.013265582
0.05940308
-0.010905728
-0.07185284
0.069305964
-0.062887564
-0.027593577
-0.10664792
-0.05958829
-0.050333735
0.053685002
0.019840518
0.12434777
-0.053823266
0.12766661
0.06137472
-0.09724816
0.010630881
0.002937372
-0.07905878
0.010739512
-0.08454975
0.057911146
-0.016515171
0.0002668427
-0.012585281
-0.0086039575
-0.096773885
-0.09899651
0.0005335742
-0.024188539
-0.07976576
0.015149854
-0.04755345
-0.08950115
-0.098894216
-0.020628799
-0.08836924
-0.006668909
-0.08932618
-0.075774215
-0.018649135
0.026594454
0.0043065334
0.0018250888
-0.09408903
0.0066993944
-0.00018016009
-0.046131086
0.0802167
0.047918953
0.06641805
0.05295546
0.10978151
0.035128973
0.0870792
-0.008094419
-0.022463482
-0.06901398
-0.10645667
-0.09049847
-0.09830697
-0.0016388651
-0.08767901
0.04211936
0.050591536
0.069098316
-0.08102937
-0.09659243
-0.13728276
-0.105629005
-0.106296025
-0.06742223
-0.0042171674
0.03413525
-0.0691813
-0.020569723
-0.064960696
0.044715405
-0.034571547
-0.018557226
0.031502366
-0.014675449
0.057779517
-0.020005194
0.13415036
-0.06163526
-0.080380104
-0.020648079
-0.043466724
-0.086205825
-0.03803052
-0.03526867
-0.082394056
-0.0993264
-0.08394265
-0.034973532
-0.024434151
-0.09836379
-0.017363757
-0.09268044
-0.09366171
-0.032351065
0.0453557
0.044994652
0.056623273
-0.0190184
-0.006562503
0.06551543
0.07098343
0.063314185
-0.03659544
-0.18043828
-0.18369184
-0.2084128
-0.12760352
-0.09820485
-0.19084503
-0.22766896
-0.1767675
-0.233513
-0.05833223
-0.029286243
-0.056893475
-0.042188466
-0.048656743
0.02117863
0.0020789148
-0.046541758
0.020072084
-0.00285221
-0.06650206
-0.00317933
0.01809556
-0.09951014
-0.10035854
-0.07174396
-0.010840978
-0.006249329
-0.21057796
-0.11013844
-0.19689414
-0.14324962
-0.16539463
-0.17458077
-0.111078165
-0.10996473
-0.12716748
0.06372402
-0.07352641
-0.016742663
-0.029115383
-0.036573596
0.06983082
-0.027717356
0.069611214
0.01218897
0.022787932
0.019283459
-0.10958595
-0.09298847
-0.12991773
-0.1329951
0.04991907
0.00091950945
-0.031751934
-0.009262877
-0.106556416
-0.034150783
-0.07795083
-0.084815554
-0.06855788
0.10235561
-0.08103887
-0.1269743
0.1132941
0.130542
0.08771213
0.034709543
0.0036713784
0.099948846
0.13151647
0.062775165
0.016405387
0.02541773
0.04620099
-0.043140754
0.06957037
0.058624793
-0.0035579572
-0.042517047
-0.003435507
0.013815428
-0.05175647
-0.03631243
-0.11216421
-0.11395342
-0.086014986
-0.10695606
-0.11261361
-0.028189614
-0.103720345
-0.106119566
-0.13450158
-0.044904847
-0.028767506
-0.054681428
-0.116097495
-0.06810207
-0.043892797
-0.11172748
0.0679094
0.07050105
0.02905406
0.009372063
-0.025438365
-0.051824126
-0.04430156
-0.057296135
-0.1066897
-0.08393955
0.025686316
0.087451465
-0.009440113
0.05865104
-0.072989374
-0.054336738
0.019243658
-0.023554122
0.13992304
0.051859386
-0.09236501
-0.06545793
0.015991796
-0.09384493
-0.10315534
-0.021113047
-0.02686275
0.044739347
0.018011376
-0.040653955
-0.010367996
0.017875561
-0.022358792
-0.045038838
-0.014165502
0.014228372
0.00041889137
-0.02539096
0.036032327
-0.007508196
0.032805182
0.03166755
-0.0076953853
0.0133004915
-0.02017715
0.09407689
0.03522118
-0.073986866
0.0003176335
-0.056740932
-0.008506753
-0.029694373
-0.0844569
-0.047506377
0.08157793
-0.004303004
-0.06249164
-0.08282697
-0.009920719
-0.07328484
-0.04319085
-0.004757563
-0.02542904
0.025332445
-0.08236718
0.0041650757
0.012584478
0.021385198
-0.026560027
-0.09843558
-0.059785787
-0.03396878
0.06777311
0.06550341
0.0031198042
0.08152249
0.037759885
-0.02897832
-0.01198011
-0.012379538
0.062015496
-0.0055575925
-0.0029117323
-0.058428347
0.015259446
-0.029491315
0.030836368
0.03272593
-0.00878853
-0.008988943
0.1257203
-0.063482076
-0.06305262
-0.105191596
-0.056097616
-0.085019
-0.051726762
-0.016728733
-0.0772368
-0.008334987
-0.00027666058
-0.06370817
0.003926909
-0.023576899
0.03163079
0.0373255
-0.026200976
0.075629465
-0.041701976
0.026570264
0.008763067
0.0018450051
-0.04828295
-0.025723552
0.04290312
0.039092015
-0.027237773
0.06867485
0.08480479
0.07381769
-0.036602005
-0.139651
-0.18348704
-0.078958794
-0.08522286
-0.18161538
0.041870516
0.021207742
0.118093
-0.02530321
-0.11933654
-0.117741995
-0.027999446
0.077631034
0.10586223
0.014408664
-0.0075075296
0.0509422
0.0438786
0.043615103
0.03628552
0.07344063
0.09188256
0.0035946234
0.07155754
-0.035073247
-0.18527146
-0.025106901
-0.06152509
-0.07046763
0.09185386
0.076870866
0.07398809
-0.09748015
-0.09971486
-0.13872269
-0.0448041
0.015754707
-0.20198396
-0.121789455
-0.12132819
-0.12234571
-0.11292559
-0.07719667
-0.08294334
-0.03221071
-0.036879513
-0.10793276
0.047603782
0.0058146017
0.101593085
0.06752773
-0.09500296
-0.052323002
0.00054169877
-0.016221179
0.018505506
0.041874424
0.031207828
0.013968292
0.14417161
0.13014345
-0.06747456
-0.06378886
-0.018170323
-0.05448865
-0.057729166
-0.04644743
0.00317221
0.02915511
-0.0781134
0.060761817
0.016037092
-0.077924855
0.0043196254
0.01402512
0.046198808
-0.07090615
-0.16915803
-0.103974104
-0.20198843
-0.19579385
-0.12973648
-0.17679523
-0.13995391
-0.16761239
-0.2172762
0.0029459675
0.01617452
-0.026927775
0.006460119
0.020534804
0.074712224
0.010544409
0.036546357
0.052295838
0.13982868
-0.06503969
0.0049915463
-0.0086861
-0.113555424
-0.1040756
-0.07255361
-0.124707654
-0.10679795
-0.032363355
0.002080887
0.028918453
-0.019733677
-0.012969297
-0.07863278
-0.0911373
-0.020241365
0.009652835
0.005968134
-0.071717784
-0.06792783
0.028417664
-0.074893974
-0.056372236
-0.066467725
-0.07176987
-0.056039523
0.05901892
0.008675075
0.057187278
-0.012425306
-0.06826626
0.029127494
-0.06298087
-0.007586797
-0.0596601
0.15327045
-0.048976727
0.011793489
-0.029995363
0.0021063313
-0.09623847
-0.038870215
-0.09610161
-0.07486839
-0.091606386
-0.06697382
0.043891408
-0.044538613
-0.022556437
0.08563645
0.0398378
0.08169277
-0.017545354
-0.119359925
0.0718569
0.07824658
-0.014595461
-0.028652051
0.06571981
0.054727778
0.019991841
-0.031975944
0.06803558
-0.088961445
-0.012203568
-0.028294818
-0.08570436
-0.08281224
0.023670726
-0.052939463
-0.028836535
-0.06321754
-0.00784291
-0.11237808
-0.07813918
-0.09784408
-0.044863597
-0.029860256
-0.02673921
0.004259598
0.058882773
-0.1880749
-0.15193744
-0.13972582
-0.16692121
-0.1268724
-0.18080878
-0.116254605
-0.14432007
0.0148509955
0.09157884
0.021439396
-0.07494109
-0.017136186
0.041256126
-0.07209846
0.091186926
0.03894289
0.04677415
-0.06964081
-0.06792027
-0.064207844
0.016978526
-0.06350794
-0.083250634
-0.07376324
-0.025491701
0.0014428998
0.008648771
-0.06322219
-0.050213356
0.0020096656
-0.033599198
-0.10589197
0.00587418
0.009455883
0.10406948
-0.075422905
-0.09319056
-0.04704925
-0.0287579
0.004887033
-0.031078147
-0.05757948
-0.08938879
-0.053723134
-0.046873547
-0.02349645
-0.04942005
-0.012703782
-0.055793446
-0.0036810278
-0.09346523
-0.09296441
-0.018379947
-0.018676743
0.01929243
0.00012339785
0.010232728
0.04661886
0.005169588
-0.06408456
0.010435281
0.042529188
-0.02833182
-0.014116814
-0.020622201
-0.027445741
-0.034828607
-0.047420908
-0.03929759
0.023556434
-0.021893393
-0.053211983
0.041536223
-0.005242951
0.056578334
0.0068811867
-0.018455517
-0.016851887
0.031847067
0.031448964
-0.041713987
0.03822726
0.054006986
0.02146854
-0.004269857
-0.006819991
0.008065494
0.010722835
-0.030383745
-0.042038165
-0.07009465
0.051627457
0.005185083
0.015995482
-0.00045171042
-0.04757677
-0.06409791
-0.007574109
-0.044825174
0.03428077
0.02110359
0.008431106
0.027956067
0.050140895
0.043913044
-0.040976256
0.0110972
0.011494518
-0.043980643
0.057340518
-0.012422235
-0.057465263
-0.038167924
0.027930882
-0.0032041755
0.0291597
-0.022215748
-0.055239704
-0.03814464
-0.048476927
0.058569223
-0.027224865
0.055308856
-0.018838055
0.030396838
-0.019820563
-0.007411957
-0.009844416
-0.0638627
-0.056095112
-0.029407535
-0.014832691
0.039498888
-0.06318443
-0.069058
-0.034017667
-0.06816666
0.046684418
-0.0036147737
0.020126421
-0.005134512
0.040050346
0.009628288
-0.007836651
-0.02223957
-0.047224533
0.06412894
0.032665238
-0.049368616
-0.0038948953
0.018606931
-0.036528993
0.049858373
-0.00033236644
0.0077742487
-0.011486352
-0.035238516
-0.023985595
-0.055650845
0.010541382
0.012066724
0.0063685197
0.022022467
-0.042085227
0.046028428
0.021749314
-0.0589173
0.009316234
-0.056259926
-0.00988818
0.030970477
-0.0358257
0.050658427
-0.03235072
-0.04222705
-0.029006995
0.0170888
0.008043587
-0.0077439905
0.044350285
-0.064713016
0.031332187
-0.04484903
-0.03478223
-0.062038463
-0.062341258
-0.056666117
-0.03251034
0.014238798
0.018166607
-0.050446637
-0.028898869
-0.033249497
-0.03816197
-0.05480308
-0.058119692
-0.056110878
-0.026885169
-0.04566616
0.031047806
-0.037031814
0.018810807
-0.004567958
-0.05073842
0.052953295
-0.053742643
-0.0074445237
0.029533574
0.044166517
-0.035287853
-0.049075674
-0.03238543
0.037359044
-0.064145334
0.04432124
0.025058761
0.03848716
0.02153822
-0.029286813
0.04645946
-0.033885546
0.02522491
-0.059840612
-0.008752627
-0.023456238
-0.055491995
-0.0334942
0.02923591
-0.042483173
-0.017178543
0.008038408
-0.02025983
-0.04720625
0.014751181
-0.051856056
-0.03618619
-0.0019086738
0.03445403
-0.009014443
0.03334433
0.038280845
-0.06150683
-0.024142189
0.0013163388
-0.045489773
-0.05301926
0.043314494
0.040572472
-0.04717073
0.023877189
0.060702145
0.04084544
0.041590758
0.04979302
0.01762212
0.012448192
-0.047624454
0.011176787
0.02817525
-0.05546375
0.024399418
-0.0057694074
0.009331502
-0.0059483503
0.017595083
-0.024475683
-0.031079378
0.033229716
0.055412684
0.06096767
-0.06410045
0.019070381
-0.042406373
0.046547845
0.060044393
0.020196982
0.050308123
-0.030760515
0.05289822
-0.056540858
0.0150823295
0.0022990257
-0.049407676
-0.023668855
-0.010191472
0.046816207
0.031286247
-0.06357056
0.043667972
-0.013060197
-0.007799886
-0.0065682046
0.011266246
-0.032706976
0.025454536
0.020770866
-0.014255273
-0.016624728
-0.05724863
0.038379744
-0.016041545
0.0048409756
-1.1048917e-05
-0.06660586
-0.052140635
-0.030714205
0.002224049
0.011744641
-0.0060349414
-0.0013488746
0.027952956
0.0076525426
-0.068593584
0.0582999
-0.009250611
0.054665387
0.042461388
0.0045097023
-0.059314832
0.012898833
-0.004583344
-0.00094730407
-0.041088603
-0.07035189
0.035522617
-0.06139831
0.036656197
-0.0029574293
-0.032131307
0.0016920163
-0.030763656
-0.050830945
0.0020964823
0.0036562886
-0.049866952
-0.056256842
-0.03967558
-0.0472786
-0.0040244926
-0.068269975
0.036493685
-0.011397221
-0.05357875
-0.011117119
-0.055449493
-0.053609245
0.048343316
-0.044330724
0.028450953
-0.05421654
-0.016174275
-0.058304165
0.024037875
-0.05487029
0.030857027
-0.010801122
-0.06198939
-0.030394483
-0.014060631
0.019844018
-0.05688516
0.044767402
-0.008190002
-0.053733964
0.05346752
0.0059879124
0.004497789
0.009596754
-0.026505155
-0.02615304
-0.027711805
-0.055091213
-0.019184044
-0.02306132
0.008500175
0.03856512
-0.020990012
0.02653205
-0.030885277
-0.044352617
0.045314617
0.004333519
0.05821164
-0.009588297
0.0040730312
0.019458195
0.056415442
-0.016495507
0.010535456
0.026122864
-0.045073632
0.051092226
0.009527465
-0.040389694
0.020669557
-0.032399323
0.043641448
0.03497591
-0.0442706
0.016087076
-0.019992545
-0.035356026
0.038527545
-0.014577195
-0.014338777
-0.04369102
-0.04632468
0.008102591
-0.047129687
-0.030404147
-0.03634259
0.01573386
-0.019498818
-0.02632486
-0.009813039
0.048013825
0.026957242
0.006677747
-0.01257697
-0.043280747
-0.020983748
-0.03809439
-0.02877232
0.03812983
-0.06581517
0.033686187
-0.012550592
-0.04430971
-0.01131022
-0.05888546
0.005976011
-0.008080617
-0.06246146
0.050235767
0.029832903
-0.030916339
-0.05053963
-0.025252465
0.04272022
0.054577697
0.016156571
-0.019275708
0.012069167
0.042132206
0.05111327
-0.018769907
0.047788404
-0.009786072
-0.02416417
-0.040468287
-0.03457706
0.014942363
-0.04243284
-0.054498717
-0.0039778017
-0.018470563
-0.04038211
0.019288842
0.021882925
-0.023238642
0.05283649
-0.009169226
-0.04956849
-0.03130215
-0.009223632
0.015822593
0.0084638735
-0.0021853913
-0.034457926
-0.029092032
0.04682762
-0.00248081
0.031363353
0.03323462
-0.021086987
0.01728222
0.047826357
0.039051842
-0.0034831471
-0.06579288
-0.019401198
-0.014547052
0.057154443
-0.035516903
-0.037451454
-0.0015957728
0.022391155
0.024707854
0.04740592
-0.038547598
-0.017791748
0.060420223
0.013770089
-0.051289096
0.038729865
-0.033950824
0.039973486
0.012595486
-0.016453706
-0.04039853
-0.047680452
-0.00725304
0.023650171
-0.0061841444
-0.043344066
-0.03306466
-0.015571321
-0.049976952
-0.04450876
-0.0102724675
0.029547809
0.028125942
0.028154748
-0.083050594
-0.038253892
-0.035066724
0.04804014
0.049639463
-0.00447204
-0.08077407
0.019938633
0.0024426281
0.028339349
-0.06242977
0.0058350936
0.06356079
0.028086647
0.028460287
0.0020561889
0.025815323
0.016410625
0.018357271
0.0476883
-0.036935464
0.001976998
-0.0664581
-0.028205706
-0.055719435
0.03040388
0.028740516
-0.035941843
0.011934004
0.060505323
-0.024042875
-0.029847082
-0.031272568
-0.053439014
-0.021822317
0.0060524535
0.018269366
-0.010179861
0.0187128
-0.060413614
-0.030447178
-0.0053115888
-0.027403232
-0.004762788
-0.049309745
-0.07095176
0.014024815
0.04271253
-0.030806419
-0.016914152
-0.045998096
0.02872153
0.023538705
-0.02992114
0.027961722
-0.061457224
-0.042913966
0.030031908
0.0056728306
-0.028922832
-0.008590699
0.051521678
-0.037775114
-0.03727814
0.009856864
0.022391982
-0.016586717
0.045085933
-0.052220214
-0.04540949
0.041067265
0.02960626
-0.045961
-0.01991334
0.004132196
0.032145392
-0.024818845
0.036269054
-0.013359595
-0.023155088
-0.0020718952
-0.031580105
-0.012747845
-0.063499205
0.03550673
0.04309804
0.022991188
0.04021678
0.0036840884
-0.038299285
-0.030908886
-0.03303771
-0.004516519
0.004530102
-0.042553905
-0.008104385
-0.051869318
0.00033660897
-0.042623088
0.028378716
-0.04695243
-0.038443156
-0.06794052
-0.031309303
-0.060765818
0.027029684
-0.038593635
-0.039338127
-0.0642956
-0.0074798185
0.017439647
0.011949928
-0.051582135
-0.08288384
0.018056892
-0.03999458
0.0014814156
-0.12219932
-0.118283026
-0.03861422
-0.11459417
-0.07213158
-0.017694958
-0.11119772
-0.04558236
-0.017333983
0.04266932
-0.026169471
-0.004825036
-0.034608465
-0.0752289
-0.06698407
0.008277572
-0.012656816
-0.050327647
-0.022466354
-0.045779113
0.007475364
-0.050548848
0.01921416
-0.0790887
-0.069326475
-0.050931644
-0.04628397
0.009214167
-0.0703098
0.0030571271
-0.024076479
-0.069722794
0.023465976
0.028890816
0.04483742
-0.022328613
-0.081416965
0.0012709021
-0.043321826
0.017754933
-0.024278112
0.026244903
-0.026717499
-0.0060561057
-0.055157468
0.013239262
-0.064170845
0.029624585
-0.01017996
0.04654328
0.0637748
0.011129675
-0.044519607
-0.07322186
0.047517873
-0.066095136
0.045798622
-0.03094024
0.016340317
0.03692145
-0.08590935
-0.075417005
0.10265557
-0.032984436
-0.02697907
-0.021714363
-0.10662067
-0.044168785
0.097306795
-0.024028882
-0.03105055
0.04834348
0.0143048735
-0.04493495
0.01122122
-0.056222204
-0.057088275
0.0378328
-0.09574164
0.012895952
-0.08332844
0.01167296
-0.08001633
0.038440946
-0.10436921
-0.07274454
-0.06446111
-0.069527544
0.03030199
0.046427924
-0.018137222
-0.075761825
-0.05757315
-0.033487234
0.018369034
-0.06758383
-0.068859406
0.053134277
0.02583231
-0.0036365965
-0.010203376
-0.053657167
-0.020515693
0.012947895
-0.044218514
-0.07315749
0.015311427
0.023074942
0.060397025
0.059052348
-0.01797476
-0.005711658
0.03720277
-0.040169116
0.007678029
0.015724238
0.019207496
-0.015328637
-0.07132182
-0.037844673
-0.06422707
-0.09441063
-0.04980932
-0.05576868
0.021715572
-0.11538137
-0.12124241
-0.0697129
-0.0574806
-0.13255185
-0.026091661
-0.076879784
-0.039847814
0.06423023
-0.048085768
-0.0041515813
0.049873885
-0.011957624
-0.050598796
0.047337014
0.025293022
-0.083820455
-0.08117384
0.006274076
0.0093702255
0.029791376
0.06069598
-0.019644098
-0.07271906
-0.0045718146
-0.060746975
-0.11275862
-0.08374613
-0.1048085
-0.016615992
-0.0216149
-0.110746205
-0.027677085
-0.10002432
-0.092673786
0.015730415
0.058265433
-0.036270197
-0.09080818
0.041103665
-0.0017046441
0.017264836
-0.01567188
0.065421134
0.006205915
-0.069050625
-0.003332788
-0.06702571
-0.034427404
-0.087848045
-0.01738465
-0.081395976
0.011278502
0.08283103
-0.00083214295
-0.060397007
-0.00852279
-0.026305448
0.03214849
0.061230298
-0.05598408
-0.008095094
0.06086038
0.13572577
0.0033941616
-0.1109347
0.018999489
-0.07392666
-0.10917585
-0.0008587109
-0.068046264
-0.04084888
-0.07595315
-0.09064387
0.04066507
0.032559194
-0.095502324
0.0070382454
-0.10273198
-0.022006743
-0.07691171
-0.0054548723
0.023815745
-0.079914205
-0.04129209
-0.055347245
-0.11328969
-0.094084434
-0.124758646
-0.01187371
-0.03905732
0.016373198
-0.089700915
-0.04463045
-0.044449583
-0.048591733
-0.054082982
-0.038590096
0.10552933
-0.027081821
-0.13260528
-0.08633309
-0.14676084
-0.12504469
-0.047506016
-0.123100854
-0.10355066
0.0059896335
-0.04717282
0.039861944
-0.07566183
-0.00044847754
-0.0662226
-0.021566559
-0.048888132
-0.041122593
0.03321164
-0.034019705
0.009382273
-0.043949187
0.039124176
0.0066123
-0.0032214564
0.024451034
-0.08275771
-0.042863213
-0.038119044
-0.08587504
-0.023669671
0.013989783
-0.08077057
-0.04770151
0.024679588
-0.11730363
0.004134137
-0.03243925
0.010281917
0.0074070543
-0.047243886
-0.023030424
0.029722968
-0.0061157136
-0.043247443
0.026429053
0.05586368
-0.013270336
-0.0039595426
0.016076002
-0.06967195
0.019358557
-0.052686412
-0.018207975
-0.022437086
0.053388555
0.084412225
-0.023910174
-0.001405238
0.008929012
0.04637265
0.058793753
0.04327139
-0.01094252
-0.031092532
0.0010207092
-0.02448886
0.008052459
-0.047992434
-0.027120229
0.011523998
-0.04364703
-0.089578606
0.068734646
-0.012909328
-0.11106282
-0.008769036
-0.022484306
-0.12319656
0.028686585
-0.082240425
-0.028006412
-0.0012054901
0.0062526097
-0.024413096
0.007571746
0.009648386
0.0551089
0.0004940202
0.015592535
-0.03818265
-0.059396233
-0.05772898
-0.04284293
-0.023896424
-0.0049186014
0.045619715
-0.05423386
0.048815593
-0.0060975165
-0.10244324
0.058224987
0.03278285
0.013210378
0.0026058422
-0.056522783
0.054501083
-0.0075433953
-0.007573419
-0.063940465
-0.03760294
-0.08972867
0.014706396
-0.05952634
-0.09236639
-0.039097015
-0.037135918
-0.013719872
0.008202005
-0.027415752
0.021281786
-0.08100692
-0.043872345
-0.093814366
-0.055506695
-0.04262432
-0.090636015
-0.04922697
-0.044037312
-0.0063046026
-0.06544114
0.0026653383
-0.07016337
-0.07584171
0.032344066
0.02399842
0.09074871
0.044788335
0.012806994
-0.06076771
-0.081202954
-0.026262237
-0.05958509
-0.09402576
-0.051442824
-0.07335529
-0.076935284
-0.05646832
-0.065588295
-0.023151606
0.016938258
0.011052023
-0.012576382
-0.09861892
-0.023078
-0.11925564
-0.06835808
-0.032532748
-0.05220384
-0.01680864
0.020348003
-0.08776057
-0.036460217
0.016308954
-0.06778614
-0.010889058
0.014277561
-0.05536812
-0.01429816
0.014624373
-0.05074028
0.025364785
-0.09991348
0.0040263813
0.042913694
-0.007894428
-0.08078639
-0.04379766
-0.050963096
-0.04198168
-0.058763895
-0.032085445
-0.004714688
0.063066095
-0.027538294
-0.023741942
0.0075997505
0.05131921
-0.018869923
-0.013807559
0.025586113
-0.02119179
-0.0946882
-0.034495175
-0.016956156
0.012723505
-0.08915798
-0.08776181
-0.13446097
-0.018814785
-0.06325203
-0.07097946
-0.051778283
-0.11007734
-0.096729666
-0.13028413
-0.13874044
-0.0658472
0.056057382
-0.046770602
0.06939051
0.03211817
-0.029847536
-0.10474203
-0.04319092
-0.018823486
-0.0128745865
0.010201838
-0.010934525
-0.07766235
-0.029375447
0.036232334
-0.07864416
-0.10649352
0.0028644872
-0.02542275
0.046204437
-0.07084772
-0.0012802167
0.047249056
0.012506945
0.063751936
0.019370517
0.010879452
0.05464861
-0.0037952026
0.04441894
0.014802341
-0.008160943
0.023115726
0.006174331
0.07126533
0.007883673
-0.041631285
0.013550873
-0.017105432
0.019736456
0.02740107
0.035300758
-0.024077708
-0.047410358
-0.05050658
-0.031905107
0.006437944
0.010589134
0.060706623
-0.023668328
0.02802577
0.012552588
0.0057494952
0.017086796
-0.00021376241
0.018786533
-0.0012682022
0.046938434
0.036048174
-0.04148228
0.031536825
0.008080539
-0.024116248
0.0032697818
-0.012892796
-0.002104897
-0.13553594
0.06567436
-0.03795688
-0.07755734
-0.01256348
-0.07451674
-0.0028637692
0.060599357
-0.018141245
-0.025537828
2.2184282e-05
0.019685404
0.0142893
-0.020845147
0.033801924
0.019067721
-0.0018159279
0.035878785
-0.058240242
-0.07270935
0.009573247
-0.039320838
0.049451027
0.005810864
-0.018462572
0.0449881
-0.019733783
-0.03329532
-0.02439337
-0.11666686
-0.09471544
-0.06382151
-0.047772076
-0.00076554855
0.0092606265
0.008920766
-0.016026061
-0.10929113
-0.074780904
-0.026230773
0.01644599
-0.034329332
0.04531608
-0.013197057
0.027811324
9.7313634e-05
-0.047292747
-0.06422653
-0.070251785
0.045276582
0.04376359
-0.07254248
-0.061397824
-0.07561496
0.012082529
0.05061489
0.003423765
0.022976004
-0.00563336
-0.012396223
0.04685612
0.05660556
-0.04417084
-0.056631513
0.035743415
0.009123084
0.038252044
0.071229406
-0.039716117
-0.0047577205
0.018957125
-0.036268614
-0.021951675
-0.019348253
0.055618584
-0.028723758
0.0649489
0.042375907
-0.04510165
-0.044263422
0.015174511
-0.047971424
0.05398621
0.101200186
0.017904751
0.0902203
0.048238695
0.015610721
-0.10339289
0.03319256
0.08281242
0.025580475
0.07275375
0.089471556
0.034253567
0.06185078
-0.07290711
-0.09154343
-0.09846373
-0.014266355
-0.07506245
-0.029005852
-0.06920392
-0.07665756
-0.06492179
-0.0506115
-0.08852548
-0.10791599
0.0026478153
-0.10730216
-0.084444664
-0.09591566
0.0072931247
0.012551625
-0.07022751
-0.09379206
-0.04513583
-0.014126362
-0.034717873
-0.015848832
-0.03907184
-0.10989884
-0.039412703
-0.09204047
0.0059078494
0.011608222
-0.063465774
-0.07298689
-0.0440705
-0.087990075
-0.006720374
-0.029681833
-0.0452127
-0.08401987
-0.056652848
-0.09277935
0.0077920407
-0.107518755
-0.061680574
-0.08619122
-0.102307364
0.04539219
-0.050575323
-0.052608192
0.0111274775
-0.0126447575
-0.07724535
-0.050125517
-0.009300093
-0.0037874025
-0.08433828
-0.07672246
0.08461753
-0.09263297
-0.028060693
-0.1037625
-0.017475532
-0.0067633865
-0.030896407
-0.0046640355
-0.10328318
-0.055215884
0.00040111446
-0.0421963
-0.03851613
-0.023500215
-0.10862869
0.00902969
0.0630553
0.01737544
0.0374989
0.016295718
-0.018773437
0.029476665
0.0011209995
0.014069267
-0.025173705
-0.016778154
-0.07820804
-0.1009524
-0.042903006
-0.053693924
-0.047200162
-0.02088076
-0.05963274
-0.070159644
-0.029860087
-0.004936234
-0.10330523
-0.05909866
-0.036823325
-0.10062554
-0.0577173
-0.10164577
-0.07713617
0.078366056
-0.00474511
0.058107108
0.0019779233
0.04663642
0.042891927
0.09004463
-0.04601407
-0.041246574
0.023525842
0.007427893
-0.048948128
0.03445683
-0.01849718
-0.042353325
-0.03538951
-0.007222033
0.033672232
-0.021594984
-0.050968308
-0.054923818
-0.053942047
-0.016240502
0.0073235566
-0.11090855
-0.030564697
-0.01693345
-0.025041662
-0.04262921
-0.048227165
-0.11498005
-0.095097296
-0.012561731
-0.0029575247
-0.056912404
-0.0933589
-0.013173124
-0.022740878
-0.035494383
-0.0035815777
-0.024584115
-0.016019236
0.006215881
0.019892931
-0.0017203568
0.03269746
0.035398617
-0.061289955
-0.012873334
-0.030843243
-0.011532253
0.05343964
-0.023654018
0.025033757
-0.07812104
-0.0824742
-0.07190077
-0.112542525
-0.026306774
-0.045590848
-0.06262669
-0.111195624
-0.03613259
0.002861063
-0.002145158
0.075952746
0.0036300076
0.035896614
-0.020497363
0.088711426
0.0070957276
0.07407727
0.014479949
-0.0691969
-0.013587281
-0.0791831
-0.10746514
-0.00024207092
-0.05024789
-0.09666345
0.010215674
0.03165445
-0.042450253
0.016991567
0.038965553
-0.010619224
0.0037648145
-0.037630837
-0.036307443
0.06413135
-0.018067833
-0.10122232
0.014840304
-0.067722164
0.0014818991
-0.025517147
0.09841471
0.052816384
-0.07951209
0.07793314
-0.030267287
0.006027994
0.019579431
-0.06663719
0.024000539
0.020257676
0.009294675
0.02236191
-0.07420829
-0.013452363
-0.047722593
-0.027113259
0.03162924
-0.0735507
-0.047231134
-0.055077318
-0.009652025
-0.05415725
-0.037204653
0.008590343
0.052447114
0.05988897
0.0050566616
-0.059647344
0.031228142
0.03736055
0.011403039
-0.05033334
0.00052004826
-0.114804074
-0.0093204025
-0.022402981
-0.03338437
-0.059260633
0.008030432
-0.022489104
-0.048365526
-0.08744685
-0.071021035
-0.028175192
-0.09966042
-0.09680157
-0.023023318
-0.0033115984
-0.012834799
0.073791765
-0.07946661
-0.020531666
-0.09361896
-0.05811313
0.050788067
0.032389183
0.070872664
-0.09411815
-0.031566605
-0.0012878905
-0.085120216
-0.09808453
-0.09613045
-0.081079565
0.005542602
-0.00056851335
-0.08253031
-0.01599768
-0.041329894
-0.016552798
-0.0018392117
-0.055701647
-0.08101987
-0.11037076
0.0028232632
-0.022074858
0.010907652
-0.018734314
-0.009675306
-0.11376292
-0.024374615
-0.0918021
-0.056367613
-0.043015316
-0.032420956
0.01625782
0.019161552
-0.060971655
-0.06848357
0.0020188252
0.045395724
-0.037980765
0.032181963
0.022511028
0.03351482
0.057715982
0.0233849
0.020091455
-0.03759838
0.061667405
-0.03820833
-0.016483225
-0.0027415378
-0.1031912
-0.07309719
-0.061470754
-0.03899222
-0.10762284
-0.110230014
-0.07407713
-0.013133234
-0.018653035
-0.017272627
0.038050495
0.0050074994
-0.047334287
0.018488225
-0.06465909
-0.011621941
-0.011668614
-0.038593255
-0.026377847
-0.0747387
-0.00992788
-0.08074868
-0.10891631
-0.067770354
-0.060348716
-0.04674956
-0.10160754
-0.052703314
-0.040828582
0.013334066
-0.08936669
0.016482396
-0.0036668172
-0.022467727
-0.0822928
0.0030835785
-0.05550382
-0.03427783
-0.01343658
-0.03383679
0.019623505
-0.072121754
-0.09822656
-0.048178997
-0.003641173
-0.033113524
-0.060731214
-0.019569896
-0.025088232
-0.044332333
0.05336799
-0.08512893
-0.013889926
-0.011770683
-0.01611851
-0.09731551
-0.060920518
-0.0783553
-0.04004903
0.013481054
-0.03447727
-0.005116012
-0.059755094
-0.011479063
-0.03991542
0.051178634
0.0006842259
-0.00085675257
-0.06296081
0.08767085
-0.05429603
-0.07486271
-0.05700027
-0.020420004
-0.015706252
-0.06023836
-0.00010450985
-0.09544252
-0.10991405
-0.114362784
-0.022389486
-0.014763245
0.060375974
0.04492234
0.025719512
0.026973844
-0.037061695
-0.04993883
-0.016930224
-0.04591772
-0.098295406
-0.07688217
-0.06754147
-0.11693602
0.008294939
-0.09081458
-0.048745688
-0.09048175
-0.019314138
-0.04271527
-0.05602537
-0.0027039591
0.027837275
0.024551071
0.0038017638
0.051124282
0.04344817
-0.039928358
-0.06561622
0.005471378
0.070147105
-0.060310133
0.015899198
0.003594231
-0.027627792
0.026873335
0.017231949
0.0072842087
0.03870743
-0.053227995
0.04058394
-0.052211296
0.065603286
0.020005692
-0.036296736
-0.11386278
-0.03377371
-0.076816
0.0129835205
-0.104110956
-0.09815147
-0.07509486
-0.058483955
0.0009928993
-0.044673845
-0.07299546
-0.08143462
-0.106938444
-0.108556904
-0.047761552
-0.11459464
-0.107590094
-0.04284781
-0.06646334
-0.023068605
-0.09443971
-0.038168464
-0.08361595
-0.054413754
-0.068172194
-0.06505415
-0.036205634
0.04131599
0.06375509
-0.04930138
-0.05754406
0.01206252
0.016959723
-0.019185591
0.049975038
0.0490138
-0.05288753
-0.033224054
-0.025715347
-0.015335442
-0.010834257
-0.05027398
-0.108762465
-0.07053372
-0.03649507
-0.048313607
0.015879763
-0.037842404
0.060332455
-0.0367942
0.0021084845
0.04927887
-0.0025368775
0.038933158
0.052175142
-0.004420173
-0.03310725
-0.0006667002
-0.019861914
0.053002413
-0.0018538078
-0.079655156
0.011288434
-0.011781399
-0.07447666
-0.026506862
0.010203921
-0.11449065
-0.09484622
-0.050454002
-0.014580149
-0.0064264974
-0.019228669
-0.049783524
-0.042704638
-0.09261413
-0.00084545056
-0.10239362
-0.020360345
-0.075011194
-0.003849813
0.058529034
-0.02568729
0.041459262
0.026129974
-0.007751503
0.010450506
-0.06751897
-0.04580193
-0.025001826
0.020077964
-0.03808115
0.08935944
-0.092947096
0.004177096
-0.07271223
-0.009651391
-0.00014295786
-0.040130682
-0.01379465
-0.10651548
-0.07676985
0.0039711487
-0.017483642
-0.08335181
-0.00271121
-0.10036191
-0.07079874
0.003967317
-0.050200563
-0.0929661
-0.06724255
-0.01833188
-0.08251907
-0.10667755
-0.10020777
-0.09670437
-0.065824136
-0.110167705
-0.08591679
-0.02920609
-0.060486168
-0.033286277
0.003886348
-0.093433484
-0.016142938
-0.08488035
-0.061784998
-0.056374952
-0.10393222
-0.10289855
-0.015375932
-0.012362118
-0.07648024
-0.10133563
-0.07093807
-0.012016748
-0.057724737
-0.0715987
-0.08922346
-0.04690923
0.014596747
-0.025027927
-0.114763446
-0.011071886
0.00867177
0.0011342461
-0.030282063
-0.095521085
0.031929877
-0.053671993
-0.015930455
-0.060046274
-0.112084396
-0.0109428605
-0.08600319
-0.029145679
-0.032191977
-0.048899233
-0.07096948
-0.04838187
-0.00092504936
0.0041732574
-0.042599104
0.088013284
0.03125327
0.056720007
-0.06843537
0.0064209276
0.019782906
0.10258517
-0.007160801
-0.0707106
-0.09039822
-0.10802904
-0.06660109
-0.07558406
-0.008978351
-0.07014008
-0.10713905
-0.023024427
-0.06623148
-0.075470515
8.136975e-05
-0.013940286
-0.013228321
-0.088141926
-0.024331598
-0.06857357
-0.094887175
-0.023022966
0.056018233
-0.053405482
-0.024658835
-0.016356459
-0.103621975
-0.08752425
-0.09630047
-0.0137643535
-0.07238784
-0.09099211
-0.03841341
-0.096100904
-0.011820864
-0.093165636
-0.04439575
0.07026125
-0.058314633
0.02583642
-0.10225646
-0.04265792
0.026675722
-0.12967236
0.069204226
-0.06950184
0.010515522
-0.001524541
0.088165425
-0.019551395
-0.11152473
-0.028551422
-0.027482715
-0.01329832
0.100418
-0.02783919
-0.031969566
0.0168457
-0.0099777635
0.04102298
-0.005686099
0.0537745
-0.019756636
0.033459038
0.02771563
-0.006471847
-0.114071876
0.0021651208
-0.051883385
-0.025820764
-0.017938795
-0.006768931
-0.10796359
-0.08515238
-0.10066979
-0.049918488
-0.07928551
-0.0076427856
-0.08390694
-0.07755566
-0.086754315
-0.017098213
-0.06889736
-0.06518717
0.087216124
-0.09364195
-0.052110232
-0.07492287
0.012011201
-0.051774167
-0.056386456
0.06710728
-0.025978934
-0.05113181
-0.054645598
-0.030081782
-0.023955842
-0.027752075
-0.12702905
-0.03615706
0.004236344
-0.052706145
-0.00246159
-0.08938282
-0.10995877
-0.10993316
-0.040379632
-0.054047078
-0.02944612
-0.0726062
-0.07624615
-0.056326848
-0.08178578
-0.097553566
0.016733116
0.095610976
-0.018266384
-0.021848971
0.020048842
-0.015734455
-0.06078979
-0.08429532
-0.10986281
-0.026956467
-0.016700257
-0.0110980915
-0.008354956
-0.027537648
-0.04208885
-0.006993411
-0.07920534
0.0014314271
0.08536425
0.010118939
-0.0031818072
-0.030012937
0.088373385
0.02140107
-0.0008316667
-0.02284124
0.012862855
-0.048251674
-0.028604615
0.019929891
-0.09608001
-0.027786203
-0.031181863
0.018545823
-0.0144274095
-0.018223254
0.016047623
-0.038417988
-0.07483872
-0.042663187
0.024837079
-0.0061057727
-0.032512747
-0.08903464
-0.03177342
-0.005324418
-0.07709913
0.007026798
0.055442944
-0.050237034
0.08313882
-0.050646376
-0.0018627353
-0.010429791
0.0389452
0.029600408
0.06620058
0.027304456
0.09938301
0.025501184
0.0764892
-0.0705277
0.073745295
-0.06714959
-0.0038360043
0.022561751
-0.054490045
0.053844105
-0.003855438
0.0015666219
0.0057480265
-0.040746342
0.023711335
0.06815379
-0.020819686
-0.008840785
0.046362508
0.0810527
-0.010855586
0.009059646
0.0068796
-0.04951493
0.019326895
0.03892377
-0.020965034
0.033044893
-0.051056538
0.004716127
0.014915653
0.092614494
0.003531869
-0.00822979
-0.08971374
0.071727544
0.07861597
-0.109992616
-0.05236317
-0.04626239
-0.0915081
-0.035932016
-0.11539269
-0.008312254
-0.09630581
-0.0072284397
0.095907934
0.09911671
-0.011990948
0.09388664
0.03073311
-0.069719225
-0.067652725
-0.011026392
-0.098365635
-0.0215315
0.05324803
0.06980252
-0.041021433
0.043620635
0.07305759
-0.012894301
0.06237011
-0.016419537
-0.048273224
-0.018400664
-0.044085454
-0.08247648
-0.061037995
0.006040063
-0.019747421
-0.11268844
-0.094576724
-0.07088642
-0.017877575
-0.056879174
-0.0746495
-0.00095189625
-0.060660042
-0.11305509
-0.039756823
-0.0128985485
-0.03335592
-0.062054813
0.00868369
-0.103201374
-0.052011825
-0.0749582
-0.086458735
-0.038907208
-0.03593905
0.025914812
0.026599748
-0.051262055
-0.08553666
-0.07712101
-0.0056077135
0.09628802
-0.077572
-0.062001694
0.0071712453
-0.05798348
-0.034572795
0.016084248
-0.055052187
0.029479189
-0.05881443
-0.011805517
0.053389795
-0.06126667
-0.034628768
0.0054082633
-0.11071309
-0.0090604685
-0.10185644
-0.03399699
-0.03906061
-0.01465845
-0.07013025
-0.026586909
-0.068028495
-0.09879293
-0.05511169
-0.043750197
-0.03056535
-0.08173743
-0.015883815
0.0008975502
0.04230885
0.029933514
0.021017363
-0.111415826
0.033042118
-0.020451467
0.069425166
0.088470705
-0.10045938
-0.0397376
-0.06731562
0.0095384205
-0.10944193
-0.01890213
-0.039129533
-0.12185196
-0.10764763
-0.096539445
-0.06093082
-0.053447
-0.10287254
-0.073168725
-0.10009758
-0.11558551
-0.100002214
0.0049160463
-0.006276727
-0.057767235
0.0052156323
-0.0064377273
-0.016907861
0.022738755
-0.0060430183
0.049031492
0.033864394
-0.035689816
-0.08220238
-0.010928035
0.077195324
-0.10739453
-0.03859212
0.061091155
-0.012277583
0.030144691
-0.0325724
-0.08591134
-0.06476176
0.010259772
-0.026566928
-0.038120635
0.02000318
-0.09791201
0.034707494
0.09059539
-0.07145958
-0.002534812
-0.08467326
-0.010200402
-0.007932777
-0.06922354
0.11219047
-0.076133005
-0.076866165
-0.08701466
-0.031208614
-0.04913137
-0.084778965
0.048104856
-0.01727081
-0.0067692366
0.09362087
-0.109009966
-0.097755656
-0.05915958
-0.07920352
-0.023237748
-0.020727962
-0.062133335
-0.11956313
-0.03936796
-0.0034994616
-0.02321917
-0.041266423
0.09334539
-0.10353393
0.010152363
0.01311096
-0.020420616
0.004430523
-0.103692494
-0.054645088
-0.091532916
-0.09736009
-0.091933206
-0.060126305
-0.024337232
-0.024652498
-0.039697118
-0.037850086
0.08512579
0.008685466
-0.056779526
0.031287864
0.0249182
-0.06345028
-0.05779264
0.033011716
-0.11093068
-0.113340944
-0.090762496
-0.11089103
-0.111724205
-0.044639595
-0.047602512
0.0014422114
-0.11114702
-0.013633598
-0.042729188
-0.093545325
-0.021866411
-0.008358514
-0.03742527
-0.053885102
-0.045652613
-0.023458313
-0.06461235
-0.0015659315
-0.026768588
-0.036589064
-0.07515506
-0.048400763
-0.08605905
-0.038453516
-0.0558329
0.001363681
-0.004232002
-0.036773004
-0.051386263
0.015672335
-0.033376947
-0.027290279
-0.001292997
-0.03642022
-0.11570854
-0.023436954
-0.084260724
-0.051800385
-0.04485657
-0.0008323185
0.0048085176
-0.030391563
-0.0044721733
-0.038584612
0.04099717
-0.03882182
-0.056857537
0.024160648
0.0032774275
-0.02819238
0.05136448
0.041771304
0.10955064
-0.056951858
-0.08441523
0.018516235
-0.09359788
-0.011588667
-0.08265249
0.0081567485
-0.0872331
-0.11911069
0.005981023
-0.026530076
-0.1002386
-0.09314719
-0.025431965
-0.04324498
-0.01676163
-0.10976891
-0.02981043
-0.0400626
-0.08153207
-0.016987242
-0.011734708
-0.08837335
-0.031931996
-0.029928198
-0.05528923
0.008818618
-0.06641595
0.019045856
0.014568682
-0.040362973
-0.07590673
-0.09005139
0.041507795
-0.09673916
-0.042138476
-0.0012089137
-0.00036813196
0.04554542
0.026767842
-0.07362667
0.08034523
-0.103919804
0.029132945
-0.10020912
-0.036150612
-0.11791428
0.0144569175
-0.07255474
-0.006343875
-0.054292474
-0.025122885
0.0031943342
-0.05478108
-0.06312513
-0.035473827
-0.084544115
-0.10451023
-0.054646827
-0.0015273108
-0.055381753
-0.05064505
-0.083988026
-0.104410574
-0.119378276
-0.112899646
-0.0041634906
-0.09862136
-0.055015486
-0.091972016
-0.079125784
-0.056584444
-0.061164055
-0.036166612
-0.047122065
-0.012979851
-0.068647996
-0.11216717
-0.07364093
-0.06715409
-0.04679669
-0.0486028
-0.09055681
-0.10208703
-0.0065949815
-0.07874707
-0.022641541
-0.08385647
-0.04473855
0.031704467
0.027066905
-0.00028141326
0.024862444
0.010291206
-0.0044057514
0.0561719
-0.00045240874
0.0693774
-0.08293008
-0.041108146
-0.0013192787
-0.018722119
-0.033145126
-0.06821282
-0.017158201
-0.06450178
-0.033919394
-0.039467704
-0.009621954
-0.081579246
0.022321532
-0.094929814
-0.0165356
0.0051255305
-0.10688213
-0.033657435
0.02440843
-0.082093574
-0.053024802
-0.055439003
-0.0715779
-0.028446019
-0.051284604
-0.01917743
-0.0076305685
-0.03914245
-0.012030416
-0.10707058
-0.05947515
0.0030135235
-0.00905374
-0.0059059276
-0.051049177
0.004833885
-0.09423419
-0.09580067
-0.0744005
-0.05327125
-0.05929762
-0.023170918
-0.052045304
-0.054438353
-0.002367603
0.11870758
0.119339526
0.009839646
0.09672645
0.007171888
0.0646931
0.037071433
0.02449284
0.11990442
-0.058237966
-0.037175775
-0.033287853
-0.110496745
-0.026287034
-0.12265984
-0.0349744
-0.10170855
-0.11319643
-0.064888045
-0.11708457
-0.16804267
0.029479783
-0.11726906
-0.0042076358
-0.0051962254
-0.08882733
-0.029521124
-0.040783923
0.011941878
0.02838378
0.0060654576
0.050731152
-0.02844195
-0.024302445
0.025949921
-0.06635782
-0.024379458
0.027552221
0.0118213035
0.071779825
-0.042739782
0.057903077
0.07667024
0.02359158
0.030695274
-0.0069288905
-0.06625035
-0.09046517
0.014099743
-0.036003888
-0.026689827
-0.056092545
-0.016348887
-0.062779896
0.055248436
0.061989773
0.09323368
0.07610485
0.021041406
0.08065537
0.083118185
0.059670918
0.037259027
-0.039053027
-0.035693467
-0.06717587
-0.012852403
-0.05924204
-0.114692785
-0.025073858
-0.025076453
-0.057115573
0.011264688
0.001756359
-0.011011607
0.0037874312
-0.094969206
0.023090534
-0.047889274
-0.035114665
-0.057573278
-0.0075238845
-0.063800655
-0.094688
0.029926693
-0.0038661356
-0.009167525
0.031849854
-0.057116922
-0.07453228
-0.05216829
-0.01907192
-0.10503657
-0.0068943775
-0.047750007
-0.10846834
-0.10373964
-0.09551971
-0.07619648
-0.024733866
0.056734983
0.07324245
0.017110182
-0.00925784
0.054804217
0.017224966
0.012603672
0.017482402
-0.06249203
-0.026255788
-0.014891449
-0.075052574
-0.0008214843
-0.09928924
-0.022031505
-0.02699922
-0.0042542247
-0.057458356
-0.048645165
-0.08048633
-0.034549218
-0.039792296
0.027866637
0.025270173
-0.055816095
-0.011828522
0.019109529
0.09875662
0.033997346
0.095321186
0.08545225
0.09344789
-0.007875641
-0.0032140687
0.06297514
0.104532905
0.07943303
0.079717085
-0.094691865
0.009049813
-0.009616671
0.036838464
0.09450233
0.1119761
-0.06027079
-0.022691343
-0.07838848
-0.00088060746
-0.11660247
-0.0438475
-0.10206202
-0.034908053
-0.06615681
-0.11114123
-0.08100793
-0.098904885
-0.04686997
-0.07416914
-0.12284559
-0.046309568
-0.123787016
-0.016261993
0.009030312
0.025690624
-0.056891512
-0.004071021
-0.09184127
-0.06482574
-0.06655641
-0.011210899
0.0056250365
0.09299638
-0.008817822
-0.042527977
0.0839909
0.017537257
0.036354903
0.017225059
0.098880306
-0.00931273
-0.001968334
-0.08647426
-0.026982924
0.0024134347
0.025809659
-0.015166846
0.004116822
0.017452402
-0.025392624
-0.026440537
-0.031125681
-0.05604168
-0.013484772
-0.09384773
-0.034960177
-0.10183808
-0.11680019
-0.06127661
0.08095008
-0.0016939208
-0.027912518
0.047933497
0.043423913
-0.05694626
0.012131343
0.054427225
0.015407669
-0.017761288
-0.01908912
0.029755857
-0.06385736
0.03280638
-0.015408608
0.00904868
0.034155846
-0.008809106
-0.015220261
0.014342842
0.01784455
-0.011867533
-0.015735706
-0.017047599
-0.031083189
0.049399544
-0.010377402
-0.09649549
-0.02033768
-0.018394342
-0.046685908
-0.033356134
0.029099846
0.0486551
-0.06465471
0.012187207
0.104586296
0.049002063
-0.08857035
0.08204449
0.03981938
0.095196605
-0.00801388
0.08894824
0.087646775
-0.04535505
-0.011300021
0.020156391
0.016298559
-0.025942441
-0.041653275
0.05123727
0.00069909927
0.03816448
-0.06960149
-0.0069163265
-0.03635474
-0.09638192
-0.06895588
0.00070032396
-0.029338848
-0.011009067
-0.07412872
-0.0064357156
0.10599775
0.09245981
0.06740213
0.034124568
0.03047782
0.039457183
0.101996444
0.039757177
-0.1401716
-0.09351182
-0.0695379
-0.0038082956
-0.04193832
-0.10584958
-0.022030871
-0.031760633
-0.030163858
-0.113153815
-0.029994136
-0.0029348345
-0.07867093
-0.08595357
-0.036600202
0.010970174
-0.09899149
-0.072834074
0.022024699
0.047179848
0.005975311
-0.07953041
0.006374435
-0.04762501
-0.051443584
-0.022332808
-0.0045131417
-0.06170669
0.088257335
-0.038154647
-0.07316152
-0.031300623
-0.0015067855
-0.11584405
0.00194574
-0.08198445
-0.029354567
-0.04259387
-0.069701694
-0.06409634
-0.057277635
0.0056066806
0.033970684
0.010430654
-0.0040200474
-0.024345433
-0.08081656
-0.07071519
-0.012834565
-0.06029106
-0.13914882
-0.025689049
-0.13819268
-0.10803798
-0.031450234
-0.11732662
-0.11932808
-0.02113463
-0.037764486
-0.1114933
-0.000849982
3.6300844e-05
-0.003309528
0.07063648
0.08116608
0.106108986
0.02875087
0.010009073
0.005018356
0.040149264
0.051181454
-0.007674582
0.013406675
-0.018325394
0.026943058
-0.046800237
-0.05584399
0.0014802535
0.016428215
-0.016676502
-0.06355384
0.05835612
0.04929491
-0.026009642
0.012413188
0.09229235
-0.075875126
0.05016969
-0.054837797
0.036338035
0.020704651
0.006721758
-0.07768515
-0.016463121
-0.034819912
-0.030922314
-0.030179037
0.0025736305
-0.06747883
-0.021059508
-0.009031356
0.0065458976
-0.019581173
0.0915092
-0.025358569
0.011710872
-0.006044798
0.049561754
0.034952193
-0.050820917
0.030127145
-0.079471506
-0.057310462
-0.054929487
-0.042599794
-0.06858822
-0.006643794
-0.042138826
-0.052299216
-0.023889435
-0.070114926
-0.06501198
-0.029737962
0.022917818
-0.06228449
0.0103812
-0.07006879
0.015359756
-0.0039845477
-0.04336679
0.021166665
2.1746579e-05
-0.061392423
-0.075543165
-0.012353242
0.0051433253
0.05029609
-0.0050002206
-0.02107239
0.06985527
0.034001652
0.030085832
-0.05261442
-0.0431064
-0.10251491
-0.051315174
0.0011239655
-0.053276755
-0.041287247
-0.08771749
-0.07254376
0.025995951
-0.095283
0.04785349
0.05819368
-0.05657687
0.062463086
-0.021732403
0.039939813
0.033270653
-0.0107940445
0.053539053
0.05757618
0.028906167
-0.019350406
0.07454232
-0.035900146
0.063107796
0.007737929
0.07705851
0.026964104
-0.09084967
-0.03930286
-0.00417449
-0.05720902
-0.038140517
-0.049888864
-0.00052624516
0.020190053
-0.06597214
-0.05425624
-0.076639414
-0.12024824
-0.10233488
-0.10475665
0.0060390085
-0.07763947
-0.007584642
-0.08408212
0.0928983
-0.05611264
-0.11213009
-0.036619127
-0.033697974
-0.05518602
0.0062168646
-0.09136205
0.030152917
-0.036173083
-0.032670368
-0.09663409
-0.1229054
-0.11777295
-0.13594855
-0.02507935
-0.041101888
-0.12391738
0.014227807
-0.03915423
-0.02712455
0.041040517
-0.0009027692
-0.061315738
-0.039914813
0.01913193
0.029629566
-0.09110529
-0.02213059
-0.0060215318
-0.063442096
0.026352117
-0.064135954
0.010603806
-0.051739726
-0.044868775
-0.017461283
-0.03782812
-0.10804925
0.013551294
-0.024438046
0.014523549
0.031795774
0.0370659
-0.05806383
-0.07725533
-0.08187804
-0.005844846
0.020499673
-0.005090107
-0.0143622225
0.0085745
-0.05899789
-0.043795697
-0.060153753
-0.10433663
-0.048047062
-0.02721298
-0.122753456
-0.05433774
-0.12164461
-0.09062812
-0.032395504
-0.04377368
-0.048200954
0.009034757
-0.06536491
-0.09409315
0.05571556
-0.045545645
-0.004463031
-0.019277912
-0.039189238
-0.03208126
0.020140745
-0.1111199
-0.023231152
-0.102859445
0.011018067
-0.10389592
-0.11437594
-0.07044998
0.023271924
-0.009752921
0.027764011
-0.07461239
-0.08488879
-0.042693403
-0.10528451
-0.08591102
-0.08649533
-0.068407215
0.005427286
-0.1344236
-0.012646005
-0.13868392
-0.022924183
-0.057408184
-0.041909676
-0.012901699
-0.03497629
0.005638531
-0.08871471
0.021856256
-0.033926632
-0.024219206
0.018365456
-0.13224243
-0.08879562
-0.047742046
-0.078924574
-0.024219315
-0.06522945
-0.01715293
-0.04304583
-0.037645876
-0.11020413
0.053482212
0.09408401
0.10910552
-0.029541625
-0.082865074
-0.10341176
-0.078291684
-0.027789611
-0.06023906
0.035357945
-0.09304476
-0.026386997
-0.07103714
-0.072913565
-0.093701564
-0.042487916
-0.0018350831
-0.09577228
-0.05609345
-0.07785447
-0.078514636
-0.052062925
-0.07245543
-0.066921405
-0.09926305
-0.1013048
-0.053182825
0.029183842
-0.031369273
-0.03893776
-0.024442915
0.057843193
-0.035992216
0.044788532
-0.027731705
-0.016799178
-0.120543934
-0.069789946
0.0020918045
-0.005614535
-0.02439227
-0.025931153
0.018235285
-0.026803957
-0.1303817
-0.034122884
-0.051029522
-0.06413318
-0.009305574
-0.045272045
-0.09963238
-0.035763577
-0.09489245
0.008499191
0.006114768
0.054177552
0.014019035
-0.003812105
-0.03696338
0.012991624
-0.032105416
0.056044
0.008175289
0.027383883
0.008220262
-0.06455649
-0.055906225
0.04771997
-0.043889627
0.023963995
-0.010293323
0.017879933
-0.11779655
0.04330336
0.0054471414
-0.0017591887
-0.055609275
-0.12680535
-0.06586853
-0.0052800793
-0.02768737
0.01440533
-0.084907115
-0.09459319
-0.118519664
-0.038686745
-0.10036677
-0.061165106
-0.10335976
-0.05070123
-0.008947066
0.09612295
0.034233127
0.015436478
0.026541412
0.07531244
-0.012916685
-0.009389676
0.09911858
0.009015159
-0.045826964
0.05526747
-0.0914912
0.07066701
-0.0040305546
-0.06842191
-0.056510873
0.03776607
-0.018088613
-0.08382445
-0.08663304
-0.10393419
-0.036316853
0.0077648433
-0.06321735
-0.12816301
0.02709567
-0.037307005
-0.053812034
-0.0069676084
-0.045500774
-0.07770244
-0.04332957
-0.033375017
-0.030148359
-0.03798824
-0.05350896
0.0060404628
0.04790952
-0.06191537
0.043297477
-0.06616832
0.12752974
0.038021307
-0.100222595
-0.104805686
0.058397193
0.06063852
-0.09081769
-0.015589566
-0.06192221
-0.052665796
0.03324863
0.04166484
-0.009077244
-0.031037442
-0.0859795
0.04418004
-0.012313016
0.029357728
-0.01386614
0.0060267774
-0.052456744
0.0258155
0.09003122
0.0026928103
0.0074256933
0.074049845
0.032974526
0.046700444
-0.015603656
0.091586776
-0.006759584
0.024728023
-0.0074336925
0.03603274
0.037763987
0.0021248942
0.03822514
-0.011313094
0.014222737
-0.010524157
0.00055091514
0.024006942
-0.022564976
-0.0075234496
-0.08415014
-0.008468866
-0.10512402
-0.083795585
-0.06851377
0.003347375
-0.0267798
-0.081311926
-0.058386028
-0.11010947
-0.041405622
-0.03302193
-0.078368336
-0.0015416197
0.07382036
-0.029640121
-0.005465903
0.014713278
0.03251924
-0.023344094
0.06485527
-0.0019542852
-0.122001536
-0.13684559
-0.12812804
0.04065528
0.017319644
-0.06072366
-0.0122072715
0.019039128
-0.053019665
-0.07703338
-0.0368147
-0.0056248363
-0.02869879
-0.035162948
-0.011692326
-0.1105756
-0.09761593
-0.09702421
-0.034755178
0.01526206
-0.006137174
-0.0482018
-0.067910396
-0.08997345
0.029433819
0.017213425
-0.010286803
-0.024512455
-0.027831212
-0.06240382
-0.09863564
-0.094396114
-0.010407524
-0.024730675
-0.09802091
-0.083420254
0.02170096
0.03186491
0.014264203
-0.02607995
-0.01622145
-0.06877005
-0.045938265
-0.043344967
-0.11121661
0.007943449
0.062216736
0.011125542
0.026194489
0.01731354
0.025952386
-0.00063098967
0.01642553
0.0035482447
-0.08867148
-0.050315827
-0.04304397
-0.097286075
0.011562586
-0.09726835
0.0050642528
0.012313153
-0.09401512
-0.11948599
-0.020531066
-0.03690729
-0.09737049
-0.05012587
-0.13127793
-0.047440562
-0.05214634
-0.115297034
-0.06921259
0.0012285982
-0.027602898
-0.11316458
-0.016404066
-0.025065111
-0.08384695
-0.052137814
-0.09967582
-0.12453079
-0.06636496
0.030496422
-0.091233626
-0.09027562
-0.038008183
-0.07518138
-0.049259804
-0.008871611
0.012380203
-0.042154886
0.006076247
-0.10950687
0.007364166
-0.028814116
0.019922351
0.021038428
-0.0018522574
-0.105790295
0.030176615
-0.012851448
0.04455905
0.06302996
0.043425523
-0.027519219
0.038464855
0.040441226
-0.06335622
-0.095027246
-0.09183721
-0.114938065
-0.02544835
-0.004814808
-0.019375568
-0.0644016
-0.021576952
-0.09807249
0.032499462
0.039463956
-0.012750336
-0.030282179
-0.012956146
-0.07971473
-0.12318249
-0.097932495
-0.072990485
-0.058157872
-0.08139155
-0.0123429885
-0.05373995
-0.048184622
-0.088855244
-0.06543601
-0.025806796
0.059528843
0.010332856
0.0490963
-0.046890955
0.05873074
0.0001719082
-0.029889723
0.069488
-0.016429204
-0.09647894
-0.028796986
-0.049142286
-0.11000704
-0.08605953
-0.105488956
-0.07278047
-0.007887849
-0.017351178
0.06195257
0.005430189
0.09696209
-0.06265036
0.07108613
0.008922689
-0.040418334
0.05099706
-0.050905142
-0.053179152
0.04655108
0.045950294
-0.027732352
0.10103036
0.057607945
-0.03937167
0.01249295
0.060142223
0.023697656
-0.043708336
0.048864685
-0.023912802
0.03073796
-0.027408265
0.034949563
0.006278173
0.018732423
0.039612457
-0.02405876
0.018244172
-0.01775404
-0.045365274
0.017110424
0.04156678
-0.05371743
-0.019318672
0.0072193127
-0.04931661
0.020811338
-0.10345241
-0.09641448
-0.035869006
-0.086592965
0.008712939
-0.09852288
-0.10176139
-0.04279356
0.01738818
0.02008386
-0.08341046
-0.02633074
-0.053286698
-0.039071422
-0.007282056
0.0056422264
0.07417537
0.00896407
0.013874978
0.05801148
-0.03367832
-0.002933149
-0.059049126
0.002800877
-0.06323657
-0.08792524
-0.060825404
-0.07169074
0.016796114
-0.07956963
-0.02461249
-0.07781297
-0.0094293635
-0.055848323
-0.024771374
0.06796976
-0.07906283
0.088608265
-0.0065176715
-0.066726126
-0.039659724
-0.014549428
-0.039895236
0.00134722
0.046397813
0.013766618
0.018759001
-0.10967254
0.104637004
-0.04167921
-0.112905584
-0.091644816
0.02831172
-0.071229324
-0.079162486
-0.0068797893
-0.010079301
-0.072506115
0.013100871
-0.055082545
-0.047395527
-0.0503845
-0.07518317
-0.088474095
-0.044361494
-0.020925589
-0.03661132
-0.06072055
-0.06819748
-0.07628737
0.046371873
0.033242594
-0.0865239
0.026400326
0.0012713866
-0.10557462
-0.049819376
0.015572063
-0.04668074
-0.0513554
-0.015633099
-0.09391152
-0.06799362
0.04065824
-0.11380488
-0.07039026
0.02607804
-0.06317101
-0.029180018
-0.08734005
-0.10733167
-0.08259832
-0.105506346
-0.05607182
-0.09690834
-0.10436694
-0.008885272
-0.011236725
0.038212962
0.008206454
-0.062044304
-0.009509851
0.0026083938
-0.024178311
-0.03521267
-0.091484144
0.015782587
-0.058561474
-0.10574688
-0.032729346
-0.116846874
0.029972248
-0.058892
-0.018528232
-0.10848111
-0.08658359
-0.045565333
-0.08535493
0.014073677
-0.1288907
-0.0026643716
0.004066843
-0.074851386
-0.100166
0.04658451
-0.017441802
-0.074670464
-0.02535958
-0.09729317
-0.05742141
-0.013625601
0.00073470006
0.018102393
-0.018278034
0.050475474
-0.07247923
0.042722713
-0.08870473
-0.0062616672
-0.035237435
-0.03467488
-0.05630593
-0.08913001
-0.08194391
-0.0106461495
-0.053698614
-0.11861258
-0.035862446
-0.05665597
-0.07385505
0.009596146
-0.10831004
-0.028584355
0.010923704
-0.07278415
-0.06155039
0.011418735
-0.0711677
-0.12282955
-0.032235038
-0.08881152
-0.09704091
-0.096857205
-0.09949105
-0.08674081
0.017447494
-0.01632118
-0.11012823
0.013451915
3.0889623e-05
0.011591458
-0.015522807
-0.06924744
-0.07346773
-0.07387984
-0.0052243317
-0.039344437
-0.021723825
0.006306065
-0.018911988
-0.06649534
-0.1172583
-0.07243375
-0.09557252
-0.008123365
-0.021802993
0.117786415
0.0015845131
0.029771462
0.030358499
-0.05253153
0.06992056
0.015991706
0.04516483
-0.07619772
-0.027784584
0.01902509
-0.0031559232
-0.0043021874
0.08081101
0.07820463
-0.09654777
0.05936568
-0.031049423
-0.09409439
-0.07195262
-0.03926045
-0.029823344
-0.015522202
-0.096130595
-0.019659229
-0.05058242
-0.04459584
0.0051478148
-0.060900997
0.01795839
0.042265464
0.06232657
0.02175305
-0.04152731
-0.04394583
0.06296021
0.024189027
-0.031907562
0.008319523
0.013971045
-0.032266267
-0.058181606
-0.026497923
-0.11201725
-0.11057296
0.011325511
-0.06347974
-0.006202619
-0.0063283117
-0.11958999
-0.117165186
-0.103959784
-0.0423129
-0.09288253
0.018734805
0.07597664
0.02693017
-0.07349904
-0.06595413
-0.06708476
-0.007555364
0.005074968
0.0082774
-0.008762386
0.029793555
0.07963663
0.00059850805
0.028317157
-0.0063851704
0.035156652
-0.023637831
0.05621687
-0.038807195
-0.030319516
-0.06382912
-0.052732553
-0.082266256
-0.11091615
-0.004725277
-0.004224184
-0.061595485
-0.10801991
0.0016093977
0.012764103
-0.09105702
-0.016668513
-0.02542477
-0.07001853
-0.08381336
-0.020687362
-0.06132784
0.059414618
0.042352423
-0.012257003
-0.004219988
-0.0047028344
-0.02649144
0.0069827177
-0.044926696
0.0029759787
0.055612426
-0.0002565136
-0.006089364
-0.020065892
-0.025855402
0.049942303
-0.05847786
0.015320955
0.013473789
-0.038503986
-0.058226738
-0.09676725
-0.023703372
-0.014063231
-0.0957583
-0.0029654405
-0.10374034
-0.0014576907
0.116447575
-0.041929767
-0.03235887
-0.016344976
-0.0037191776
-0.0031312928
0.019069012
0.049027238
0.024451792
-0.0057898085
0.040651698
0.007862863
-0.106330246
-0.03905609
0.014625082
-0.009591771
-0.06621146
-0.05461387
-0.012207918
-0.031007668
-0.038514517
0.04198891
0.00955632
-0.08671832
0.062415212
0.025168195
-0.0197521
-0.048831936
-0.014301752
-0.037414152
-0.035142172
-0.09797018
-0.04355685
0.051498212
-0.0052574025
0.016935773
-0.00059925515
0.082234636
0.01588858
-0.016647015
-0.039223228
-0.014749277
-0.034353334
-0.0154927755
0.022913456
0.099865876
-0.09352897
-0.022912571
-0.08421505
0.058340453
0.066327855
0.052066498
0.007080672
-0.030677265
0.06549398
0.09185896
0.0102057755
0.032915775
-0.02135691
0.011715221
-0.0074932105
-0.05077008
0.00093720853
-0.072963774
-0.083923265
-0.06686024
-0.08778147
-0.07141582
-0.103820935
-0.030796096
-0.09755631
-0.030792003
-0.06971265
-0.005214929
-0.10410608
-0.10659141
-0.039360408
-0.00031528957
-0.026322583
-0.031200886
0.05734305
0.030334137
0.09374752
0.096193194
0.04135003
-0.021235444
-0.00056087004
0.040375654
-0.099776156
-0.009659297
-0.08925102
-0.10479817
-0.022681903
-0.0868767
-0.100172125
-0.08823323
-0.031968962
-0.057390753
-0.03921271
-0.050135918
0.008833269
-0.06700146
-0.08000629
-0.08001395
-0.044788312
-0.07982179
-0.12637918
-0.0396179
-0.10688081
-0.047231313
-0.06852134
-0.052619636
-0.017959112
-0.030635867
-0.0074147996
-0.038498126
0.04404398
0.034404375
0.032112118
-0.040232886
0.031203525
0.06570141
0.029830856
-0.050492644
0.01390826
-0.06439467
0.042177707
0.049201638
0.051144693
-0.0060068294
-0.026847951
-0.06072162
0.01578454
0.04005991
-0.103043556
-0.067329675
-0.07379166
0.0026586878
-0.08452303
-0.015780535
-0.10744791
-0.06447194
-0.1022388
-0.022788351
-0.0044797827
-0.0133524
-0.012923793
0.027175974
-0.06304209
0.014638947
-0.08293775
-0.09332337
-0.0078065675
-0.06753076
-0.088403866
-0.034019742
-0.08307632
-0.09176814
-0.04827077
-0.10163363
-0.110107735
-0.0920551
-0.07817549
-0.1063031
-0.01130936
0.008297819
-0.056329068
-0.06111027
0.042349257
-0.0346694
0.031894296
-0.082418144
-0.037448492
0.012055965
-0.045916867
0.0049133543
0.03155038
-0.09002667
-0.054397453
-0.006675924
-0.10921959
-0.016714636
-0.06712258
0.097122125
0.06828214
-0.023362566
-0.078367844
-0.10451649
-0.08807771
-0.0122531485
-0.012826673
0.012903105
-0.0020424507
-0.026337508
-0.07429751
-0.01195798
-0.08823484
-0.03126082
-0.015967757
-0.11369647
-0.10175642
0.055116992
-0.083073266
0.07592604
0.04486958
-0.02672382
-0.09081401
-0.10257958
-0.09786927
0.00047111436
-0.04593743
-0.0010721495
0.016467178
-0.09882639
-0.08816235
0.023636555
0.070367545
0.021502819
0.067933194
-0.055693153
0.04288309
0.005998469
0.037829947
-0.08809988
-0.0066662
-0.05614669
-0.05983405
-0.04168105
-0.08072063
-0.05092836
-0.079475194
-0.018515052
-0.12081396
-0.02315543
0.033596203
0.05043806
0.085343204
-0.051922396
-0.030523503
0.007100936
0.014154146
0.020974442
0.09537119
0.071203716
-0.055446845
0.017597785
0.024269411
-0.05932102
0.029909695
0.011009029
-0.04675218
-0.03566324
-0.050819535
-0.00245996
-0.08874586
0.0016143338
0.03863188
0.0047862213
-0.027314171
-0.0021118575
0.019586999
-0.020085083
-0.051747806
-0.10278882
-0.05620874
-0.059378073
-0.07490809
0.09946606
-0.018172955
-0.04818157
-0.08289986
-0.07119385
-0.06664914
-0.08123741
-0.010195719
-0.067794584
-0.112299986
-0.116887294
-0.034024097
-0.111845806
-0.109294645
-0.032486074
-0.022513991
-0.022200802
-0.056016978
-0.06720712
-0.025595363
-0.03420726
0.031308275
0.025577908
0.0030911115
-0.00652585
0.054020334
0.006202612
-0.011926499
0.03271334
-0.06749387
-0.07986752
-0.061021242
-0.039382
-0.11401875
0.005417895
-0.06537335
-0.0992838
-0.030461933
-0.025915341
0.03429029
0.047949776
0.014360003
-0.027493378
-0.0020921896
-0.02755166
0.01330836
0.01841123
-0.009276545
0.019140337
-0.0028316285
0.028261831
-0.0521212
0.034904994
0.095260546
-0.08718914
0.06755364
-0.06380918
-0.05832221
-0.036450196
-0.1067641
-0.0935911
-0.066879086
-0.02926157
-0.004639749
-0.06710421
-0.07334255
0.012146165
-0.07825637
-0.049855914
-0.05389897
0.010459627
-0.1091787
0.0004668761
-0.03972383
-0.055960186
0.008286607
0.042123362
-0.07025567
0.031328287
0.026796713
0.055841032
-0.0068900064
0.03789398
-0.060702972
0.017296825
-0.076605804
-0.10134237
-0.053015005
-0.06928269
-0.052933842
-0.011223049
-0.08065009
-0.106516905
-0.070208155
0.00038300178
-0.0064786235
-0.02550426
0.0025859773
-0.07519738
-0.10677684
-0.09733743
-0.09342262
-0.06957181
0.01662126
0.0036617895
-0.030141424
-0.113285385
-0.049164053
-0.029708494
-0.0347289
-0.05906947
-0.08114686
-0.08128005
-0.08731633
-0.02451998
-0.0047004446
-0.069735914
-0.060524736
-0.050964203
0.008896444
-0.017860148
-0.05338727
-0.016342554
-0.041798946
-0.009084293
-0.0004890091
0.0039154794
-0.053362913
-0.059326045
0.051864877
-0.009143576
0.02727513
0.013362914
-0.003043375
0.03661301
-0.054119695
-0.0025570348
-0.020362059
-0.022121781
0.0050775786
-0.017457748
-0.12293076
-0.08056311
-0.012171312
-0.025673008
-0.05060706
-0.0026369805
-0.085076064
-0.05076486
-0.017670719
0.00082380563
-0.08076254
-0.10911276
-0.05464665
-0.039355412
-0.043418866
-0.10843584
0.11276775
-0.11957917
-0.021489283
0.05730706
0.013148764
-0.036480013
0.025287045
-0.06819653
-0.045668323
-0.085285544
-0.108831726
-0.11941056
-0.04472784
-0.08493524
-0.038321972
-0.1216481
-0.1150265
-0.052904334
-0.11250805
-0.028251847
-0.016144004
-0.055856377
-0.04088729
0.0008049196
-0.1130828
-0.05715709
-0.1208012
-0.0024531127
-0.05541573
-0.06985968
-0.095057815
-0.10487292
-0.0308722
-0.07129342
-0.023005608
-0.06825874
-0.017247595
-0.053171724
-0.026614571
-0.015308965
-0.10819659
0.0035770372
-0.064807005
-0.04266286
-0.09040601
-0.098187886
-0.09506855
-0.022775477
0.0042129736
0.00018590242
0.036369722
-0.0070928633
0.092049286
-0.022663461
0.05755222
-0.08318359
0.019143144
-0.01750099
0.037589036
0.0021219114
0.009379568
0.028337423
0.06650507
-0.008096224
-0.019512678
0.026476905
0.029841688
-0.0070772865
-0.047478396
0.035493888
-0.025019428
-0.10941574
-0.046552766
-0.12373527
-0.020438671
-0.104677774
-0.064734586
-0.031733364
-0.04410107
-0.005065645
-0.03671413
-0.022906931
-0.11960165
-0.12232685
0.0026510255
-0.1214866
-0.013117656
-0.097615235
-0.030198153
-0.112118155
-0.070271574
-0.07132789
-0.11215255
-0.04738185
-0.07119473
-0.09739656
-0.077512205
0.030144192
0.016898591
0.023654466
-0.050444394
-0.0078092967
0.046495125
-0.015568126
0.0047943504
-0.09168557
-0.08201634
-0.116807885
-0.10754963
-0.11681755
-0.11601971
-0.0706459
-0.039544314
-0.09598915
-0.11208684
-0.0983269
-0.10469061
-0.0042374395
-0.05926763
-0.09248984
0.077622615
-0.08363935
-0.09576063
-0.1140533
0.053999797
0.0026571518
0.013261058
0.0066564707
0.020321019
-0.017140964
0.018396623
-0.008737552
0.012923484
1.5430982e-05
-0.061047904
0.0016373142
0.055755008
-0.059065003
-0.07179698
-0.10376379
0.052409656
-0.08981714
-0.013552333
-0.03785407
-0.044192873
-0.107305385
-0.037911043
-0.099355206
-0.053362515
-0.09368362
-0.013811149
-0.10186297
0.069830485
-0.103698194
0.04839986
-0.10206311
-0.016237747
-0.03853385
0.0072983517
-0.061036624
-0.011558774
-0.0059675337
-0.038615532
-0.079889245
-0.02636257
-0.029930059
-0.029776646
-0.117435984
-0.11713038
-0.048969693
-0.04313915
-0.036771398
0.08938048
-0.011958735
-0.076734185
-0.056289144
-0.082627356
-0.015537011
-0.011411871
-0.10035121
-0.04450089
-0.01688068
-0.079491355
-0.105422035
-0.07789868
0.03902384
-0.082602106
-0.033286255
-0.07193152
-0.09412285
0.091115095
-0.06661256
0.036801808
0.026216064
-0.026647713
-0.048905063
-0.03537208
0.027564988
0.05856079
0.0069782627
-0.03004375
0.090279035
-0.043889303
0.037817508
0.06328237
-0.023063876
-0.06138757
0.050484333
-0.05278726
-0.06515191
0.04202142
-0.061324388
-0.05302313
0.07517989
-0.031019904
-0.0015984839
-0.024138896
-0.022499943
-0.06977111
-0.027356926
-0.10913822
-0.08514005
-0.047344405
-0.11584262
0.002146922
-0.0054607056
-0.085582495
-0.024485648
0.07259311
-0.07148228
-0.0929979
0.08625443
0.08015625
-0.005372326
-0.07927545
-0.04632683
-0.085600235
-0.013915255
0.033449147
0.05655349
-0.05969552
-0.049037453
-0.013662159
-0.103081204
-0.12075005
-0.081871174
-0.038992945
-0.045228876
-0.005457579
-0.041310284
-0.0720842
-0.084829845
-0.061111834
-0.050501533
-0.11381344
-0.047753286
-0.07085671
-0.06476738
-0.06726788
-0.038410187
-0.032550268
-0.06254695
-0.0877587
-0.102079555
-0.017546885
-0.122399926
-0.03266785
-0.0071709226
0.006270774
-0.050060354
0.11686838
-0.011913128
-0.10507494
0.0697912
-0.05855371
0.010338769
0.05172088
0.058231864
-0.060457706
-0.014714209
-0.050372537
0.047401436
-0.07194604
0.004826808
-0.036073778
-0.040654846
-0.017438326
-0.016577605
-0.047501
-0.047785908
-0.08292503
-0.06955792
-0.11757226
-0.06672913
-0.019774504
-0.014986545
-0.018293055
-0.015419172
-0.03618431
-0.1039315
-0.091522954
-0.008538166
-0.046225023
-0.07413873
-0.085288644
9.626157e-05
-0.011248887
-0.10787448
-0.07625309
-0.0022303227
0.00431622
-0.0018047099
-0.09262594
-0.029109415
-0.07789417
-0.08536773
-0.106978886
0.0106403995
-0.0037482213
-0.09313965
-0.03092991
0.00065739336
-0.068717144
-0.021147186
-0.07536756
-0.0019373216
-0.11237553
-0.069512285
-0.02375663
-0.027502023
-0.013161663
-0.04857901
-0.021295536
-0.06896882
-0.02661372
0.052063767
-0.01827021
-0.043086924
-0.07310881
-0.0044750767
-0.10786747
-0.0012516085
0.01851669
-0.077853665
0.00691937
-0.11298022
-0.0065857572
-0.078032024
-0.08226891
0.03715204
0.010411132
0.005654962
-0.00025591813
0.01818527
-0.01609051
0.0059919823
0.014149967
-0.051248852
-0.094039574
-0.10773438
-0.07994758
-0.0151714
-0.11356035
-0.068557575
-0.09870819
-0.08476297
-0.09129239
-0.036774453
-0.04392968
0.0681964
-0.036861293
-0.089895785
-0.009416481
-0.088162355
0.07942246
0.004655744
-0.12174458
-0.0050180363
-0.06966459
-0.07812634
-0.03438779
-0.12103676
-0.01361762
-0.008459355
-0.083580114
-0.055189773
0.08815546
0.04691336
0.017826853
0.016783105
0.07584878
0.074105054
-0.062445372
-0.041367322
0.0028355506
0.02500068
0.051380124
-0.006365441
0.025026027
0.022426749
-0.059390567
-0.0043347953
-0.035203297
-0.013727705
0.062999174
0.026144994
0.03783229
0.0020805222
-0.010385325
-0.015190475
0.106927745
0.066443555
-0.043983612
-0.11371981
-0.0031535039
-0.08809709
-0.09993571
-0.05101474
-0.01133563
-0.06408185
-0.08866491
-0.011921243
-0.014096455
-0.024196597
-0.017676152
-0.100298174
-0.03294367
-0.03409056
-0.094369516
-0.07624146
-0.022194516
-0.05572861
-0.10459003
-0.020588966
-0.016421322
-0.037831284
-0.04722063
0.0043421537
-0.08302099
0.020004883
-0.07024755
-0.02060244
0.03897934
0.028011352
-0.021592183
0.003956043
0.025049511
0.009703337
-0.10301683
-0.064480215
-0.09562538
-0.06094736
-0.048436116
-0.033998273
-0.12122705
-0.028741078
-0.07803931
0.021100532
0.024012337
-0.016063038
-0.052427683
-0.035714213
-0.012553538
-0.080348685
-0.056365937
-0.033049647
-0.11322763
-0.05452416
0.05372676
-0.009938786
-0.065381736
0.103676476
-0.05853427
-0.0214743
0.016666716
-0.054371744
-0.009901468
-0.05993353
-0.12165924
-0.054452457
-0.011421155
-0.027867712
-0.107086785
-0.08234673
-0.010917063
-0.12393463
-0.12399791
-0.064628765
-0.033209156
-0.11328209
-0.094772816
-0.044402152
-0.023113823
-0.012273193
-0.022898052
-0.02304108
-0.03280817
-0.021483606
-0.025208905
0.037016526
-0.06563874
-0.020686429
-0.07111439
-0.034078438
-0.08859764
-0.11079207
-0.019338744
-0.0678073
-0.1119903
-0.02003714
-0.058252852
-0.023005163
-0.018498994
-0.004428028
-0.012673058
-0.03254067
-0.09042603
-0.020794507
-0.07988859
-0.06302198
-0.093847595
-0.03211343
-0.08333357
-0.122999586
-0.10159916
-0.06608788
-0.08029805
-0.08784824
-0.076132804
-0.098899394
-0.08831148
-0.054303218
-0.07661007
-0.092918836
-0.033656564
-0.0024490277
-0.04917679
-0.082839124
-0.035763286
-0.0053884755
-0.05301385
-0.01867388
-0.018134387
-0.02058738
-0.054119278
-0.10651825
-0.0036655394
-0.055276252
0.046068605
0.0098190885
-0.06600575
-0.020721273
0.061039276
-0.06940831
-0.047734797
0.019029934
0.108606055
-0.016193569
0.07028077
0.0038056048
0.055185273
-0.03563577
0.032096863
-0.05689281
-0.09001541
0.14135596
0.0879298
0.038306378
0.11707545
0.085805714
0.032895952
0.08723616
0.113129355
0.12508444
0.091690786
0.11888406
0.014998802
0.12912689
0.06840274
0.13648483
0.107490964
-0.020919397
0.10736174
0.101793975
0.07696415
0.11719467
0.09015804
0.04582125
0.07347288
0.046958894
0.02662623
0.086650275
0.051674165
0.08220366
0.14928196
0.10297698
0.11422196
0.11812995
0.14038058
0.08941157
0.15580486
0.114715114
0.05273064
0.057416476
0.08132893
0.0923053
0.13593379
0.14501801
0.07350044
0.11818149
0.041814327
0.0971533
0.023823185
0.063388236
0.07457698
0.11245746
0.051543348
0.026288444
0.03675732
0.013950272
0.057861507
0.08780812
0.061077904
0.040658254
0.09544301
0.00877571
0.05552592
0.029555717
0.039903697
0.06917672
0.030681627
0.050967835
0.013126164
0.09260444
0.0030533932
0.062439475
0.09840333
-0.06775642
0.032033253
0.057677876
0.055122633
0.039205518
0.0927326
-0.055114575
-0.017009467
-0.027377313
0.07415633
0.08820966
0.14309278
0.115968674
0.09447408
0.113866575
0.0764228
0.12965485
0.074819185
0.06434185
0.15435725
0.07545844
0.09639793
0.12687606
0.14886509
0.11807049
0.06406464
0.116187446
0.087457806
0.0042828126
0.06647291
0.0318048
0.054559875
-0.0055871187
-0.008869268
0.045987878
0.05083789
0.008675442
-0.08882797
-0.08206169
-0.08324649
-0.019607918
-0.020168984
-0.07888643
-0.04563197
-0.081794746
0.12243393
0.15904102
0.13360578
0.13425556
0.12703729
0.14929691
0.1383354
0.13110346
0.03554424
0.13676457
0.047957618
0.045102887
0.15773666
0.134653
0.12833072
0.09597166
0.08731616
0.10058146
-0.010185485
-0.022172285
-0.083851404
-0.078407444
-0.0016985609
-0.05938278
0.001663675
-0.064910665
-0.039100394
0.038774192
-0.03853586
0.008638768
0.046412367
0.014842985
-0.07763201
-0.039578654
0.07084482
-0.026955478
0.036133755
0.03440197
0.07090179
0.040603943
0.098740965
0.006761446
0.030522453
0.1142012
0.048036784
0.09476496
0.019281898
-0.022116896
0.044533573
0.12315224
0.03965702
0.010662082
0.0976413
0.06826654
0.07301576
0.069875345
0.005996518
0.043148212
0.095439315
0.00021006093
0.08054036
-0.015171299
0.07755934
0.006631731
-0.053742655
-0.031447694
-0.024909958
0.059012756
-0.09528182
0.0049045747
0.023967858
0.072122194
-0.030754996
-0.048631027
-0.014854286
-0.004030279
-0.031424288
-0.034560625
-0.038203105
-0.100892775
-0.04461422
-0.048811987
-0.14987636
-0.055619497
-0.07589115
-0.07046644
-0.045659807
-0.055788226
-0.10149324
-0.04268385
-0.006232966
0.018883226
-0.012248203
-0.10702691
-0.03301786
0.017531144
-0.06672742
-0.14098434
-0.10387579
0.053356294
-0.05664795
-4.192976e-06
-0.055086147
0.030051753
0.008795271
0.058010746
-0.0986946
0.09017251
0.1335394
0.12878807
0.15268214
0.042563505
0.10789566
0.05964107
0.075033806
0.11224468
0.13980126
-0.013515122
0.034458898
-0.05993162
-0.051479764
-0.019302428
-0.014676568
-0.09059315
-0.040951513
-0.06162728
0.049687933
0.042917814
0.018705882
0.02057392
0.015743837
-0.03920375
0.0069991276
-0.05955805
-0.10542443
0.076165736
0.17275238
0.06550662
0.11034009
0.1473663
0.14289026
0.104213096
0.11096964
0.11437173
0.09826958
0.13929589
0.12420365
0.1442142
0.0715411
0.14114185
0.0458196
0.14168708
0.12796457
0.13510704
0.059462093
0.13539861
0.14239329
0.12129024
0.10110034
0.06811568
0.11178518
0.092062525
-0.050218336
0.016042497
-0.10813173
0.095586345
-0.025273085
-0.08670316
0.019960817
-0.1001523
-0.033053502
-0.008494834
-0.0219799
0.03811765
0.032392077
0.0491404
0.04414782
-0.04158808
0.026450694
0.0697065
0.07716453
0.1256235
0.15124854
0.047804072
0.09635501
0.074071385
0.069828115
0.09948682
0.15339503
0.0022797005
-0.03539839
0.061721843
0.01561553
-0.018300274
-0.0020137588
0.01677607
0.061075877
-0.036125436
0.031454075
-0.0054640183
0.0026217073
0.044706203
-0.0169434
-0.006095076
-0.044008143
-0.08261661
-0.07599701
0.05924652
0.08553753
0.06579855
0.08946178
0.06963317
0.082949
0.06472205
-0.003370995
0.08315586
0.08104735
0.06837525
0.07071872
0.07306983
0.059838183
0.014692393
0.12552737
0.009828677
0.10348803
-0.011818256
-0.01844985
0.07199377
-0.04006831
0.0020095173
0.027346516
-0.009758477
-0.10851831
-0.10706264
0.06207395
-0.007114965
0.088411525
-0.011917734
0.022097861
0.03682355
0.08172451
0.06342513
0.018289682
0.024671221
-0.061188962
-0.019418294
0.057362612
0.014367171
0.05488018
0.040982712
-0.012582591
0.02718191
0.04525801
0.038510248
0.07242203
0.021373833
0.101230465
0.117049485
0.008184234
0.062263567
0.060708147
-0.08658789
0.016623745
0.09240706
-0.0017401983
0.011021408
0.014788115
0.029488828
0.10542822
0.058046296
0.12457079
0.064268894
0.15463431
0.09763656
0.13235202
0.09143498
0.113198414
0.08701308
0.06671001
-0.0426872
-0.14090335
-0.12693283
-0.038996957
-0.042837914
-0.11835863
-0.015379966
-0.0047008023
0.03416373
0.0099168
-0.034192584
0.016472103
0.0033939506
-0.049785987
-0.031579472
-0.05204444
-0.07162137
-0.021439917
0.03786274
0.098953836
0.0019254658
-0.032300938
0.03360882
-0.011618522
-0.08154068
-0.035062052
0.009862812
0.038202677
0.06980866
0.04628207
0.081506394
0.1084699
0.04277193
0.113959506
0.040415585
0.08270784
0.091693476
0.08307836
0.11826203
0.081042945
0.15197459
0.07148096
0.14738126
0.101305135
0.13264267
0.08128988
0.10810692
0.14923882
0.1655856
0.10194197
0.07980971
0.1457523
0.074955486
0.12277038
-0.03829183
-0.014718334
0.024512194
0.078877605
0.053506244
-0.005566824
-0.062374722
0.07795047
0.0633909
0.14211255
0.06369488
0.123076916
0.04910385
0.036665216
0.088353984
0.10946873
0.08555038
0.113537714
-0.12210246
-0.10403961
-0.001090477
-0.046583008
-0.029910779
-0.020919442
-0.03753802
-0.026932243
0.021518383
-0.12780604
-0.08476953
-0.10518498
0.043054942
